graph 1 793.07 13.736
node 0 457.74 13.264 2.2222 0.94444 "X[12] <= 5.05\nmse = 13247380519.37\nsamples = 10442\nvalue = 207348.18" filled, rounded box black #f5cdb0
node 1 340.37 11.819 2.0139 0.94444 "X[1] <= 0.5\nmse = 8471138359.3\nsamples = 8209\nvalue = 174487.51" filled, rounded box black #f6d6be
node 2 201.02 10.375 2.1111 0.94444 "X[12] <= 3.06\nmse = 8257034273.94\nsamples = 5230\nvalue = 209113.93" filled, rounded box black #f5cdb0
node 3 100.23 8.9306 2.1111 0.94444 "X[5] <= -118.3\nmse = 6338443794.78\nsamples = 2225\nvalue = 172373.56" filled, rounded box black #f7d6bf
node 4 53.896 7.4861 2.1111 0.94444 "X[6] <= 37.91\nmse = 8880994613.15\nsamples = 1101\nvalue = 191759.17" filled, rounded box black #f6d1b7
node 5 27.104 6.0417 2.1111 0.94444 "X[5] <= -122.4\nmse = 8924552870.79\nsamples = 904\nvalue = 206866.96" filled, rounded box black #f5cdb1
node 6 12.882 4.5972 2.2222 0.94444 "X[8] <= 2483.0\nmse = 11815251296.05\nsamples = 85\nvalue = 306386.56" filled, rounded box black #efb388
node 7 6.2153 3.1528 2.2222 0.94444 "X[11] <= 96.0\nmse = 11394828135.69\nsamples = 55\nvalue = 279982.2" filled, rounded box black #f1ba93
node 8 2.7708 1.7083 2.0139 0.94444 "X[12] <= 2.52\nmse = 625025000.25\nsamples = 2\nvalue = 475000.5" filled, rounded box black #e68743
node 9 0.84028 0.36806 1.6806 0.73611 "mse = 0.0\nsamples = 1\nvalue = 450000.0" filled, rounded box black #e88e4d
node 10 2.7708 0.36806 1.6806 0.73611 "mse = 0.0\nsamples = 1\nvalue = 500001.0" filled, rounded box black #e58139
node 11 6.2153 1.7083 2.1111 0.94444 "X[9] <= 475.5\nmse = 9936631131.13\nsamples = 53\nvalue = 270231.29" filled, rounded box black #f1bd97
node 12 4.9236 0.36806 2.1111 0.73611 "mse = 6218653931.97\nsamples = 23\nvalue = 232975.03" filled, rounded box black #f3c6a6
node 13 7.3403 0.36806 2.2222 0.73611 "mse = 10913776112.85\nsamples = 30\nvalue = 300713.68" filled, rounded box black #f0b58a
node 14 12.882 3.1528 2.0139 0.94444 "X[10] <= 1736.0\nmse = 9291909374.3\nsamples = 30\nvalue = 351651.16" filled, rounded box black #eda876
node 15 11.701 1.7083 2.1111 0.94444 "X[7] <= 33.5\nmse = 6756256626.05\nsamples = 13\nvalue = 395744.16" filled, rounded box black #eb9c64
node 16 9.5486 0.36806 1.6806 0.73611 "mse = 0.0\nsamples = 1\nvalue = 115000.0" filled, rounded box black #fae5d6
node 17 11.701 0.36806 2.1111 0.73611 "mse = 3616878283.47\nsamples = 12\nvalue = 407441.83" filled, rounded box black #ea995f
node 18 14.062 1.7083 2.1111 0.94444 "X[6] <= 37.8\nmse = 7798430219.21\nsamples = 17\nvalue = 305720.96" filled, rounded box black #efb388
node 19 14.062 0.36806 2.1111 0.73611 "mse = 3177064969.14\nsamples = 13\nvalue = 277994.44" filled, rounded box black #f1bb94
node 20 16.479 0.36806 2.2222 0.73611 "mse = 12437411100.25\nsamples = 4\nvalue = 388900.5" filled, rounded box black #eb9e66
node 21 27.104 4.5972 2.1111 0.94444 "X[5] <= -119.83\nmse = 7547136532.31\nsamples = 819\nvalue = 196922.47" filled, rounded box black #f5d0b5
node 22 25.368 3.1528 2.1111 0.94444 "X[12] <= 2.51\nmse = 5842583325.99\nsamples = 415\nvalue = 175583.21" filled, rounded box black #f6d5bd
node 23 21.312 1.7083 2.1111 0.94444 "X[6] <= 37.85\nmse = 6803575625.79\nsamples = 210\nvalue = 158038.08" filled, rounded box black #f7dac5
node 24 18.896 0.36806 2.1111 0.73611 "mse = 5479009169.72\nsamples = 197\nvalue = 151465.7" filled, rounded box black #f8dcc7
node 25 21.312 0.36806 2.2222 0.73611 "mse = 16279496072.81\nsamples = 13\nvalue = 250350.09" filled, rounded box black #f2c29f
node 26 25.368 1.7083 2.0139 0.94444 "X[4] <= 0.5\nmse = 4293902142.5\nsamples = 205\nvalue = 192867.26" filled, rounded box black #f5d1b6
node 27 23.688 0.36806 2.0139 0.73611 "mse = 3548435935.7\nsamples = 176\nvalue = 183946.13" filled, rounded box black #f6d3ba
node 28 25.951 0.36806 2.0139 0.73611 "mse = 5556686253.7\nsamples = 29\nvalue = 241590.38" filled, rounded box black #f3c4a2
node 29 28.84 3.1528 2.1111 0.94444 "X[10] <= 780.5\nmse = 8342481434.06\nsamples = 404\nvalue = 218358.15" filled, rounded box black #f4caac
node 30 28.84 1.7083 2.2222 0.94444 "X[7] <= 51.0\nmse = 10484478395.44\nsamples = 72\nvalue = 273248.65" filled, rounded box black #f1bc96
node 31 28.271 0.36806 2.1111 0.73611 "mse = 8237393043.81\nsamples = 64\nvalue = 254407.71" filled, rounded box black #f2c19d
node 32 30.59 0.36806 2.0139 0.73611 "mse = 9763017883.0\nsamples = 8\nvalue = 380406.5" filled, rounded box black #eba06a
node 33 32.854 1.7083 2.1111 0.94444 "X[9] <= 567.0\nmse = 7241023587.38\nsamples = 332\nvalue = 207813.65" filled, rounded box black #f5cdb0
node 34 32.854 0.36806 2.0139 0.73611 "mse = 4110992784.0\nsamples = 155\nvalue = 174196.0" filled, rounded box black #f6d6be
node 35 35.118 0.36806 2.0139 0.73611 "mse = 8120151709.3\nsamples = 177\nvalue = 235189.59" filled, rounded box black #f3c6a5
node 36 53.896 6.0417 2.1111 0.94444 "X[6] <= 39.39\nmse = 2356143437.67\nsamples = 197\nvalue = 119478.76" filled, rounded box black #f9e4d4
node 37 49.618 4.5972 2.1111 0.94444 "X[5] <= -122.39\nmse = 2475538964.18\nsamples = 123\nvalue = 139284.57" filled, rounded box black #f8dfcc
node 38 43.118 3.1528 2.1111 0.94444 "X[5] <= -122.88\nmse = 2201543482.35\nsamples = 59\nvalue = 164080.0" filled, rounded box black #f7d8c2
node 39 39.646 1.7083 1.9028 0.94444 "X[6] <= 39.16\nmse = 496915255.1\nsamples = 19\nvalue = 124578.57" filled, rounded box black #f9e3d2
node 40 37.382 0.36806 2.0139 0.73611 "mse = 406118677.69\nsamples = 15\nvalue = 119136.36" filled, rounded box black #f9e4d4
node 41 39.646 0.36806 2.0139 0.73611 "mse = 323045555.56\nsamples = 4\nvalue = 144533.33" filled, rounded box black #f8ddca
node 42 43.118 1.7083 2.1111 0.94444 "X[5] <= -122.58\nmse = 1895887294.55\nsamples = 40\nvalue = 183484.21" filled, rounded box black #f6d3ba
node 43 41.965 0.36806 2.1111 0.73611 "mse = 1521981835.94\nsamples = 34\nvalue = 173906.25" filled, rounded box black #f6d6be
node 44 44.285 0.36806 2.0139 0.73611 "mse = 791366666.67\nsamples = 6\nvalue = 234566.67" filled, rounded box black #f3c6a5
node 45 49.618 3.1528 2.1111 0.94444 "X[5] <= -122.31\nmse = 1775578239.23\nsamples = 64\nvalue = 118822.33" filled, rounded box black #f9e4d5
node 46 48.451 1.7083 2.0139 0.94444 "X[5] <= -122.33\nmse = 708249461.73\nsamples = 28\nvalue = 92582.22" filled, rounded box black #fbebdf
node 47 46.549 0.36806 2.0139 0.73611 "mse = 382957239.23\nsamples = 27\nvalue = 97588.1" filled, rounded box black #fbeadd
node 48 48.59 0.36806 1.5694 0.73611 "mse = 0.0\nsamples = 1\nvalue = 22500.0" filled, rounded box black #fffdfc
node 49 50.771 1.7083 2.1111 0.94444 "X[6] <= 37.94\nmse = 1654986709.27\nsamples = 36\nvalue = 139181.03" filled, rounded box black #f8dfcc
node 50 50.632 0.36806 2.0139 0.73611 "mse = 348132892.56\nsamples = 6\nvalue = 189772.73" filled, rounded box black #f6d2b8
node 51 52.951 0.36806 2.1111 0.73611 "mse = 1221609642.37\nsamples = 30\nvalue = 127340.43" filled, rounded box black #f9e2d1
node 52 58.09 4.5972 2.0139 0.94444 "X[7] <= 21.5\nmse = 545227064.06\nsamples = 74\nvalue = 87923.73" filled, rounded box black #fbece1
node 53 58.09 3.1528 2.0139 0.94444 "X[10] <= 899.5\nmse = 761700734.69\nsamples = 19\nvalue = 101357.14" filled, rounded box black #fae9dc
node 54 56.979 1.7083 1.9028 0.94444 "X[11] <= 195.0\nmse = 39541224.49\nsamples = 4\nvalue = 145285.71" filled, rounded box black #f8ddca
node 55 55.104 0.36806 1.6806 0.73611 "mse = 0.0\nsamples = 1\nvalue = 135600.0" filled, rounded box black #f9e0ce
node 56 57.049 0.36806 1.6944 0.73611 "mse = 2822400.0\nsamples = 3\nvalue = 149160.0" filled, rounded box black #f8dcc8
node 57 59.188 1.7083 2.0139 0.94444 "X[7] <= 20.5\nmse = 339203303.57\nsamples = 15\nvalue = 90375.0" filled, rounded box black #fbebe0
node 58 59.104 0.36806 1.9028 0.73611 "mse = 175624800.0\nsamples = 13\nvalue = 85800.0" filled, rounded box black #fbede2
node 59 61.215 0.36806 1.8056 0.73611 "mse = 74420000.0\nsamples = 2\nvalue = 128500.0" filled, rounded box black #f9e2d1
node 60 64.174 3.1528 1.9028 0.94444 "X[12] <= 2.1\nmse = 345758081.0\nsamples = 55\nvalue = 82259.04" filled, rounded box black #fbeee4
node 61 64.174 1.7083 2.0139 0.94444 "X[8] <= 337.0\nmse = 291655623.27\nsamples = 26\nvalue = 72773.68" filled, rounded box black #fcf0e7
node 62 63.215 0.36806 1.6806 0.73611 "mse = 0.0\nsamples = 1\nvalue = 153100.0" filled, rounded box black #f8dbc7
node 63 65.257 0.36806 1.9028 0.73611 "mse = 120438100.8\nsamples = 25\nvalue = 70602.7" filled, rounded box black #fcf1e8
node 64 67.41 1.7083 2.0139 0.94444 "X[5] <= -123.95\nmse = 251310587.65\nsamples = 29\nvalue = 90268.89" filled, rounded box black #fbebe0
node 65 67.41 0.36806 1.9028 0.73611 "mse = 113719875.0\nsamples = 24\nvalue = 86725.0" filled, rounded box black #fbece2
node 66 69.562 0.36806 1.9028 0.73611 "mse = 447777600.0\nsamples = 5\nvalue = 118620.0" filled, rounded box black #f9e4d5
node 67 100.23 7.4861 2.0139 0.94444 "X[6] <= 34.05\nmse = 3073066375.0\nsamples = 1124\nvalue = 153140.08" filled, rounded box black #f8dbc7
node 68 93.09 6.0417 2.1111 0.94444 "X[12] <= 2.22\nmse = 2860830189.54\nsamples = 897\nvalue = 145476.56" filled, rounded box black #f8ddca
node 69 78.257 4.5972 2.1111 0.94444 "X[7] <= 7.0\nmse = 1945196833.29\nsamples = 439\nvalue = 129580.06" filled, rounded box black #f9e1d0
node 70 75.84 3.1528 2.2222 0.94444 "X[12] <= 1.88\nmse = 18426108064.16\nsamples = 4\nvalue = 285840.2" filled, rounded box black #f0b990
node 71 73.646 1.7083 2.0139 0.94444 "X[12] <= 1.52\nmse = 8699870000.0\nsamples = 3\nvalue = 232300.0" filled, rounded box black #f3c7a6
node 72 71.604 0.36806 1.6806 0.73611 "mse = 0.0\nsamples = 1\nvalue = 325000.0" filled, rounded box black #eeae80
node 73 73.646 0.36806 1.9028 0.73611 "mse = 213160000.0\nsamples = 2\nvalue = 139600.0" filled, rounded box black #f8dfcc
node 74 75.84 1.7083 1.6806 0.73611 "mse = 0.0\nsamples = 1\nvalue = 500001.0" filled, rounded box black #e58139
node 75 78.257 3.1528 2.1111 0.94444 "X[5] <= -118.23\nmse = 1658806197.49\nsamples = 435\nvalue = 128490.38" filled, rounded box black #f9e2d1
node 76 78.132 1.7083 2.1111 0.94444 "X[6] <= 33.87\nmse = 1516318695.04\nsamples = 161\nvalue = 113786.4" filled, rounded box black #fae5d7
node 77 75.91 0.36806 2.1111 0.73611 "mse = 1929820453.51\nsamples = 14\nvalue = 195995.24" filled, rounded box black #f5d0b5
node 78 78.174 0.36806 1.9028 0.73611 "mse = 801809655.8\nsamples = 147\nvalue = 106247.6" filled, rounded box black #fae7da
node 79 80.493 1.7083 2.1111 0.94444 "X[5] <= -117.15\nmse = 1557381202.44\nsamples = 274\nvalue = 136361.88" filled, rounded box black #f8dfcd
node 80 80.438 0.36806 2.1111 0.73611 "mse = 1575435551.22\nsamples = 163\nvalue = 150981.25" filled, rounded box black #f8dcc7
node 81 82.757 0.36806 2.0139 0.73611 "mse = 631192572.02\nsamples = 111\nvalue = 112840.22" filled, rounded box black #fae6d7
node 82 93.09 4.5972 2.1111 0.94444 "X[5] <= -117.15\nmse = 3274294546.49\nsamples = 458\nvalue = 161710.33" filled, rounded box black #f7d9c3
node 83 90.854 3.1528 2.0139 0.94444 "X[6] <= 33.85\nmse = 3717116277.7\nsamples = 355\nvalue = 170446.06" filled, rounded box black #f7d7c0
node 84 87.438 1.7083 2.1111 0.94444 "X[7] <= 32.5\nmse = 5727400969.28\nsamples = 169\nvalue = 195237.66" filled, rounded box black #f5d0b5
node 85 85.076 0.36806 2.1111 0.73611 "mse = 5062157387.24\nsamples = 120\nvalue = 180975.69" filled, rounded box black #f6d4bb
node 86 87.438 0.36806 2.1111 0.73611 "mse = 5527263730.59\nsamples = 49\nvalue = 232930.01" filled, rounded box black #f3c6a6
node 87 90.854 1.7083 1.9028 0.94444 "X[5] <= -118.23\nmse = 933788901.9\nsamples = 186\nvalue = 148646.55" filled, rounded box black #f8dcc8
node 88 89.757 0.36806 2.0139 0.73611 "mse = 368382148.35\nsamples = 37\nvalue = 110082.46" filled, rounded box black #fae6d8
node 89 92.021 0.36806 2.0139 0.73611 "mse = 619285506.82\nsamples = 149\nvalue = 158080.69" filled, rounded box black #f7dac5
node 90 95.326 3.1528 2.0139 0.94444 "X[6] <= 32.73\nmse = 664125644.34\nsamples = 103\nvalue = 132321.6" filled, rounded box black #f9e1cf
node 91 95.326 1.7083 2.0139 0.94444 "X[11] <= 270.5\nmse = 447383305.63\nsamples = 37\nvalue = 118305.26" filled, rounded box black #f9e4d5
node 92 94.229 0.36806 1.9028 0.73611 "mse = 65966913.58\nsamples = 5\nvalue = 99944.44" filled, rounded box black #fae9dc
node 93 96.438 0.36806 2.0139 0.73611 "mse = 443837078.99\nsamples = 32\nvalue = 121747.92" filled, rounded box black #f9e3d3
node 94 98.701 1.7083 1.9028 0.94444 "X[12] <= 2.67\nmse = 617242309.3\nsamples = 66\nvalue = 139930.48" filled, rounded box black #f8dfcc
node 95 98.701 0.36806 2.0139 0.73611 "mse = 661479533.61\nsamples = 33\nvalue = 130748.15" filled, rounded box black #f9e1d0
node 96 100.97 0.36806 2.0139 0.73611 "mse = 386601707.04\nsamples = 33\nvalue = 149652.94" filled, rounded box black #f8dcc8
node 97 108.51 6.0417 2.0139 0.94444 "X[5] <= -118.24\nmse = 2739362520.2\nsamples = 227\nvalue = 183988.45" filled, rounded box black #f6d3ba
node 98 108.51 4.5972 2.1111 0.94444 "X[12] <= 1.19\nmse = 2979261977.02\nsamples = 95\nvalue = 210050.33" filled, rounded box black #f5ccaf
node 99 107.35 3.1528 2.0139 0.94444 "X[12] <= 1.15\nmse = 8611822100.0\nsamples = 6\nvalue = 288130.0" filled, rounded box black #f0b88f
node 100 105.24 1.7083 2.1111 0.94444 "X[7] <= 34.5\nmse = 4640421224.49\nsamples = 5\nvalue = 240185.71" filled, rounded box black #f3c4a3
node 101 103.17 0.36806 1.9028 0.73611 "mse = 479610000.0\nsamples = 2\nvalue = 159400.0" filled, rounded box black #f7d9c4
node 102 105.38 0.36806 2.0139 0.73611 "mse = 2650000000.0\nsamples = 3\nvalue = 272500.0" filled, rounded box black #f1bc96
node 103 107.4 1.7083 1.6806 0.73611 "mse = 0.0\nsamples = 1\nvalue = 400000.0" filled, rounded box black #ea9b62
node 104 109.67 3.1528 2.1111 0.94444 "X[9] <= 1684.0\nmse = 2129239624.43\nsamples = 89\nvalue = 204590.21" filled, rounded box black #f5ceb2
node 105 109.59 1.7083 2.1111 0.94444 "X[8] <= 185.0\nmse = 1758018083.37\nsamples = 85\nvalue = 208947.79" filled, rounded box black #f5cdb0
node 106 107.48 0.36806 1.6806 0.73611 "mse = 0.0\nsamples = 1\nvalue = 312500.0" filled, rounded box black #efb286
node 107 109.63 0.36806 2.1111 0.73611 "mse = 1550343313.92\nsamples = 84\nvalue = 206612.03" filled, rounded box black #f5cdb1
node 108 111.95 1.7083 2.1111 0.94444 "X[12] <= 1.88\nmse = 1805030612.24\nsamples = 4\nvalue = 119928.57" filled, rounded box black #f9e4d4
node 109 111.9 0.36806 1.9028 0.73611 "mse = 433500000.0\nsamples = 2\nvalue = 95500.0" filled, rounded box black #fbeade
node 110 114.01 0.36806 1.8056 0.73611 "mse = 12250000.0\nsamples = 2\nvalue = 181000.0" filled, rounded box black #f6d4bb
node 111 119.44 4.5972 2.1111 0.94444 "X[5] <= -118.15\nmse = 1653531861.68\nsamples = 132\nvalue = 164248.52" filled, rounded box black #f7d8c2
node 112 119.44 3.1528 2.0139 0.94444 "X[8] <= 1278.5\nmse = 845241174.99\nsamples = 73\nvalue = 147474.31" filled, rounded box black #f8ddc9
node 113 118.35 1.7083 2.0139 0.94444 "X[7] <= 43.5\nmse = 541543786.85\nsamples = 27\nvalue = 128138.1" filled, rounded box black #f9e2d1
node 114 116.17 0.36806 2.0139 0.73611 "mse = 293755089.16\nsamples = 16\nvalue = 136948.15" filled, rounded box black #f8dfcd
node 115 118.38 0.36806 1.9028 0.73611 "mse = 596373600.0\nsamples = 11\nvalue = 112280.0" filled, rounded box black #fae6d7
node 116 120.62 1.7083 2.0139 0.94444 "X[6] <= 34.07\nmse = 654316547.12\nsamples = 46\nvalue = 159595.52" filled, rounded box black #f7d9c4
node 117 120.59 0.36806 2.0139 0.73611 "mse = 321957052.15\nsamples = 12\nvalue = 140223.81" filled, rounded box black #f8decc
node 118 122.85 0.36806 2.0139 0.73611 "mse = 556520642.72\nsamples = 34\nvalue = 168439.13" filled, rounded box black #f7d7c0
node 119 122.83 3.1528 2.1111 0.94444 "X[12] <= 2.02\nmse = 1884581562.39\nsamples = 59\nvalue = 183908.61" filled, rounded box black #f6d3ba
node 120 122.83 1.7083 1.6806 0.73611 "mse = 0.0\nsamples = 1\nvalue = 500001.0" filled, rounded box black #e58139
node 121 125.06 1.7083 2.0139 0.94444 "X[5] <= -118.06\nmse = 807235457.23\nsamples = 58\nvalue = 180472.83" filled, rounded box black #f6d4bb
node 122 125.06 0.36806 1.9028 0.73611 "mse = 546654909.2\nsamples = 35\nvalue = 195098.25" filled, rounded box black #f5d0b5
node 123 127.27 0.36806 2.0139 0.73611 "mse = 315930481.63\nsamples = 23\nvalue = 156654.29" filled, rounded box black #f7dac5
node 124 201.02 8.9306 2.1111 0.94444 "X[5] <= -118.31\nmse = 7931433222.93\nsamples = 3005\nvalue = 236488.2" filled, rounded box black #f3c5a5
node 125 182.84 7.4861 2.0139 0.94444 "X[6] <= 37.93\nmse = 8888553650.3\nsamples = 1696\nvalue = 260958.3" filled, rounded box black #f2bf9b
node 126 156.78 6.0417 2.1111 0.94444 "X[5] <= -122.31\nmse = 8849742575.64\nsamples = 1457\nvalue = 271854.78" filled, rounded box black #f1bc96
node 127 142.47 4.5972 2.1111 0.94444 "X[6] <= 37.76\nmse = 7901253724.24\nsamples = 278\nvalue = 330756.08" filled, rounded box black #eead7e
node 128 135.49 3.1528 2.1111 0.94444 "X[6] <= 37.75\nmse = 4226658418.52\nsamples = 196\nvalue = 299182.91" filled, rounded box black #f0b58b
node 129 131.95 1.7083 2.1111 0.94444 "X[6] <= 37.6\nmse = 3816488860.64\nsamples = 146\nvalue = 285539.57" filled, rounded box black #f0b991
node 130 129.59 0.36806 2.1111 0.73611 "mse = 6298368948.34\nsamples = 34\nvalue = 338250.07" filled, rounded box black #eeab7b
node 131 131.95 0.36806 2.1111 0.73611 "mse = 1654433466.24\nsamples = 112\nvalue = 267232.93" filled, rounded box black #f1bd98
node 132 135.49 1.7083 2.0139 0.94444 "X[5] <= -122.42\nmse = 3354801700.0\nsamples = 50\nvalue = 338040.52" filled, rounded box black #eeab7b
node 133 134.31 0.36806 2.1111 0.73611 "mse = 2680321918.01\nsamples = 43\nvalue = 347798.59" filled, rounded box black #eda977
node 134 136.67 0.36806 2.1111 0.73611 "mse = 2099942469.14\nsamples = 7\nvalue = 262144.44" filled, rounded box black #f2bf9a
node 135 142.47 3.1528 2.1111 0.94444 "X[5] <= -122.4\nmse = 8336423367.35\nsamples = 82\nvalue = 410080.42" filled, rounded box black #ea985e
node 136 141.28 1.7083 2.1111 0.94444 "X[6] <= 37.78\nmse = 6195617831.53\nsamples = 76\nvalue = 420707.23" filled, rounded box black #e99659
node 137 139.03 0.36806 2.1111 0.73611 "mse = 5041545767.01\nsamples = 36\nvalue = 379217.61" filled, rounded box black #eba06a
node 138 141.4 0.36806 2.1111 0.73611 "mse = 3975541882.35\nsamples = 40\nvalue = 461481.5" filled, rounded box black #e78b49
node 139 143.65 1.7083 2.1111 0.94444 "X[11] <= 209.5\nmse = 5718343333.33\nsamples = 6\nvalue = 206400.0" filled, rounded box black #f5cdb1
node 140 143.55 0.36806 1.6806 0.73611 "mse = 0.0\nsamples = 1\nvalue = 350000.0" filled, rounded box black #eda876
node 141 145.65 0.36806 2.0139 0.73611 "mse = 1912981600.0\nsamples = 5\nvalue = 177680.0" filled, rounded box black #f6d5bd
node 142 156.78 4.5972 2.1111 0.94444 "X[6] <= 34.17\nmse = 8107448960.62\nsamples = 1179\nvalue = 258609.77" filled, rounded box black #f2c09c
node 143 153.8 3.1528 2.2222 0.94444 "X[5] <= -118.37\nmse = 11157493816.91\nsamples = 332\nvalue = 315912.55" filled, rounded box black #efb184
node 144 150.23 1.7083 2.1111 0.94444 "X[6] <= 34.16\nmse = 9370937422.55\nsamples = 200\nvalue = 350083.0" filled, rounded box black #eda876
node 145 147.91 0.36806 2.0139 0.73611 "mse = 9010546697.2\nsamples = 158\nvalue = 368157.76" filled, rounded box black #eca36f
node 146 150.23 0.36806 2.1111 0.73611 "mse = 6036490928.32\nsamples = 42\nvalue = 291398.74" filled, rounded box black #f0b78e
node 147 153.8 1.7083 2.1111 0.94444 "X[6] <= 34.06\nmse = 9124763415.08\nsamples = 132\nvalue = 260869.51" filled, rounded box black #f2bf9b
node 148 152.59 0.36806 2.1111 0.73611 "mse = 3761091878.24\nsamples = 96\nvalue = 223088.97" filled, rounded box black #f4c9aa
node 149 155.01 0.36806 2.2222 0.73611 "mse = 10044460495.98\nsamples = 36\nvalue = 355320.86" filled, rounded box black #eda774
node 150 158.6 3.1528 2.1111 0.94444 "X[4] <= 0.5\nmse = 5140503196.36\nsamples = 847\nvalue = 236278.54" filled, rounded box black #f3c6a5
node 151 158.6 1.7083 2.1111 0.94444 "X[12] <= 4.19\nmse = 4414043624.39\nsamples = 699\nvalue = 226552.79" filled, rounded box black #f4c8a9
node 152 157.42 0.36806 2.1111 0.73611 "mse = 3724287428.46\nsamples = 418\nvalue = 213099.55" filled, rounded box black #f4ccae
node 153 159.78 0.36806 2.1111 0.73611 "mse = 4770972561.59\nsamples = 281\nvalue = 246242.63" filled, rounded box black #f3c3a1
node 154 162.15 1.7083 2.0139 0.94444 "X[6] <= 36.05\nmse = 6051759635.1\nsamples = 148\nvalue = 280761.9" filled, rounded box black #f1ba93
node 155 162.15 0.36806 2.1111 0.73611 "mse = 5375064982.74\nsamples = 79\nvalue = 257679.09" filled, rounded box black #f2c09c
node 156 164.47 0.36806 2.0139 0.73611 "mse = 5542711752.7\nsamples = 69\nvalue = 306654.79" filled, rounded box black #efb388
node 157 182.84 6.0417 2.1111 0.94444 "X[12] <= 4.07\nmse = 3632836309.83\nsamples = 239\nvalue = 192036.61" filled, rounded box black #f6d1b7
node 158 178.58 4.5972 2.1111 0.94444 "X[6] <= 38.74\nmse = 2467621267.12\nsamples = 145\nvalue = 170918.86" filled, rounded box black #f7d6bf
node 159 172.24 3.1528 2.1111 0.94444 "X[5] <= -122.38\nmse = 2310321406.25\nsamples = 121\nvalue = 180387.5" filled, rounded box black #f6d4bb
node 160 168.94 1.7083 2.1111 0.94444 "X[6] <= 38.0\nmse = 1986172180.22\nsamples = 59\nvalue = 205944.66" filled, rounded box black #f5cdb1
node 161 166.67 0.36806 1.9028 0.73611 "mse = 108250100.0\nsamples = 5\nvalue = 280570.0" filled, rounded box black #f1ba93
node 162 168.94 0.36806 2.1111 0.73611 "mse = 1524900120.25\nsamples = 54\nvalue = 197920.43" filled, rounded box black #f5cfb4
node 163 172.24 1.7083 2.1111 0.94444 "X[11] <= 175.0\nmse = 1054724504.48\nsamples = 62\nvalue = 150810.11" filled, rounded box black #f8dcc8
node 164 171.09 0.36806 1.6806 0.73611 "mse = 0.0\nsamples = 1\nvalue = 304000.0" filled, rounded box black #f0b489
node 165 173.19 0.36806 2.0139 0.73611 "mse = 797007581.35\nsamples = 61\nvalue = 149069.32" filled, rounded box black #f8dcc8
node 166 178.58 3.1528 2.0139 0.94444 "X[5] <= -123.3\nmse = 278202121.91\nsamples = 24\nvalue = 120419.44" filled, rounded box black #f9e4d4
node 167 177.48 1.7083 2.0139 0.94444 "X[12] <= 3.97\nmse = 153871210.94\nsamples = 13\nvalue = 110156.25" filled, rounded box black #fae6d8
node 168 175.4 0.36806 1.9028 0.73611 "mse = 72611479.29\nsamples = 10\nvalue = 105507.69" filled, rounded box black #fae7da
node 169 177.51 0.36806 1.8056 0.73611 "mse = 6586666.67\nsamples = 3\nvalue = 130300.0" filled, rounded box black #f9e1d0
node 170 179.69 1.7083 1.9028 0.94444 "X[5] <= -122.92\nmse = 225987100.0\nsamples = 11\nvalue = 128630.0" filled, rounded box black #f9e1d1
node 171 179.67 0.36806 2.0139 0.73611 "mse = 149902098.77\nsamples = 10\nvalue = 131811.11" filled, rounded box black #f9e1cf
node 172 181.77 0.36806 1.6806 0.73611 "mse = 0.0\nsamples = 1\nvalue = 100000.0" filled, rounded box black #fae9dc
node 173 187.08 4.5972 2.1111 0.94444 "X[5] <= -122.4\nmse = 3603845585.49\nsamples = 94\nvalue = 226926.81" filled, rounded box black #f4c8a8
node 174 187.08 3.1528 2.1111 0.94444 "X[7] <= 17.5\nmse = 3152497740.93\nsamples = 57\nvalue = 257979.27" filled, rounded box black #f2c09c
node 175 185.91 1.7083 2.0139 0.94444 "X[12] <= 4.15\nmse = 797147397.96\nsamples = 19\nvalue = 207721.43" filled, rounded box black #f5cdb0
node 176 183.77 0.36806 1.8056 0.73611 "mse = 35707500.0\nsamples = 2\nvalue = 175750.0" filled, rounded box black #f6d5bd
node 177 185.94 0.36806 2.0139 0.73611 "mse = 725298333.33\nsamples = 17\nvalue = 213050.0" filled, rounded box black #f4ccae
node 178 188.23 1.7083 2.1111 0.94444 "X[3] <= 0.5\nmse = 2384986450.62\nsamples = 38\nvalue = 284038.89" filled, rounded box black #f1b991
node 179 188.2 0.36806 2.0139 0.73611 "mse = 797565243.75\nsamples = 27\nvalue = 267822.5" filled, rounded box black #f1bd98
node 180 190.52 0.36806 2.1111 0.73611 "mse = 4022424897.96\nsamples = 11\nvalue = 330371.43" filled, rounded box black #eead7e
node 181 193.97 3.1528 2.0139 0.94444 "X[5] <= -122.21\nmse = 785312091.84\nsamples = 37\nvalue = 181457.14" filled, rounded box black #f6d4bb
node 182 193.97 1.7083 2.0139 0.94444 "X[10] <= 950.5\nmse = 582435788.89\nsamples = 20\nvalue = 169123.33" filled, rounded box black #f7d7c0
node 183 192.84 0.36806 2.0139 0.73611 "mse = 286706745.56\nsamples = 8\nvalue = 186469.23" filled, rounded box black #f6d2b9
node 184 195.1 0.36806 2.0139 0.73611 "mse = 402549480.97\nsamples = 12\nvalue = 155858.82" filled, rounded box black #f7dac5
node 185 197.37 1.7083 1.9028 0.94444 "X[7] <= 12.0\nmse = 641343328.4\nsamples = 17\nvalue = 195688.46" filled, rounded box black #f5d0b5
node 186 197.37 0.36806 2.0139 0.73611 "mse = 1180980000.0\nsamples = 2\nvalue = 239100.0" filled, rounded box black #f3c5a4
node 187 199.58 0.36806 1.9028 0.73611 "mse = 293081058.6\nsamples = 15\nvalue = 190026.09" filled, rounded box black #f6d2b8
node 188 219.22 7.4861 2.1111 0.94444 "X[5] <= -117.16\nmse = 4948347553.55\nsamples = 1309\nvalue = 205083.54" filled, rounded box black #f5ceb1
node 189 219.22 6.0417 2.1111 0.94444 "X[4] <= 0.5\nmse = 5294626365.98\nsamples = 1099\nvalue = 212219.47" filled, rounded box black #f4ccae
node 190 214.53 4.5972 2.1111 0.94444 "X[6] <= 33.68\nmse = 3708173982.44\nsamples = 931\nvalue = 203458.2" filled, rounded box black #f5ceb2
node 191 207.65 3.1528 2.1111 0.94444 "X[7] <= 26.5\nmse = 10460719641.3\nsamples = 115\nvalue = 251782.1" filled, rounded box black #f2c19e
node 192 204.2 1.7083 2.1111 0.94444 "X[5] <= -117.77\nmse = 6179214572.59\nsamples = 94\nvalue = 223571.36" filled, rounded box black #f4c9aa
node 193 201.84 0.36806 2.1111 0.73611 "mse = 8288294373.59\nsamples = 35\nvalue = 262798.15" filled, rounded box black #f2bf9a
node 194 204.2 0.36806 2.1111 0.73611 "mse = 3592298946.99\nsamples = 59\nvalue = 201156.04" filled, rounded box black #f5cfb3
node 195 207.65 1.7083 2.2222 0.94444 "X[11] <= 175.0\nmse = 11417025112.84\nsamples = 21\nvalue = 367043.11" filled, rounded box black #eca46f
node 196 206.47 0.36806 1.9028 0.73611 "mse = 996451875.0\nsamples = 2\nvalue = 182825.0" filled, rounded box black #f6d3ba
node 197 208.67 0.36806 2.0139 0.73611 "mse = 7817719361.7\nsamples = 19\nvalue = 390813.19" filled, rounded box black #eb9d66
node 198 214.53 3.1528 2.0139 0.94444 "X[6] <= 34.09\nmse = 2420071828.4\nsamples = 816\nvalue = 196841.54" filled, rounded box black #f5d0b5
node 199 213.35 1.7083 2.1111 0.94444 "X[6] <= 33.86\nmse = 1667731524.21\nsamples = 659\nvalue = 189013.92" filled, rounded box black #f6d2b8
node 200 210.99 0.36806 2.1111 0.73611 "mse = 1490824650.33\nsamples = 289\nvalue = 201723.89" filled, rounded box black #f5ceb3
node 201 213.35 0.36806 2.1111 0.73611 "mse = 1584689579.46\nsamples = 370\nvalue = 179276.78" filled, rounded box black #f6d4bc
node 202 215.72 1.7083 2.1111 0.94444 "X[5] <= -117.99\nmse = 4211694020.94\nsamples = 157\nvalue = 228455.43" filled, rounded box black #f4c8a8
node 203 215.72 0.36806 2.1111 0.73611 "mse = 4230408536.82\nsamples = 126\nvalue = 242364.39" filled, rounded box black #f3c4a2
node 204 218.03 0.36806 2.0139 0.73611 "mse = 496708494.13\nsamples = 31\nvalue = 174656.6" filled, rounded box black #f6d6be
node 205 223.87 4.5972 2.2222 0.94444 "X[7] <= 20.5\nmse = 11258649035.41\nsamples = 168\nvalue = 260179.3" filled, rounded box black #f2bf9b
node 206 223.87 3.1528 2.1111 0.94444 "X[5] <= -117.3\nmse = 4685497190.52\nsamples = 51\nvalue = 204190.02" filled, rounded box black #f5ceb2
node 207 222.69 1.7083 2.1111 0.94444 "X[10] <= 769.5\nmse = 7240148564.24\nsamples = 19\nvalue = 233436.42" filled, rounded box black #f3c6a6
node 208 220.35 0.36806 2.1111 0.73611 "mse = 26251194978.0\nsamples = 2\nvalue = 385434.0" filled, rounded box black #eb9f68
node 209 222.72 0.36806 2.1111 0.73611 "mse = 2797684988.89\nsamples = 17\nvalue = 218236.67" filled, rounded box black #f4caac
node 210 225.05 1.7083 2.1111 0.94444 "X[10] <= 1605.5\nmse = 1869565450.43\nsamples = 32\nvalue = 183655.32" filled, rounded box black #f6d3ba
node 211 225.03 0.36806 2.0139 0.73611 "mse = 622847013.53\nsamples = 22\nvalue = 169451.61" filled, rounded box black #f7d7c0
node 212 227.3 0.36806 2.0139 0.73611 "mse = 3136868125.0\nsamples = 10\nvalue = 211175.0" filled, rounded box black #f4ccaf
node 213 230.73 3.1528 2.1111 0.94444 "X[5] <= -118.19\nmse = 12150622512.4\nsamples = 117\nvalue = 283753.74" filled, rounded box black #f1b991
node 214 230.73 1.7083 2.1111 0.94444 "X[5] <= -118.28\nmse = 7165958802.05\nsamples = 21\nvalue = 209889.19" filled, rounded box black #f5ccaf
node 215 229.56 0.36806 2.0139 0.73611 "mse = 1197784900.0\nsamples = 6\nvalue = 302690.0" filled, rounded box black #f0b48a
node 216 231.88 0.36806 2.1111 0.73611 "mse = 5005424471.88\nsamples = 15\nvalue = 175518.52" filled, rounded box black #f6d5bd
node 217 234.3 1.7083 2.2222 0.94444 "X[5] <= -117.24\nmse = 11717571221.13\nsamples = 96\nvalue = 301616.41" filled, rounded box black #f0b58a
node 218 234.3 0.36806 2.2222 0.73611 "mse = 10703740680.17\nsamples = 57\nvalue = 344357.74" filled, rounded box black #eda979
node 219 236.72 0.36806 2.1111 0.73611 "mse = 7846923088.78\nsamples = 39\nvalue = 248189.74" filled, rounded box black #f2c2a0
node 220 246.26 6.0417 2.1111 0.94444 "X[6] <= 32.94\nmse = 1574204499.27\nsamples = 210\nvalue = 168504.11" filled, rounded box black #f7d7c0
node 221 246.26 4.5972 1.9028 0.94444 "X[6] <= 32.74\nmse = 998971083.3\nsamples = 162\nvalue = 159202.63" filled, rounded box black #f7dac4
node 222 244.01 3.1528 2.0139 0.94444 "X[7] <= 7.0\nmse = 601449042.57\nsamples = 69\nvalue = 146829.46" filled, rounded box black #f8ddc9
node 223 240.8 1.7083 1.6944 0.94444 "X[0] <= 0.5\nmse = 1322500.0\nsamples = 2\nvalue = 224450.0" filled, rounded box black #f4c9a9
node 224 238.87 0.36806 1.6806 0.73611 "mse = 0.0\nsamples = 1\nvalue = 225600.0" filled, rounded box black #f4c8a9
node 225 240.8 0.36806 1.6806 0.73611 "mse = 0.0\nsamples = 1\nvalue = 223300.0" filled, rounded box black #f4c9aa
node 226 244.01 1.7083 2.0139 0.94444 "X[8] <= 3959.5\nmse = 500824214.88\nsamples = 67\nvalue = 145418.18" filled, rounded box black #f8ddca
node 227 242.9 0.36806 2.0139 0.73611 "mse = 367152399.12\nsamples = 59\nvalue = 141291.4" filled, rounded box black #f8decb
node 228 245.16 0.36806 2.0139 0.73611 "mse = 629248788.93\nsamples = 8\nvalue = 167994.12" filled, rounded box black #f7d7c1
node 229 248.55 3.1528 2.1111 0.94444 "X[6] <= 32.77\nmse = 1095759998.31\nsamples = 93\nvalue = 168201.3" filled, rounded box black #f7d7c0
node 230 248.55 1.7083 2.1111 0.94444 "X[12] <= 4.36\nmse = 1460300118.98\nsamples = 26\nvalue = 187970.73" filled, rounded box black #f6d2b8
node 231 247.42 0.36806 2.0139 0.73611 "mse = 705022277.32\nsamples = 20\nvalue = 175878.79" filled, rounded box black #f6d5bd
node 232 249.69 0.36806 2.0139 0.73611 "mse = 1484742500.0\nsamples = 6\nvalue = 237850.0" filled, rounded box black #f3c5a4
node 233 252.01 1.7083 2.0139 0.94444 "X[12] <= 3.58\nmse = 770235835.23\nsamples = 67\nvalue = 161028.32" filled, rounded box black #f7d9c3
node 234 252.01 0.36806 2.1111 0.73611 "mse = 1482408208.62\nsamples = 15\nvalue = 134147.62" filled, rounded box black #f9e0ce
node 235 254.33 0.36806 2.0139 0.73611 "mse = 405091648.16\nsamples = 52\nvalue = 167164.13" filled, rounded box black #f7d7c1
node 236 259.77 4.5972 2.1111 0.94444 "X[12] <= 4.37\nmse = 2219228088.89\nsamples = 48\nvalue = 201493.33" filled, rounded box black #f5cfb3
node 237 259.77 3.1528 2.1111 0.94444 "X[5] <= -117.04\nmse = 1098455430.06\nsamples = 30\nvalue = 183602.17" filled, rounded box black #f6d3ba
node 238 258.6 1.7083 2.0139 0.94444 "X[9] <= 781.0\nmse = 779091672.75\nsamples = 24\nvalue = 176245.95" filled, rounded box black #f6d5bd
node 239 256.53 0.36806 1.9028 0.73611 "mse = 593070625.0\nsamples = 20\nvalue = 171125.0" filled, rounded box black #f7d6bf
node 240 258.69 0.36806 1.9028 0.73611 "mse = 727653600.0\nsamples = 4\nvalue = 209020.0" filled, rounded box black #f5cdb0
node 241 260.92 1.7083 2.1111 0.94444 "X[6] <= 33.06\nmse = 1274331358.02\nsamples = 6\nvalue = 213844.44" filled, rounded box black #f4cbae
node 242 260.84 0.36806 1.9028 0.73611 "mse = 11202222.22\nsamples = 2\nvalue = 164833.33" filled, rounded box black #f7d8c2
node 243 263.05 0.36806 2.0139 0.73611 "mse = 104329166.67\nsamples = 4\nvalue = 238350.0" filled, rounded box black #f3c5a4
node 244 266.17 3.1528 2.1111 0.94444 "X[12] <= 4.45\nmse = 2683898549.35\nsamples = 18\nvalue = 229872.41" filled, rounded box black #f3c7a7
node 245 266.17 1.7083 2.1111 0.94444 "X[7] <= 7.5\nmse = 2299208888.89\nsamples = 3\nvalue = 306333.33" filled, rounded box black #efb388
node 246 265.26 0.36806 1.9028 0.73611 "mse = 494678400.0\nsamples = 2\nvalue = 325760.0" filled, rounded box black #eeae80
node 247 267.3 0.36806 1.6806 0.73611 "mse = 0.0\nsamples = 1\nvalue = 209200.0" filled, rounded box black #f5cdb0
node 248 269.4 1.7083 2.0139 0.94444 "X[12] <= 4.91\nmse = 861281928.17\nsamples = 15\nvalue = 209926.09" filled, rounded box black #f5ccaf
node 249 269.4 0.36806 2.0139 0.73611 "mse = 525179876.54\nsamples = 11\nvalue = 199288.89" filled, rounded box black #f5cfb4
node 250 271.6 0.36806 1.9028 0.73611 "mse = 197485600.0\nsamples = 4\nvalue = 248220.0" filled, rounded box black #f2c2a0
node 251 340.37 10.375 2.1111 0.94444 "X[12] <= 3.22\nmse = 2954163561.48\nsamples = 2979\nvalue = 113083.51" filled, rounded box black #fae6d7
node 252 310.67 8.9306 2.1111 0.94444 "X[10] <= 41.5\nmse = 1796652657.91\nsamples = 1920\nvalue = 94129.07" filled, rounded box black #fbeadf
node 253 283.59 7.4861 2.2222 0.94444 "X[12] <= 1.7\nmse = 32191396172.19\nsamples = 12\nvalue = 234456.74" filled, rounded box black #f3c6a5
node 254 278.6 6.0417 2.1111 0.94444 "X[6] <= 33.74\nmse = 7183057851.24\nsamples = 6\nvalue = 99318.18" filled, rounded box black #fae9dd
node 255 276.51 4.5972 1.6806 0.73611 "mse = 0.0\nsamples = 1\nvalue = 275000.0" filled, rounded box black #f1bb95
node 256 278.6 4.5972 2.0139 0.94444 "X[6] <= 36.57\nmse = 396450617.28\nsamples = 5\nvalue = 60277.78" filled, rounded box black #fdf3ed
node 257 276.56 3.1528 2.0139 0.94444 "X[5] <= -116.85\nmse = 136284722.22\nsamples = 4\nvalue = 47916.67" filled, rounded box black #fdf6f2
node 258 275.2 1.7083 1.8056 0.94444 "X[9] <= 18.5\nmse = 5555555.56\nsamples = 2\nvalue = 58333.33" filled, rounded box black #fdf4ed
node 259 273.59 0.36806 1.5694 0.73611 "mse = 0.0\nsamples = 1\nvalue = 55000.0" filled, rounded box black #fdf5ef
node 260 275.41 0.36806 1.5694 0.73611 "mse = 0.0\nsamples = 1\nvalue = 60000.0" filled, rounded box black #fdf3ed
node 261 277.26 1.7083 1.8056 0.94444 "X[7] <= 10.5\nmse = 50000000.0\nsamples = 2\nvalue = 37500.0" filled, rounded box black #fef9f6
node 262 277.23 0.36806 1.5694 0.73611 "mse = 0.0\nsamples = 1\nvalue = 42500.0" filled, rounded box black #fef8f4
node 263 279.05 0.36806 1.5694 0.73611 "mse = 0.0\nsamples = 1\nvalue = 27500.0" filled, rounded box black #fefcfa
node 264 278.6 3.1528 1.5694 0.73611 "mse = 0.0\nsamples = 1\nvalue = 85000.0" filled, rounded box black #fbede2
node 265 283.59 6.0417 2.2222 0.94444 "X[11] <= 16.0\nmse = 23029631944.69\nsamples = 6\nvalue = 358333.75" filled, rounded box black #eda673
node 266 282.47 4.5972 2.2222 0.94444 "X[5] <= -117.12\nmse = 10173404297.11\nsamples = 4\nvalue = 448438.12" filled, rounded box black #e88e4e
node 267 280.59 3.1528 1.9028 0.94444 "X[10] <= 26.0\nmse = 510224490.0\nsamples = 3\nvalue = 485715.0" filled, rounded box black #e6853f
node 268 279.3 1.7083 1.6806 0.73611 "mse = 0.0\nsamples = 1\nvalue = 450000.0" filled, rounded box black #e88e4d
node 269 281.23 1.7083 1.6806 0.73611 "mse = 0.0\nsamples = 2\nvalue = 500001.0" filled, rounded box black #e58139
node 270 282.63 3.1528 1.6806 0.73611 "mse = 0.0\nsamples = 1\nvalue = 187500.0" filled, rounded box black #f6d2b9
node 271 284.73 4.5972 1.8056 0.94444 "X[7] <= 30.0\nmse = 29296875.0\nsamples = 2\nvalue = 178125.0" filled, rounded box black #f6d5bc
node 272 284.56 3.1528 1.6806 0.73611 "mse = 0.0\nsamples = 1\nvalue = 187500.0" filled, rounded box black #f6d2b9
node 273 286.49 3.1528 1.6806 0.73611 "mse = 0.0\nsamples = 1\nvalue = 175000.0" filled, rounded box black #f6d5be
node 274 310.67 7.4861 2.1111 0.94444 "X[12] <= 2.31\nmse = 1410335517.75\nsamples = 1908\nvalue = 93049.98" filled, rounded box black #fbebdf
node 275 302.3 6.0417 2.1111 0.94444 "X[6] <= 37.32\nmse = 1146990324.07\nsamples = 981\nvalue = 80675.55" filled, rounded box black #fbeee4
node 276 293.28 4.5972 2.0139 0.94444 "X[6] <= 34.84\nmse = 822340355.11\nsamples = 533\nvalue = 72999.52" filled, rounded box black #fcf0e7
node 277 288.65 3.1528 2.1111 0.94444 "X[5] <= -116.41\nmse = 1056637206.99\nsamples = 207\nvalue = 87458.7" filled, rounded box black #fbece1
node 278 283.41 1.7083 2.1111 0.94444 "X[5] <= -117.38\nmse = 1097259708.96\nsamples = 151\nvalue = 96343.35" filled, rounded box black #fbeade
node 279 281.09 0.36806 2.0139 0.73611 "mse = 695773179.92\nsamples = 47\nvalue = 112945.07" filled, rounded box black #fae6d7
node 280 283.41 0.36806 2.1111 0.73611 "mse = 1099483559.29\nsamples = 104\nvalue = 89067.28" filled, rounded box black #fbece1
node 281 287.99 1.7083 2.0139 0.94444 "X[12] <= 1.48\nmse = 202613818.96\nsamples = 56\nvalue = 64198.88" filled, rounded box black #fcf2eb
node 282 285.73 0.36806 2.0139 0.73611 "mse = 161142376.54\nsamples = 11\nvalue = 53361.11" filled, rounded box black #fdf5ef
node 283 287.99 0.36806 2.0139 0.73611 "mse = 175800515.77\nsamples = 45\nvalue = 66946.48" filled, rounded box black #fcf2ea
node 284 293.28 3.1528 2.0139 0.94444 "X[7] <= 7.5\nmse = 459944789.29\nsamples = 326\nvalue = 63888.26" filled, rounded box black #fcf2eb
node 285 292.16 1.7083 2.0139 0.94444 "X[7] <= 6.5\nmse = 5114534400.0\nsamples = 4\nvalue = 139860.0" filled, rounded box black #f8dfcc
node 286 290.2 0.36806 1.9028 0.73611 "mse = 469980000.0\nsamples = 3\nvalue = 83100.0" filled, rounded box black #fbede3
node 287 292.24 0.36806 1.6806 0.73611 "mse = 0.0\nsamples = 1\nvalue = 225000.0" filled, rounded box black #f4c8a9
node 288 294.42 1.7083 2.0139 0.94444 "X[10] <= 363.5\nmse = 356354590.59\nsamples = 322\nvalue = 63137.55" filled, rounded box black #fcf2eb
node 289 294.34 0.36806 2.0139 0.73611 "mse = 810408677.69\nsamples = 13\nvalue = 97863.64" filled, rounded box black #fbe9dd
node 290 296.6 0.36806 2.0139 0.73611 "mse = 278410543.63\nsamples = 309\nvalue = 61559.09" filled, rounded box black #fdf3ec
node 291 302.3 4.5972 2.1111 0.94444 "X[5] <= -121.22\nmse = 1384965567.73\nsamples = 448\nvalue = 90134.32" filled, rounded box black #fbebe0
node 292 301.13 3.1528 1.9028 0.94444 "X[7] <= 7.5\nmse = 974693525.4\nsamples = 323\nvalue = 82695.81" filled, rounded box black #fbede3
node 293 299.03 1.7083 1.6806 0.73611 "mse = 0.0\nsamples = 1\nvalue = 310000.0" filled, rounded box black #efb287
node 294 301.13 1.7083 2.0139 0.94444 "X[11] <= 1209.0\nmse = 867968636.53\nsamples = 322\nvalue = 82218.28" filled, rounded box black #fbeee4
node 295 298.87 0.36806 2.0139 0.73611 "mse = 796442981.17\nsamples = 316\nvalue = 81029.55" filled, rounded box black #fbeee4
node 296 301.13 0.36806 2.0139 0.73611 "mse = 701397777.78\nsamples = 6\nvalue = 143900.0" filled, rounded box black #f8deca
node 297 304.59 3.1528 2.1111 0.94444 "X[10] <= 279.0\nmse = 1917843802.43\nsamples = 125\nvalue = 107964.32" filled, rounded box black #fae7d9
node 298 304.59 1.7083 2.1111 0.94444 "X[11] <= 101.0\nmse = 3748643840.83\nsamples = 24\nvalue = 135070.59" filled, rounded box black #f9e0ce
node 299 303.4 0.36806 2.0139 0.73611 "mse = 1591851104.0\nsamples = 18\nvalue = 110064.0" filled, rounded box black #fae6d8
node 300 305.72 0.36806 2.1111 0.73611 "mse = 3177635555.56\nsamples = 6\nvalue = 204533.33" filled, rounded box black #f5ceb2
node 301 308.08 1.7083 2.1111 0.94444 "X[7] <= 20.5\nmse = 1357986883.38\nsamples = 101\nvalue = 102378.79" filled, rounded box black #fae8db
node 302 308.08 0.36806 2.1111 0.73611 "mse = 1465873122.56\nsamples = 36\nvalue = 119851.56" filled, rounded box black #f9e4d4
node 303 310.4 0.36806 2.0139 0.73611 "mse = 973581239.09\nsamples = 65\nvalue = 91306.93" filled, rounded box black #fbebe0
node 304 320.19 6.0417 2.0139 0.94444 "X[6] <= 34.82\nmse = 1363805023.6\nsamples = 927\nvalue = 105649.87" filled, rounded box black #fae7da
node 305 320.19 4.5972 2.1111 0.94444 "X[5] <= -117.72\nmse = 1761145280.99\nsamples = 235\nvalue = 118578.9" filled, rounded box black #f9e4d5
node 306 318.45 3.1528 2.1111 0.94444 "X[7] <= 38.0\nmse = 2064328024.89\nsamples = 54\nvalue = 164941.33" filled, rounded box black #f7d8c2
node 307 314.98 1.7083 2.0139 0.94444 "X[5] <= -118.11\nmse = 1477413891.2\nsamples = 43\nvalue = 154391.38" filled, rounded box black #f8dbc6
node 308 312.66 0.36806 2.0139 0.73611 "mse = 107315555.56\nsamples = 4\nvalue = 100966.67" filled, rounded box black #fae9dc
node 309 314.98 0.36806 2.1111 0.73611 "mse = 1268171697.49\nsamples = 39\nvalue = 160555.77" filled, rounded box black #f7d9c4
node 310 318.45 1.7083 2.1111 0.94444 "X[6] <= 34.08\nmse = 2391441107.27\nsamples = 11\nvalue = 200935.29" filled, rounded box black #f5cfb3
node 311 317.3 0.36806 2.0139 0.73611 "mse = 116202222.22\nsamples = 3\nvalue = 124233.33" filled, rounded box black #f9e3d2
node 312 319.62 0.36806 2.1111 0.73611 "mse = 1348162040.82\nsamples = 8\nvalue = 217371.43" filled, rounded box black #f4caac
node 313 323.06 3.1528 2.0139 0.94444 "X[5] <= -116.41\nmse = 983070387.75\nsamples = 181\nvalue = 106588.62" filled, rounded box black #fae7da
node 314 323.06 1.7083 2.0139 0.94444 "X[6] <= 33.87\nmse = 966364196.88\nsamples = 161\nvalue = 110297.67" filled, rounded box black #fae6d8
node 315 321.94 0.36806 2.0139 0.73611 "mse = 2581431279.0\nsamples = 27\nvalue = 138548.78" filled, rounded box black #f8dfcd
node 316 324.2 0.36806 2.0139 0.73611 "mse = 479548299.04\nsamples = 134\nvalue = 104935.19" filled, rounded box black #fae8da
node 317 326.47 1.7083 2.0139 0.94444 "X[5] <= -115.58\nmse = 171660899.91\nsamples = 20\nvalue = 77703.03" filled, rounded box black #fcefe5
node 318 326.47 0.36806 2.0139 0.73611 "mse = 194583724.49\nsamples = 10\nvalue = 87035.71" filled, rounded box black #fbece2
node 319 328.67 0.36806 1.9028 0.73611 "mse = 43302991.69\nsamples = 10\nvalue = 70826.32" filled, rounded box black #fcf0e8
node 320 334.17 4.5972 2.1111 0.94444 "X[6] <= 36.84\nmse = 1161495396.71\nsamples = 692\nvalue = 101425.07" filled, rounded box black #fae9dc
node 321 334.17 3.1528 2.0139 0.94444 "X[12] <= 2.39\nmse = 337455624.94\nsamples = 191\nvalue = 77547.47" filled, rounded box black #fcefe5
node 322 333.03 1.7083 1.9028 0.94444 "X[6] <= 36.74\nmse = 144189184.0\nsamples = 18\nvalue = 61396.0" filled, rounded box black #fdf3ec
node 323 330.83 0.36806 1.9028 0.73611 "mse = 29917451.52\nsamples = 13\nvalue = 56721.05" filled, rounded box black #fdf4ee
node 324 333.03 0.36806 2.0139 0.73611 "mse = 217683333.33\nsamples = 5\nvalue = 76200.0" filled, rounded box black #fcefe6
node 325 335.3 1.7083 2.0139 0.94444 "X[10] <= 642.0\nmse = 329038278.41\nsamples = 173\nvalue = 79031.99" filled, rounded box black #fceee5
node 326 335.3 0.36806 2.0139 0.73611 "mse = 671558085.94\nsamples = 13\nvalue = 94593.75" filled, rounded box black #fbeadf
node 327 337.56 0.36806 2.0139 0.73611 "mse = 291549287.11\nsamples = 160\nvalue = 78059.38" filled, rounded box black #fcefe5
node 328 341.06 3.1528 2.1111 0.94444 "X[6] <= 39.32\nmse = 1178662951.75\nsamples = 501\nvalue = 110073.41" filled, rounded box black #fae6d8
node 329 341.06 1.7083 2.1111 0.94444 "X[7] <= 27.5\nmse = 1228572863.37\nsamples = 410\nvalue = 114273.59" filled, rounded box black #fae5d6
node 330 339.88 0.36806 2.1111 0.73611 "mse = 1171147041.97\nsamples = 233\nvalue = 121524.41" filled, rounded box black #f9e3d4
node 331 342.24 0.36806 2.1111 0.73611 "mse = 1145984045.48\nsamples = 177\nvalue = 104845.05" filled, rounded box black #fae8da
node 332 344.56 1.7083 2.0139 0.94444 "X[11] <= 531.0\nmse = 490849729.78\nsamples = 91\nvalue = 90683.56" filled, rounded box black #fbebe0
node 333 344.56 0.36806 2.0139 0.73611 "mse = 398101351.71\nsamples = 70\nvalue = 85759.29" filled, rounded box black #fbede2
node 334 346.83 0.36806 2.0139 0.73611 "mse = 441086721.76\nsamples = 21\nvalue = 107545.45" filled, rounded box black #fae7d9
node 335 370.05 8.9306 2.1111 0.94444 "X[12] <= 4.07\nmse = 3229891855.75\nsamples = 1059\nvalue = 147088.69" filled, rounded box black #f8ddc9
node 336 370.05 7.4861 2.1111 0.94444 "X[6] <= 34.38\nmse = 2579934350.08\nsamples = 653\nvalue = 135009.6" filled, rounded box black #f9e0ce
node 337 364.06 6.0417 2.1111 0.94444 "X[5] <= -118.01\nmse = 3620583685.94\nsamples = 195\nvalue = 151676.25" filled, rounded box black #f8dbc7
node 338 355.44 4.5972 2.0139 0.94444 "X[6] <= 34.09\nmse = 3049346878.7\nsamples = 29\nvalue = 232234.62" filled, rounded box black #f3c7a6
node 339 353.02 3.1528 2.0139 0.94444 "X[7] <= 35.5\nmse = 151009586.78\nsamples = 5\nvalue = 177163.64" filled, rounded box black #f6d5bd
node 340 350.87 1.7083 1.8056 0.94444 "X[10] <= 1330.0\nmse = 41250000.0\nsamples = 4\nvalue = 183900.0" filled, rounded box black #f6d3ba
node 341 348.92 0.36806 1.6806 0.73611 "mse = 0.0\nsamples = 1\nvalue = 191800.0" filled, rounded box black #f6d1b7
node 342 350.87 0.36806 1.6944 0.73611 "mse = 6086400.0\nsamples = 3\nvalue = 179160.0" filled, rounded box black #f6d4bc
node 343 353.02 1.7083 1.6806 0.73611 "mse = 0.0\nsamples = 1\nvalue = 159200.0" filled, rounded box black #f7dac4
node 344 355.44 3.1528 2.1111 0.94444 "X[10] <= 1690.5\nmse = 2794963319.45\nsamples = 24\nvalue = 247009.76" filled, rounded box black #f3c3a0
node 345 355.33 1.7083 2.0139 0.94444 "X[12] <= 3.37\nmse = 2477430625.0\nsamples = 19\nvalue = 261975.0" filled, rounded box black #f2bf9a
node 346 353.02 0.36806 2.1111 0.73611 "mse = 2645068888.89\nsamples = 2\nvalue = 340833.33" filled, rounded box black #eeaa7a
node 347 355.38 0.36806 2.1111 0.73611 "mse = 1750232461.36\nsamples = 17\nvalue = 253817.24" filled, rounded box black #f2c19e
node 348 357.59 1.7083 2.0139 0.94444 "X[5] <= -118.01\nmse = 296393333.33\nsamples = 5\nvalue = 193800.0" filled, rounded box black #f5d1b6
node 349 357.53 0.36806 1.6944 0.73611 "mse = 8122500.0\nsamples = 2\nvalue = 225650.0" filled, rounded box black #f4c8a9
node 350 359.53 0.36806 1.8056 0.73611 "mse = 6111428.57\nsamples = 3\nvalue = 184700.0" filled, rounded box black #f6d3ba
node 351 364.06 4.5972 2.1111 0.94444 "X[5] <= -116.33\nmse = 2227915166.52\nsamples = 166\nvalue = 136045.52" filled, rounded box black #f9e0ce
node 352 362.9 3.1528 2.1111 0.94444 "X[6] <= 33.65\nmse = 2151921836.03\nsamples = 151\nvalue = 140897.13" filled, rounded box black #f8decc
node 353 360.8 1.7083 1.6806 0.73611 "mse = 0.0\nsamples = 1\nvalue = 337200.0" filled, rounded box black #eeab7b
node 354 362.95 1.7083 2.1111 0.94444 "X[5] <= -117.49\nmse = 1534836145.66\nsamples = 150\nvalue = 137625.42" filled, rounded box black #f8dfcd
node 355 361.7 0.36806 2.0139 0.73611 "mse = 818098047.84\nsamples = 69\nvalue = 150880.56" filled, rounded box black #f8dcc8
node 356 364.02 0.36806 2.1111 0.73611 "mse = 1859888248.39\nsamples = 81\nvalue = 126780.3" filled, rounded box black #f9e2d1
node 357 365.22 3.1528 2.0139 0.94444 "X[10] <= 101.5\nmse = 328284982.64\nsamples = 15\nvalue = 86720.83" filled, rounded box black #fbece2
node 358 365.1 1.7083 1.5694 0.73611 "mse = 0.0\nsamples = 1\nvalue = 32500.0" filled, rounded box black #fefaf8
node 359 367.15 1.7083 2.0139 0.94444 "X[12] <= 3.25\nmse = 209179092.63\nsamples = 14\nvalue = 89078.26" filled, rounded box black #fbece1
node 360 366.12 0.36806 1.5694 0.73611 "mse = 0.0\nsamples = 1\nvalue = 62300.0" filled, rounded box black #fcf3ec
node 361 368.16 0.36806 2.0139 0.73611 "mse = 154303945.58\nsamples = 13\nvalue = 91628.57" filled, rounded box black #fbebe0
node 362 377.16 6.0417 2.1111 0.94444 "X[6] <= 36.83\nmse = 1930282263.53\nsamples = 458\nvalue = 127508.44" filled, rounded box black #f9e2d1
node 363 377.16 4.5972 2.0139 0.94444 "X[6] <= 34.84\nmse = 448763046.63\nsamples = 122\nvalue = 99559.57" filled, rounded box black #fae9dc
node 364 375.66 3.1528 2.0139 0.94444 "X[5] <= -117.31\nmse = 391607216.95\nsamples = 30\nvalue = 120562.16" filled, rounded box black #f9e4d4
node 365 372.59 1.7083 2.0139 0.94444 "X[7] <= 26.0\nmse = 294843367.35\nsamples = 23\nvalue = 127314.29" filled, rounded box black #f9e2d1
node 366 370.42 0.36806 2.0139 0.73611 "mse = 234605833.33\nsamples = 15\nvalue = 135783.33" filled, rounded box black #f9e0ce
node 367 372.59 0.36806 1.8056 0.73611 "mse = 41778100.0\nsamples = 8\nvalue = 112070.0" filled, rounded box black #fae6d7
node 368 375.66 1.7083 2.0139 0.94444 "X[12] <= 3.3\nmse = 109533580.25\nsamples = 7\nvalue = 99555.56" filled, rounded box black #fae9dc
node 369 374.53 0.36806 1.5694 0.73611 "mse = 0.0\nsamples = 1\nvalue = 85400.0" filled, rounded box black #fbede2
node 370 376.48 0.36806 1.8056 0.73611 "mse = 67220000.0\nsamples = 6\nvalue = 103600.0" filled, rounded box black #fae8db
node 371 379.78 3.1528 2.0139 0.94444 "X[12] <= 4.02\nmse = 328197175.56\nsamples = 92\nvalue = 94413.25" filled, rounded box black #fbeadf
node 372 379.78 1.7083 1.9028 0.94444 "X[7] <= 4.5\nmse = 250399410.2\nsamples = 86\nvalue = 92304.29" filled, rounded box black #fbebdf
node 373 378.65 0.36806 2.0139 0.73611 "mse = 324275555.56\nsamples = 2\nvalue = 135266.67" filled, rounded box black #f9e0ce
node 374 380.91 0.36806 2.0139 0.73611 "mse = 207478376.05\nsamples = 84\nvalue = 91363.5" filled, rounded box black #fbebe0
node 375 383.17 1.7083 2.0139 0.94444 "X[5] <= -119.0\nmse = 541287933.88\nsamples = 6\nvalue = 121254.55" filled, rounded box black #f9e3d4
node 376 383.17 0.36806 2.0139 0.73611 "mse = 224361093.75\nsamples = 4\nvalue = 109587.5" filled, rounded box black #fae6d8
node 377 385.38 0.36806 1.9028 0.73611 "mse = 55475555.56\nsamples = 2\nvalue = 152366.67" filled, rounded box black #f8dbc7
node 378 390.98 4.5972 2.1111 0.94444 "X[12] <= 3.27\nmse = 2081109434.17\nsamples = 336\nvalue = 137555.07" filled, rounded box black #f8dfcd
node 379 390.98 3.1528 2.0139 0.94444 "X[10] <= 1464.5\nmse = 8567505000.0\nsamples = 17\nvalue = 190500.0" filled, rounded box black #f6d1b7
node 380 389.8 1.7083 2.1111 0.94444 "X[5] <= -121.24\nmse = 1486583667.82\nsamples = 12\nvalue = 132747.06" filled, rounded box black #f9e0cf
node 381 387.53 0.36806 1.9028 0.73611 "mse = 470676875.0\nsamples = 5\nvalue = 104725.0" filled, rounded box black #fae8da
node 382 389.8 0.36806 2.1111 0.73611 "mse = 1071191358.02\nsamples = 7\nvalue = 157655.56" filled, rounded box black #f7dac5
node 383 392.16 1.7083 2.1111 0.94444 "X[11] <= 901.0\nmse = 6389660661.16\nsamples = 5\nvalue = 279754.55" filled, rounded box black #f1ba93
node 384 392.16 0.36806 2.1111 0.73611 "mse = 2003682222.22\nsamples = 3\nvalue = 312233.33" filled, rounded box black #efb286
node 385 394.37 0.36806 1.8056 0.73611 "mse = 18490000.0\nsamples = 2\nvalue = 133600.0" filled, rounded box black #f9e0cf
node 386 397.6 3.1528 2.1111 0.94444 "X[6] <= 39.5\nmse = 1546670072.69\nsamples = 319\nvalue = 134560.2" filled, rounded box black #f9e0ce
node 387 397.6 1.7083 2.1111 0.94444 "X[6] <= 37.44\nmse = 1596572177.25\nsamples = 288\nvalue = 137271.91" filled, rounded box black #f8dfcd
node 388 396.48 0.36806 1.9028 0.73611 "mse = 741274375.0\nsamples = 21\nvalue = 107075.0" filled, rounded box black #fae7d9
node 389 398.74 0.36806 2.1111 0.73611 "mse = 1586715893.98\nsamples = 267\nvalue = 139611.62" filled, rounded box black #f8dfcc
node 390 401.06 1.7083 1.9028 0.94444 "X[12] <= 3.91\nmse = 454636724.0\nsamples = 31\nvalue = 110426.0" filled, rounded box black #fae6d8
node 391 401.06 0.36806 2.0139 0.73611 "mse = 400844125.71\nsamples = 28\nvalue = 107802.17" filled, rounded box black #fae7d9
node 392 403.23 0.36806 1.8056 0.73611 "mse = 83610000.0\nsamples = 3\nvalue = 140600.0" filled, rounded box black #f8decc
node 393 410.73 7.4861 2.1111 0.94444 "X[7] <= 41.5\nmse = 3662419197.57\nsamples = 406\nvalue = 166277.5" filled, rounded box black #f7d8c1
node 394 410.73 6.0417 2.0139 0.94444 "X[12] <= 4.07\nmse = 3085685184.8\nsamples = 385\nvalue = 163017.8" filled, rounded box black #f7d9c3
node 395 409.55 4.5972 2.1111 0.94444 "X[10] <= 856.5\nmse = 4164802222.22\nsamples = 2\nvalue = 391866.67" filled, rounded box black #eb9d65
node 396 407.67 3.1528 1.6806 0.73611 "mse = 0.0\nsamples = 1\nvalue = 437500.0" filled, rounded box black #e89153
node 397 409.6 3.1528 1.6806 0.73611 "mse = 0.0\nsamples = 1\nvalue = 300600.0" filled, rounded box black #f0b58a
node 398 411.91 4.5972 2.1111 0.94444 "X[12] <= 4.57\nmse = 2823702778.35\nsamples = 383\nvalue = 161901.46" filled, rounded box black #f7d9c3
node 399 411.85 3.1528 2.1111 0.94444 "X[5] <= -120.86\nmse = 2281189487.22\nsamples = 222\nvalue = 151694.62" filled, rounded box black #f8dbc7
node 400 407.72 1.7083 2.1111 0.94444 "X[6] <= 37.24\nmse = 2669601180.56\nsamples = 116\nvalue = 161158.33" filled, rounded box black #f7d9c3
node 401 405.4 0.36806 2.0139 0.73611 "mse = 2104941875.0\nsamples = 3\nvalue = 328725.0" filled, rounded box black #eead7f
node 402 407.72 0.36806 2.1111 0.73611 "mse = 2071487452.18\nsamples = 113\nvalue = 157593.09" filled, rounded box black #f7dac5
node 403 411.85 1.7083 2.1111 0.94444 "X[6] <= 34.67\nmse = 1669449666.67\nsamples = 106\nvalue = 141600.0" filled, rounded box black #f8decb
node 404 410.08 0.36806 2.1111 0.73611 "mse = 1501589704.38\nsamples = 68\nvalue = 151188.52" filled, rounded box black #f8dcc7
node 405 412.44 0.36806 2.1111 0.73611 "mse = 1422356623.07\nsamples = 38\nvalue = 121431.03" filled, rounded box black #f9e3d4
node 406 415.4 3.1528 2.1111 0.94444 "X[7] <= 32.5\nmse = 3250582617.83\nsamples = 161\nvalue = 177526.75" filled, rounded box black #f6d5bd
node 407 415.4 1.7083 2.1111 0.94444 "X[5] <= -121.99\nmse = 2512319496.57\nsamples = 144\nvalue = 170859.62" filled, rounded box black #f7d7bf
node 408 414.8 0.36806 2.1111 0.73611 "mse = 5008890612.24\nsamples = 4\nvalue = 240628.57" filled, rounded box black #f3c4a3
node 409 417.16 0.36806 2.1111 0.73611 "mse = 2256456428.74\nsamples = 140\nvalue = 168488.83" filled, rounded box black #f7d7c0
node 410 419.52 1.7083 2.1111 0.94444 "X[12] <= 4.72\nmse = 5935899655.56\nsamples = 17\nvalue = 224863.33" filled, rounded box black #f4c8a9
node 411 419.52 0.36806 2.1111 0.73611 "mse = 1439909642.86\nsamples = 8\nvalue = 163150.0" filled, rounded box black #f7d9c3
node 412 421.88 0.36806 2.1111 0.73611 "mse = 3621512343.75\nsamples = 9\nvalue = 278862.5" filled, rounded box black #f1ba93
node 413 426.92 6.0417 2.2222 0.94444 "X[5] <= -117.93\nmse = 10725182939.32\nsamples = 21\nvalue = 231261.19" filled, rounded box black #f3c7a7
node 414 426.92 4.5972 2.1111 0.94444 "X[12] <= 4.36\nmse = 6326416466.84\nsamples = 20\nvalue = 254432.14" filled, rounded box black #f2c19d
node 415 426.92 3.1528 2.0139 0.94444 "X[10] <= 681.0\nmse = 8831726400.0\nsamples = 7\nvalue = 314660.0" filled, rounded box black #efb185
node 416 425.77 1.7083 2.1111 0.94444 "X[8] <= 910.5\nmse = 2777608888.89\nsamples = 2\nvalue = 449533.33" filled, rounded box black #e88e4e
node 417 424.03 0.36806 1.6806 0.73611 "mse = 0.0\nsamples = 1\nvalue = 375000.0" filled, rounded box black #eca16c
node 418 425.97 0.36806 1.6806 0.73611 "mse = 0.0\nsamples = 1\nvalue = 486800.0" filled, rounded box black #e6843e
node 419 428.09 1.7083 2.0139 0.94444 "X[5] <= -118.11\nmse = 289113877.55\nsamples = 5\nvalue = 256857.14" filled, rounded box black #f2c09c
node 420 427.9 0.36806 1.6806 0.73611 "mse = 0.0\nsamples = 1\nvalue = 234000.0" filled, rounded box black #f3c6a6
node 421 429.94 0.36806 1.9028 0.73611 "mse = 112188000.0\nsamples = 4\nvalue = 266000.0" filled, rounded box black #f2be99
node 422 433.13 3.1528 2.1111 0.94444 "X[10] <= 876.5\nmse = 1799792006.17\nsamples = 13\nvalue = 220972.22" filled, rounded box black #f4c9ab
node 423 433.13 1.7083 2.1111 0.94444 "X[6] <= 35.97\nmse = 1061656093.75\nsamples = 6\nvalue = 193287.5" filled, rounded box black #f5d1b6
node 424 432.09 0.36806 1.9028 0.73611 "mse = 455497600.0\nsamples = 3\nvalue = 211680.0" filled, rounded box black #f4ccaf
node 425 434.3 0.36806 2.0139 0.73611 "mse = 568435555.56\nsamples = 3\nvalue = 162633.33" filled, rounded box black #f7d9c3
node 426 436.51 1.7083 2.0139 0.94444 "X[10] <= 1401.0\nmse = 1286621600.0\nsamples = 7\nvalue = 243120.0" filled, rounded box black #f3c4a2
node 427 436.51 0.36806 1.9028 0.73611 "mse = 275560000.0\nsamples = 2\nvalue = 304500.0" filled, rounded box black #efb489
node 428 438.66 0.36806 1.9028 0.73611 "mse = 362041875.0\nsamples = 5\nvalue = 227775.0" filled, rounded box black #f4c8a8
node 429 429.02 4.5972 1.5694 0.73611 "mse = 0.0\nsamples = 1\nvalue = 14999.0" filled, rounded box black #ffffff
node 430 577.05 11.819 2.2222 0.94444 "X[12] <= 6.62\nmse = 12029760398.57\nsamples = 2233\nvalue = 329780.99" filled, rounded box black #eead7e
node 431 577.05 10.375 2.0139 0.94444 "X[1] <= 0.5\nmse = 8956112258.0\nsamples = 1453\nvalue = 287221.51" filled, rounded box black #f0b890
node 432 548.05 8.9306 2.1111 0.94444 "X[7] <= 36.5\nmse = 8081761859.93\nsamples = 1187\nvalue = 304546.5" filled, rounded box black #efb489
node 433 494.4 7.4861 2.1111 0.94444 "X[5] <= -118.3\nmse = 6785327404.71\nsamples = 978\nvalue = 290887.0" filled, rounded box black #f0b78e
node 434 466.55 6.0417 2.1111 0.94444 "X[6] <= 34.17\nmse = 7044855416.32\nsamples = 562\nvalue = 307806.38" filled, rounded box black #efb387
node 435 452.94 4.5972 2.1111 0.94444 "X[5] <= -118.38\nmse = 6935772733.12\nsamples = 93\nvalue = 384428.69" filled, rounded box black #eb9f68
node 436 446.66 3.1528 2.0139 0.94444 "X[6] <= 34.15\nmse = 5060659006.7\nsamples = 44\nvalue = 436100.45" filled, rounded box black #e89253
node 437 443.24 1.7083 2.1111 0.94444 "X[6] <= 34.0\nmse = 3274582189.32\nsamples = 28\nvalue = 462751.9" filled, rounded box black #e78b48
node 438 440.92 0.36806 2.1111 0.73611 "mse = 3974508700.25\nsamples = 18\nvalue = 446873.54" filled, rounded box black #e88f4f
node 439 443.24 0.36806 2.0139 0.73611 "mse = 361995465.16\nsamples = 10\nvalue = 494508.62" filled, rounded box black #e5823b
node 440 446.66 1.7083 2.1111 0.94444 "X[8] <= 6275.5\nmse = 4842523956.29\nsamples = 16\nvalue = 390908.87" filled, rounded box black #eb9d66
node 441 445.56 0.36806 2.1111 0.73611 "mse = 2829037174.52\nsamples = 14\nvalue = 367942.11" filled, rounded box black #eca36f
node 442 447.72 0.36806 1.6806 0.73611 "mse = 0.0\nsamples = 2\nvalue = 500001.0" filled, rounded box black #e58139
node 443 452.94 3.1528 2.1111 0.94444 "X[12] <= 5.9\nmse = 4454092485.19\nsamples = 49\nvalue = 341713.37" filled, rounded box black #edaa7a
node 444 451.77 1.7083 2.1111 0.94444 "X[12] <= 5.08\nmse = 3633240156.64\nsamples = 34\nvalue = 324605.66" filled, rounded box black #eeaf81
node 445 449.72 0.36806 1.8056 0.73611 "mse = 10580000.0\nsamples = 2\nvalue = 451400.0" filled, rounded box black #e88e4d
node 446 451.88 0.36806 2.0139 0.73611 "mse = 2828114996.0\nsamples = 32\nvalue = 316998.0" filled, rounded box black #efb184
node 447 454.09 1.7083 2.0139 0.94444 "X[12] <= 6.0\nmse = 4027925730.7\nsamples = 15\nvalue = 382927.41" filled, rounded box black #eb9f69
node 448 453.98 0.36806 1.6806 0.73611 "mse = 0.0\nsamples = 2\nvalue = 500001.0" filled, rounded box black #e58139
node 449 456.08 0.36806 2.0139 0.73611 "mse = 2158066648.2\nsamples = 13\nvalue = 364442.11" filled, rounded box black #eca470
node 450 466.55 4.5972 2.1111 0.94444 "X[5] <= -119.02\nmse = 5762849431.79\nsamples = 469\nvalue = 293485.43" filled, rounded box black #f0b78d
node 451 464.24 3.1528 2.1111 0.94444 "X[7] <= 21.5\nmse = 6090927338.34\nsamples = 379\nvalue = 304386.63" filled, rounded box black #efb489
node 452 460.76 1.7083 2.1111 0.94444 "X[6] <= 37.94\nmse = 4206765789.74\nsamples = 149\nvalue = 272092.14" filled, rounded box black #f1bc96
node 453 458.4 0.36806 2.1111 0.73611 "mse = 3455354988.43\nsamples = 108\nvalue = 287934.55" filled, rounded box black #f0b890
node 454 460.76 0.36806 2.1111 0.73611 "mse = 3828726247.56\nsamples = 41\nvalue = 231248.44" filled, rounded box black #f3c7a7
node 455 464.24 1.7083 2.1111 0.94444 "X[5] <= -119.78\nmse = 6204031614.32\nsamples = 230\nvalue = 324929.51" filled, rounded box black #eeae80
node 456 463.12 0.36806 2.1111 0.73611 "mse = 5292297837.08\nsamples = 213\nvalue = 317480.52" filled, rounded box black #efb084
node 457 465.48 0.36806 2.1111 0.73611 "mse = 9150911187.73\nsamples = 17\nvalue = 401281.62" filled, rounded box black #ea9b61
node 458 468.87 3.1528 2.1111 0.94444 "X[12] <= 5.6\nmse = 1946676862.94\nsamples = 90\nvalue = 248896.53" filled, rounded box black #f2c2a0
node 459 468.87 1.7083 2.0139 0.94444 "X[11] <= 248.5\nmse = 975066126.09\nsamples = 44\nvalue = 228611.94" filled, rounded box black #f4c8a8
node 460 467.74 0.36806 1.9028 0.73611 "mse = 77474097.22\nsamples = 5\nvalue = 203591.67" filled, rounded box black #f5ceb2
node 461 470.01 0.36806 2.1111 0.73611 "mse = 1004519153.72\nsamples = 39\nvalue = 234070.91" filled, rounded box black #f3c6a6
node 462 472.37 1.7083 2.1111 0.94444 "X[12] <= 6.32\nmse = 2122546385.56\nsamples = 46\nvalue = 266546.75" filled, rounded box black #f2be98
node 463 472.37 0.36806 2.1111 0.73611 "mse = 1661687906.57\nsamples = 39\nvalue = 259305.88" filled, rounded box black #f2c09b
node 464 474.73 0.36806 2.1111 0.73611 "mse = 2215395802.47\nsamples = 7\nvalue = 321255.56" filled, rounded box black #efaf82
node 465 494.4 6.0417 2.1111 0.94444 "X[12] <= 5.64\nmse = 5576203121.46\nsamples = 416\nvalue = 268685.1" filled, rounded box black #f1bd97
node 466 489.88 4.5972 2.1111 0.94444 "X[5] <= -117.16\nmse = 5077448350.77\nsamples = 213\nvalue = 243711.53" filled, rounded box black #f3c4a2
node 467 482.99 3.1528 2.1111 0.94444 "X[6] <= 33.66\nmse = 5257141348.21\nsamples = 182\nvalue = 253535.82" filled, rounded box black #f2c19e
node 468 479.45 1.7083 2.0139 0.94444 "X[5] <= -117.74\nmse = 9232316055.9\nsamples = 49\nvalue = 300843.35" filled, rounded box black #f0b58a
node 469 477.09 0.36806 2.1111 0.73611 "mse = 8943172231.01\nsamples = 9\nvalue = 408100.38" filled, rounded box black #ea995f
node 470 479.45 0.36806 2.1111 0.73611 "mse = 6319758832.99\nsamples = 40\nvalue = 277985.3" filled, rounded box black #f1bb94
node 471 482.99 1.7083 2.1111 0.94444 "X[0] <= 0.5\nmse = 2802842433.44\nsamples = 133\nvalue = 236944.56" filled, rounded box black #f3c5a4
node 472 481.81 0.36806 2.1111 0.73611 "mse = 4402388850.25\nsamples = 3\nvalue = 433650.5" filled, rounded box black #e99254
node 473 484.17 0.36806 2.1111 0.73611 "mse = 2009789897.08\nsamples = 130\nvalue = 233143.48" filled, rounded box black #f3c6a6
node 474 489.88 3.1528 2.0139 0.94444 "X[12] <= 5.49\nmse = 931208672.84\nsamples = 31\nvalue = 191861.11" filled, rounded box black #f6d1b7
node 475 488.76 1.7083 2.0139 0.94444 "X[8] <= 1383.0\nmse = 551181184.81\nsamples = 24\nvalue = 182030.95" filled, rounded box black #f6d4bb
node 476 486.49 0.36806 2.0139 0.73611 "mse = 347194843.75\nsamples = 5\nvalue = 154762.5" filled, rounded box black #f8dbc6
node 477 488.76 0.36806 2.0139 0.73611 "mse = 383054256.06\nsamples = 19\nvalue = 188447.06" filled, rounded box black #f6d2b8
node 478 491.02 1.7083 2.0139 0.94444 "X[9] <= 258.5\nmse = 739350555.56\nsamples = 7\nvalue = 226266.67" filled, rounded box black #f4c8a9
node 479 491.02 0.36806 2.0139 0.73611 "mse = 126935555.56\nsamples = 2\nvalue = 184333.33" filled, rounded box black #f6d3ba
node 480 493.28 0.36806 2.0139 0.73611 "mse = 161975802.47\nsamples = 5\nvalue = 240244.44" filled, rounded box black #f3c4a3
node 481 498.72 4.5972 2.1111 0.94444 "X[4] <= 0.5\nmse = 4762732073.64\nsamples = 203\nvalue = 294814.84" filled, rounded box black #f0b68d
node 482 498.72 3.1528 2.1111 0.94444 "X[9] <= 281.0\nmse = 3342510048.13\nsamples = 170\nvalue = 285124.83" filled, rounded box black #f1b991
node 483 497.53 1.7083 2.1111 0.94444 "X[5] <= -117.03\nmse = 1091819788.89\nsamples = 22\nvalue = 239623.33" filled, rounded box black #f3c5a3
node 484 495.55 0.36806 2.0139 0.73611 "mse = 882377692.31\nsamples = 20\nvalue = 246600.0" filled, rounded box black #f3c3a0
node 485 497.72 0.36806 1.8056 0.73611 "mse = 80341875.0\nsamples = 2\nvalue = 194275.0" filled, rounded box black #f5d0b6
node 486 499.9 1.7083 2.1111 0.94444 "X[10] <= 621.0\nmse = 3332698323.45\nsamples = 148\nvalue = 290812.51" filled, rounded box black #f0b78e
node 487 499.72 0.36806 1.6806 0.73611 "mse = 0.0\nsamples = 2\nvalue = 500001.0" filled, rounded box black #e58139
node 488 501.87 0.36806 2.1111 0.73611 "mse = 2989884419.36\nsamples = 146\nvalue = 289054.63" filled, rounded box black #f0b88f
node 489 505.31 3.1528 2.1111 0.94444 "X[5] <= -117.12\nmse = 9046951305.64\nsamples = 33\nvalue = 343264.91" filled, rounded box black #edaa79
node 490 505.31 1.7083 2.1111 0.94444 "X[7] <= 24.5\nmse = 7102365237.14\nsamples = 28\nvalue = 367544.56" filled, rounded box black #eca36f
node 491 504.23 0.36806 2.1111 0.73611 "mse = 5485630497.96\nsamples = 20\nvalue = 344008.57" filled, rounded box black #edaa79
node 492 506.59 0.36806 2.1111 0.73611 "mse = 4036341680.25\nsamples = 8\nvalue = 449920.5" filled, rounded box black #e88e4d
node 493 508.74 1.7083 2.1111 0.94444 "X[11] <= 152.5\nmse = 1084842222.22\nsamples = 5\nvalue = 221866.67" filled, rounded box black #f4c9ab
node 494 508.74 0.36806 1.6806 0.73611 "mse = 0.0\nsamples = 1\nvalue = 166900.0" filled, rounded box black #f7d8c1
node 495 510.84 0.36806 2.0139 0.73611 "mse = 284919183.67\nsamples = 4\nvalue = 237571.43" filled, rounded box black #f3c5a4
node 496 548.05 7.4861 2.1111 0.94444 "X[12] <= 5.58\nmse = 9193232239.05\nsamples = 209\nvalue = 368388.0" filled, rounded box black #eca36f
node 497 539.16 6.0417 2.1111 0.94444 "X[9] <= 469.5\nmse = 9195358386.58\nsamples = 104\nvalue = 332525.89" filled, rounded box black #eead7d
node 498 525.63 4.5972 2.1111 0.94444 "X[5] <= -118.37\nmse = 8246997334.15\nsamples = 80\nvalue = 312745.58" filled, rounded box black #efb285
node 499 519.03 3.1528 2.1111 0.94444 "X[6] <= 34.2\nmse = 6029461980.91\nsamples = 48\nvalue = 338808.27" filled, rounded box black #eeab7b
node 500 515.52 1.7083 2.0139 0.94444 "X[6] <= 33.96\nmse = 4681669579.8\nsamples = 12\nvalue = 389395.5" filled, rounded box black #eb9e66
node 501 513.16 0.36806 2.1111 0.73611 "mse = 2106546938.78\nsamples = 3\nvalue = 319485.71" filled, rounded box black #efb083
node 502 515.52 0.36806 2.1111 0.73611 "mse = 2538254664.06\nsamples = 9\nvalue = 422020.07" filled, rounded box black #e99559
node 503 519.03 1.7083 2.1111 0.94444 "X[10] <= 735.5\nmse = 5030754087.79\nsamples = 36\nvalue = 316986.33" filled, rounded box black #efb184
node 504 517.88 0.36806 2.1111 0.73611 "mse = 4770782499.08\nsamples = 19\nvalue = 347385.82" filled, rounded box black #eda977
node 505 520.2 0.36806 2.0139 0.73611 "mse = 2852617353.5\nsamples = 17\nvalue = 279978.26" filled, rounded box black #f1ba93
node 506 525.63 3.1528 2.1111 0.94444 "X[6] <= 33.74\nmse = 9044953788.52\nsamples = 32\nvalue = 274694.04" filled, rounded box black #f1bc95
node 507 524.45 1.7083 2.1111 0.94444 "X[11] <= 384.5\nmse = 5655852150.19\nsamples = 5\nvalue = 410700.25" filled, rounded box black #ea985d
node 508 522.47 0.36806 2.0139 0.73611 "mse = 1865999978.0\nsamples = 4\nvalue = 448367.0" filled, rounded box black #e88e4e
node 509 524.56 0.36806 1.6806 0.73611 "mse = 0.0\nsamples = 1\nvalue = 297700.0" filled, rounded box black #f0b68c
node 510 526.81 1.7083 2.1111 0.94444 "X[6] <= 33.99\nmse = 5496009620.18\nsamples = 27\nvalue = 248788.1" filled, rounded box black #f2c2a0
node 511 526.72 0.36806 2.1111 0.73611 "mse = 1415013242.63\nsamples = 13\nvalue = 197576.19" filled, rounded box black #f5d0b4
node 512 529.08 0.36806 2.1111 0.73611 "mse = 4331687619.05\nsamples = 14\nvalue = 300000.0" filled, rounded box black #f0b58b
node 513 539.16 4.5972 2.1111 0.94444 "X[10] <= 1031.5\nmse = 6531360148.35\nsamples = 24\nvalue = 400108.61" filled, rounded box black #ea9b62
node 514 536.87 3.1528 2.1111 0.94444 "X[12] <= 5.25\nmse = 2339962854.21\nsamples = 8\nvalue = 441153.29" filled, rounded box black #e89051
node 515 533.7 1.7083 2.1111 0.94444 "X[11] <= 463.5\nmse = 1733657737.61\nsamples = 5\nvalue = 409050.12" filled, rounded box black #ea995e
node 516 531.44 0.36806 2.1111 0.73611 "mse = 1015532266.89\nsamples = 2\nvalue = 454933.67" filled, rounded box black #e78d4b
node 517 533.7 0.36806 1.9028 0.73611 "mse = 143445600.0\nsamples = 3\nvalue = 381520.0" filled, rounded box black #eba069
node 518 536.87 1.7083 2.1111 0.94444 "X[9] <= 487.5\nmse = 1148488000.25\nsamples = 3\nvalue = 469689.44" filled, rounded box black #e78945
node 519 535.74 0.36806 1.6806 0.73611 "mse = 0.0\nsamples = 1\nvalue = 431800.0" filled, rounded box black #e99355
node 520 537.67 0.36806 1.6806 0.73611 "mse = 0.0\nsamples = 2\nvalue = 500001.0" filled, rounded box black #e58139
node 521 540.66 3.1528 2.1111 0.94444 "X[9] <= 547.5\nmse = 7425558852.24\nsamples = 16\nvalue = 363384.42" filled, rounded box black #eca471
node 522 540.66 1.7083 2.0139 0.94444 "X[9] <= 487.5\nmse = 948033580.25\nsamples = 6\nvalue = 302444.44" filled, rounded box black #f0b48a
node 523 539.6 0.36806 1.6806 0.73611 "mse = 0.0\nsamples = 1\nvalue = 366300.0" filled, rounded box black #eca470
node 524 541.7 0.36806 2.0139 0.73611 "mse = 493134843.75\nsamples = 5\nvalue = 294462.5" filled, rounded box black #f0b68d
node 525 544.02 1.7083 2.1111 0.94444 "X[12] <= 5.54\nmse = 6904937516.24\nsamples = 10\nvalue = 418230.4" filled, rounded box black #e9965a
node 526 544.02 0.36806 2.1111 0.73611 "mse = 2962228050.25\nsamples = 8\nvalue = 451325.5" filled, rounded box black #e88e4d
node 527 546.28 0.36806 1.9028 0.73611 "mse = 770062500.0\nsamples = 2\nvalue = 285850.0" filled, rounded box black #f0b990
node 528 556.15 6.0417 2.1111 0.94444 "X[7] <= 51.0\nmse = 6842847214.85\nsamples = 105\nvalue = 402128.09" filled, rounded box black #ea9a61
node 529 556.15 4.5972 2.1111 0.94444 "X[11] <= 275.5\nmse = 6548306669.13\nsamples = 78\nvalue = 388598.61" filled, rounded box black #eb9e66
node 530 554.38 3.1528 2.1111 0.94444 "X[12] <= 6.08\nmse = 6616718711.94\nsamples = 31\nvalue = 355838.58" filled, rounded box black #eda674
node 531 550.87 1.7083 2.1111 0.94444 "X[6] <= 37.72\nmse = 4159062222.22\nsamples = 13\nvalue = 311466.67" filled, rounded box black #efb286
node 532 548.55 0.36806 2.1111 0.73611 "mse = 2837754023.44\nsamples = 11\nvalue = 334818.75" filled, rounded box black #eeac7c
node 533 550.87 0.36806 2.0139 0.73611 "mse = 1058150400.0\nsamples = 2\nvalue = 236740.0" filled, rounded box black #f3c5a4
node 534 554.38 1.7083 2.1111 0.94444 "X[9] <= 142.0\nmse = 6044327707.13\nsamples = 18\nvalue = 385896.97" filled, rounded box black #eb9f68
node 535 553.19 0.36806 2.1111 0.73611 "mse = 3537844333.47\nsamples = 4\nvalue = 473400.83" filled, rounded box black #e68844
node 536 555.55 0.36806 2.1111 0.73611 "mse = 4367182392.36\nsamples = 14\nvalue = 364896.04" filled, rounded box black #eca470
node 537 559.05 3.1528 2.1111 0.94444 "X[7] <= 47.5\nmse = 5240866293.09\nsamples = 47\nvalue = 411312.24" filled, rounded box black #ea985d
node 538 559.05 1.7083 2.1111 0.94444 "X[6] <= 34.08\nmse = 4433437499.68\nsamples = 42\nvalue = 421962.03" filled, rounded box black #e99559
node 539 557.91 0.36806 2.1111 0.73611 "mse = 3082175636.74\nsamples = 18\nvalue = 458619.07" filled, rounded box black #e78c4a
node 540 560.27 0.36806 2.1111 0.73611 "mse = 3855651788.17\nsamples = 24\nvalue = 397822.02" filled, rounded box black #ea9c63
node 541 562.53 1.7083 2.1111 0.94444 "X[12] <= 5.82\nmse = 1279728163.27\nsamples = 5\nvalue = 307857.14" filled, rounded box black #efb387
node 542 562.53 0.36806 1.9028 0.73611 "mse = 630010000.0\nsamples = 2\nvalue = 256500.0" filled, rounded box black #f2c09c
node 543 564.65 0.36806 1.8056 0.73611 "mse = 62584000.0\nsamples = 3\nvalue = 328400.0" filled, rounded box black #eeae7f
node 544 565.7 4.5972 2.1111 0.94444 "X[6] <= 37.81\nmse = 5506309983.47\nsamples = 27\nvalue = 443038.64" filled, rounded box black #e89050
node 545 565.7 3.1528 2.1111 0.94444 "X[8] <= 1369.0\nmse = 2773098035.89\nsamples = 19\nvalue = 471873.1" filled, rounded box black #e78844
node 546 564.72 1.7083 1.6806 0.73611 "mse = 0.0\nsamples = 6\nvalue = 500001.0" filled, rounded box black #e58139
node 547 566.87 1.7083 2.1111 0.94444 "X[9] <= 288.5\nmse = 3933685104.24\nsamples = 13\nvalue = 445620.4" filled, rounded box black #e88f4f
node 548 566.85 0.36806 2.1111 0.73611 "mse = 1491722448.98\nsamples = 5\nvalue = 384842.86" filled, rounded box black #eb9f68
node 549 569.12 0.36806 1.9028 0.73611 "mse = 10081800.19\nsamples = 8\nvalue = 498800.75" filled, rounded box black #e58139
node 550 569.03 3.1528 2.1111 0.94444 "X[5] <= -122.38\nmse = 5611303433.31\nsamples = 8\nvalue = 378715.62" filled, rounded box black #eca16b
node 551 569.03 1.7083 1.6806 0.73611 "mse = 0.0\nsamples = 2\nvalue = 500001.0" filled, rounded box black #e58139
node 552 571.16 1.7083 2.0139 0.94444 "X[6] <= 37.82\nmse = 1557738100.0\nsamples = 6\nvalue = 342330.0" filled, rounded box black #edaa79
node 553 571.16 0.36806 1.6806 0.73611 "mse = 0.0\nsamples = 1\nvalue = 273700.0" filled, rounded box black #f1bc95
node 554 573.26 0.36806 2.0139 0.73611 "mse = 475273593.75\nsamples = 5\nvalue = 359487.5" filled, rounded box black #eda672
node 555 605.53 8.9306 2.1111 0.94444 "X[7] <= 32.5\nmse = 5585201531.42\nsamples = 266\nvalue = 210272.08" filled, rounded box black #f5ccaf
node 556 605.53 7.4861 2.1111 0.94444 "X[12] <= 6.13\nmse = 3652201869.63\nsamples = 228\nvalue = 198481.06" filled, rounded box black #f5cfb4
node 557 601.06 6.0417 2.1111 0.94444 "X[8] <= 3484.0\nmse = 3093816563.16\nsamples = 192\nvalue = 188729.63" filled, rounded box black #f6d2b8
node 558 588.19 4.5972 2.1111 0.94444 "X[5] <= -120.92\nmse = 2488255947.48\nsamples = 120\nvalue = 175584.82" filled, rounded box black #f6d5bd
node 559 581.34 3.1528 2.1111 0.94444 "X[10] <= 867.0\nmse = 2552303778.63\nsamples = 62\nvalue = 198337.76" filled, rounded box black #f5cfb4
node 560 577.84 1.7083 2.1111 0.94444 "X[6] <= 37.72\nmse = 4068116482.83\nsamples = 22\nvalue = 227764.52" filled, rounded box black #f4c8a8
node 561 575.52 0.36806 2.0139 0.73611 "mse = 9322740000.0\nsamples = 3\nvalue = 324600.0" filled, rounded box black #eeaf81
node 562 577.84 0.36806 2.1111 0.73611 "mse = 2392785242.35\nsamples = 19\nvalue = 217389.29" filled, rounded box black #f4caac
node 563 581.34 1.7083 2.1111 0.94444 "X[8] <= 2761.5\nmse = 1264923230.12\nsamples = 40\nvalue = 184722.39" filled, rounded box black #f6d3ba
node 564 580.16 0.36806 2.0139 0.73611 "mse = 729317176.85\nsamples = 22\nvalue = 170683.72" filled, rounded box black #f7d7bf
node 565 582.48 0.36806 2.1111 0.73611 "mse = 1238787708.33\nsamples = 18\nvalue = 209875.0" filled, rounded box black #f5ccaf
node 566 588.19 3.1528 2.1111 0.94444 "X[6] <= 34.8\nmse = 1300376485.14\nsamples = 58\nvalue = 151608.6" filled, rounded box black #f8dcc7
node 567 587.06 1.7083 2.0139 0.94444 "X[6] <= 33.56\nmse = 1329493175.8\nsamples = 29\nvalue = 167917.39" filled, rounded box black #f7d7c1
node 568 584.8 0.36806 2.0139 0.73611 "mse = 870835555.56\nsamples = 2\nvalue = 89233.33" filled, rounded box black #fbece1
node 569 587.06 0.36806 2.0139 0.73611 "mse = 899414137.37\nsamples = 27\nvalue = 173406.98" filled, rounded box black #f7d6be
node 570 589.33 1.7083 2.0139 0.94444 "X[11] <= 224.5\nmse = 756782915.35\nsamples = 29\nvalue = 135646.81" filled, rounded box black #f9e0ce
node 571 589.33 0.36806 2.0139 0.73611 "mse = 161224897.96\nsamples = 4\nvalue = 181271.43" filled, rounded box black #f6d4bb
node 572 591.59 0.36806 2.0139 0.73611 "mse = 432975343.75\nsamples = 25\nvalue = 127662.5" filled, rounded box black #f9e2d1
node 573 601.06 4.5972 2.1111 0.94444 "X[10] <= 1762.0\nmse = 3312625998.58\nsamples = 72\nvalue = 212415.09" filled, rounded box black #f4ccae
node 574 599.44 3.1528 2.1111 0.94444 "X[6] <= 38.2\nmse = 4803770322.22\nsamples = 20\nvalue = 244063.33" filled, rounded box black #f3c3a1
node 575 596.23 1.7083 2.1111 0.94444 "X[10] <= 1655.5\nmse = 3724477869.82\nsamples = 16\nvalue = 229853.85" filled, rounded box black #f3c7a7
node 576 593.91 0.36806 2.1111 0.73611 "mse = 2576078593.75\nsamples = 10\nvalue = 206012.5" filled, rounded box black #f5cdb1
node 577 596.23 0.36806 2.0139 0.73611 "mse = 3197332000.0\nsamples = 6\nvalue = 268000.0" filled, rounded box black #f1bd98
node 578 599.44 1.7083 2.0139 0.94444 "X[10] <= 1724.0\nmse = 1976081875.0\nsamples = 4\nvalue = 336425.0" filled, rounded box black #eeab7c
node 579 598.49 0.36806 2.0139 0.73611 "mse = 517242222.22\nsamples = 3\nvalue = 359433.33" filled, rounded box black #eda672
node 580 600.59 0.36806 1.6806 0.73611 "mse = 0.0\nsamples = 1\nvalue = 267400.0" filled, rounded box black #f1bd98
node 581 603.81 3.1528 2.1111 0.94444 "X[12] <= 5.26\nmse = 2172575420.71\nsamples = 52\nvalue = 199922.37" filled, rounded box black #f5cfb4
node 582 603.81 1.7083 2.0139 0.94444 "X[6] <= 33.97\nmse = 805273739.61\nsamples = 17\nvalue = 165968.42" filled, rounded box black #f7d8c1
node 583 602.69 0.36806 2.0139 0.73611 "mse = 206942222.22\nsamples = 3\nvalue = 207866.67" filled, rounded box black #f5cdb0
node 584 604.95 0.36806 2.0139 0.73611 "mse = 526596093.75\nsamples = 14\nvalue = 158112.5" filled, rounded box black #f7dac5
node 585 607.27 1.7083 2.1111 0.94444 "X[12] <= 6.05\nmse = 2115955740.23\nsamples = 35\nvalue = 211240.35" filled, rounded box black #f4ccaf
node 586 607.27 0.36806 2.1111 0.73611 "mse = 1769936674.38\nsamples = 34\nvalue = 215092.73" filled, rounded box black #f4cbad
node 587 609.42 0.36806 1.6806 0.73611 "mse = 0.0\nsamples = 1\nvalue = 105300.0" filled, rounded box black #fae8da
node 588 609.72 6.0417 2.1111 0.94444 "X[6] <= 33.22\nmse = 3689477377.73\nsamples = 36\nvalue = 245193.55" filled, rounded box black #f3c3a1
node 589 609.72 4.5972 1.9028 0.94444 "X[8] <= 1858.5\nmse = 873620000.0\nsamples = 2\nvalue = 118100.0" filled, rounded box black #f9e4d5
node 590 608.81 3.1528 1.5694 0.73611 "mse = 0.0\nsamples = 1\nvalue = 97200.0" filled, rounded box black #fbeadd
node 591 610.69 3.1528 1.6806 0.73611 "mse = 0.0\nsamples = 1\nvalue = 159900.0" filled, rounded box black #f7d9c4
node 592 612.87 4.5972 2.1111 0.94444 "X[5] <= -121.1\nmse = 2969566871.59\nsamples = 34\nvalue = 251655.93" filled, rounded box black #f2c29e
node 593 612.87 3.1528 2.0139 0.94444 "X[5] <= -121.99\nmse = 1697999776.0\nsamples = 13\nvalue = 279468.0" filled, rounded box black #f1ba93
node 594 611.3 1.7083 1.6806 0.73611 "mse = 0.0\nsamples = 1\nvalue = 198000.0" filled, rounded box black #f5cfb4
node 595 613.4 1.7083 2.0139 0.94444 "X[7] <= 28.5\nmse = 901079028.93\nsamples = 12\nvalue = 290577.27" filled, rounded box black #f0b78e
node 596 611.52 0.36806 2.0139 0.73611 "mse = 329700553.63\nsamples = 9\nvalue = 304305.88" filled, rounded box black #efb489
node 597 613.69 0.36806 1.8056 0.73611 "mse = 24184000.0\nsamples = 3\nvalue = 243900.0" filled, rounded box black #f3c4a2
node 598 616.19 3.1528 2.0139 0.94444 "X[6] <= 34.52\nmse = 2917579965.4\nsamples = 21\nvalue = 231205.88" filled, rounded box black #f3c7a7
node 599 616.19 1.7083 2.0139 0.94444 "X[10] <= 1238.0\nmse = 2252385600.0\nsamples = 14\nvalue = 248660.0" filled, rounded box black #f2c2a0
node 600 615.9 0.36806 2.1111 0.73611 "mse = 2304234097.22\nsamples = 7\nvalue = 224508.33" filled, rounded box black #f4c9a9
node 601 618.26 0.36806 2.1111 0.73611 "mse = 1169076331.36\nsamples = 7\nvalue = 270953.85" filled, rounded box black #f1bd97
node 602 620.62 1.7083 2.1111 0.94444 "X[11] <= 925.0\nmse = 1568437283.95\nsamples = 7\nvalue = 182722.22" filled, rounded box black #f6d3bb
node 603 620.62 0.36806 2.1111 0.73611 "mse = 1202328055.56\nsamples = 5\nvalue = 163716.67" filled, rounded box black #f7d8c2
node 604 622.94 0.36806 2.0139 0.73611 "mse = 133388888.89\nsamples = 2\nvalue = 220733.33" filled, rounded box black #f4caab
node 605 634.78 7.4861 2.1111 0.94444 "X[6] <= 34.19\nmse = 11341879615.1\nsamples = 38\nvalue = 280821.72" filled, rounded box black #f1ba92
node 606 634.78 6.0417 2.1111 0.94444 "X[5] <= -117.96\nmse = 7421381589.93\nsamples = 21\nvalue = 350687.59" filled, rounded box black #eda876
node 607 632.81 4.5972 2.1111 0.94444 "X[6] <= 34.16\nmse = 3707420999.74\nsamples = 16\nvalue = 391095.78" filled, rounded box black #eb9d65
node 608 629.45 3.1528 2.1111 0.94444 "X[12] <= 6.31\nmse = 1938495161.39\nsamples = 9\nvalue = 430814.5" filled, rounded box black #e99355
node 609 627.19 1.7083 1.9028 0.94444 "X[12] <= 5.29\nmse = 884910900.0\nsamples = 6\nvalue = 412290.0" filled, rounded box black #ea985d
node 610 625.1 0.36806 1.8056 0.73611 "mse = 51122500.0\nsamples = 2\nvalue = 438050.0" filled, rounded box black #e89152
node 611 627.27 0.36806 2.0139 0.73611 "mse = 703461388.89\nsamples = 4\nvalue = 395116.67" filled, rounded box black #eb9c64
node 612 629.45 1.7083 2.1111 0.94444 "X[11] <= 294.0\nmse = 1569831187.69\nsamples = 3\nvalue = 477125.75" filled, rounded box black #e68742
node 613 629.37 0.36806 1.6806 0.73611 "mse = 0.0\nsamples = 1\nvalue = 408500.0" filled, rounded box black #ea995e
node 614 631.3 0.36806 1.6806 0.73611 "mse = 0.0\nsamples = 2\nvalue = 500001.0" filled, rounded box black #e58139
node 615 632.81 3.1528 2.0139 0.94444 "X[12] <= 6.38\nmse = 187729876.54\nsamples = 7\nvalue = 329311.11" filled, rounded box black #eead7f
node 616 631.77 1.7083 2.0139 0.94444 "X[6] <= 34.17\nmse = 163528593.75\nsamples = 6\nvalue = 331612.5" filled, rounded box black #eead7e
node 617 633.4 0.36806 2.0139 0.73611 "mse = 114288571.43\nsamples = 5\nvalue = 328600.0" filled, rounded box black #eeae7f
node 618 635.49 0.36806 1.6806 0.73611 "mse = 0.0\nsamples = 1\nvalue = 352700.0" filled, rounded box black #eda775
node 619 633.87 1.7083 1.6806 0.73611 "mse = 0.0\nsamples = 1\nvalue = 310900.0" filled, rounded box black #efb286
node 620 636.74 4.5972 2.1111 0.94444 "X[12] <= 6.0\nmse = 2076110617.28\nsamples = 5\nvalue = 247422.22" filled, rounded box black #f3c3a0
node 621 636.74 3.1528 1.9028 0.94444 "X[9] <= 248.0\nmse = 617814400.0\nsamples = 3\nvalue = 210360.0" filled, rounded box black #f5ccaf
node 622 635.8 1.7083 1.6806 0.73611 "mse = 0.0\nsamples = 1\nvalue = 161000.0" filled, rounded box black #f7d9c3
node 623 637.8 1.7083 1.8056 0.94444 "X[8] <= 2538.5\nmse = 10890000.0\nsamples = 2\nvalue = 222700.0" filled, rounded box black #f4c9aa
node 624 637.56 0.36806 1.6806 0.73611 "mse = 0.0\nsamples = 1\nvalue = 219400.0" filled, rounded box black #f4caac
node 625 639.49 0.36806 1.6806 0.73611 "mse = 0.0\nsamples = 1\nvalue = 226000.0" filled, rounded box black #f4c8a9
node 626 639.8 3.1528 1.8056 0.94444 "X[8] <= 2621.5\nmse = 35707500.0\nsamples = 2\nvalue = 293750.0" filled, rounded box black #f0b78d
node 627 639.8 1.7083 1.6806 0.73611 "mse = 0.0\nsamples = 1\nvalue = 283400.0" filled, rounded box black #f1b991
node 628 641.73 1.7083 1.6806 0.73611 "mse = 0.0\nsamples = 1\nvalue = 297200.0" filled, rounded box black #f0b68c
node 629 643.51 6.0417 2.1111 0.94444 "X[10] <= 236.0\nmse = 3868389732.14\nsamples = 17\nvalue = 200975.0" filled, rounded box black #f5cfb3
node 630 643.51 4.5972 2.0139 0.94444 "X[6] <= 38.15\nmse = 1437052500.0\nsamples = 3\nvalue = 133450.0" filled, rounded box black #f9e0cf
node 631 642.48 3.1528 1.6806 0.73611 "mse = 0.0\nsamples = 1\nvalue = 212500.0" filled, rounded box black #f4ccae
node 632 644.52 3.1528 1.9028 0.94444 "X[7] <= 36.5\nmse = 224726400.0\nsamples = 2\nvalue = 117640.0" filled, rounded box black #f9e4d5
node 633 643.66 1.7083 1.6806 0.73611 "mse = 0.0\nsamples = 1\nvalue = 136000.0" filled, rounded box black #f9e0ce
node 634 645.59 1.7083 1.6806 0.73611 "mse = 0.0\nsamples = 1\nvalue = 105400.0" filled, rounded box black #fae8da
node 635 648.42 4.5972 2.1111 0.94444 "X[5] <= -121.9\nmse = 2948801735.54\nsamples = 14\nvalue = 219390.91" filled, rounded box black #f4caac
node 636 648.42 3.1528 1.8056 0.94444 "X[10] <= 392.0\nmse = 25920000.0\nsamples = 2\nvalue = 308400.0" filled, rounded box black #efb387
node 637 647.52 1.7083 1.6806 0.73611 "mse = 0.0\nsamples = 1\nvalue = 304800.0" filled, rounded box black #efb489
node 638 649.45 1.7083 1.6806 0.73611 "mse = 0.0\nsamples = 1\nvalue = 315600.0" filled, rounded box black #efb184
node 639 651.55 3.1528 2.1111 0.94444 "X[6] <= 36.35\nmse = 1961852853.19\nsamples = 12\nvalue = 205336.84" filled, rounded box black #f5ceb1
node 640 651.55 1.7083 2.0139 0.94444 "X[7] <= 45.5\nmse = 369467343.75\nsamples = 4\nvalue = 246137.5" filled, rounded box black #f3c3a1
node 641 649.51 0.36806 1.9028 0.73611 "mse = 24426938.78\nsamples = 3\nvalue = 239085.71" filled, rounded box black #f3c5a4
node 642 651.55 0.36806 1.6806 0.73611 "mse = 0.0\nsamples = 1\nvalue = 295500.0" filled, rounded box black #f0b68c
node 643 653.87 1.7083 2.1111 0.94444 "X[8] <= 1056.0\nmse = 1028765950.41\nsamples = 8\nvalue = 175663.64" filled, rounded box black #f6d5bd
node 644 653.55 0.36806 1.8056 0.73611 "mse = 17222500.0\nsamples = 2\nvalue = 229150.0" filled, rounded box black #f4c7a8
node 645 655.72 0.36806 2.0139 0.73611 "mse = 476548395.06\nsamples = 6\nvalue = 163777.78" filled, rounded box black #f7d8c2
node 646 697.26 10.375 2.0139 0.94444 "X[12] <= 7.82\nmse = 8011659916.8\nsamples = 780\nvalue = 409711.49" filled, rounded box black #ea985e
node 647 697.26 8.9306 2.1111 0.94444 "X[7] <= 27.5\nmse = 6849086119.56\nsamples = 384\nvalue = 367808.46" filled, rounded box black #eca36f
node 648 691.26 7.4861 2.1111 0.94444 "X[4] <= 0.5\nmse = 5186666854.28\nsamples = 248\nvalue = 343107.1" filled, rounded box black #edaa79
node 649 679.44 6.0417 2.1111 0.94444 "X[1] <= 0.5\nmse = 4324185490.47\nsamples = 222\nvalue = 334019.89" filled, rounded box black #eeac7d
node 650 666.3 4.5972 2.1111 0.94444 "X[6] <= 33.94\nmse = 4093818000.76\nsamples = 189\nvalue = 343163.75" filled, rounded box black #edaa79
node 651 660.4 3.1528 2.1111 0.94444 "X[9] <= 80.5\nmse = 3154022403.16\nsamples = 84\nvalue = 316460.32" filled, rounded box black #efb184
node 652 658.24 1.7083 1.6806 0.73611 "mse = 0.0\nsamples = 2\nvalue = 500001.0" filled, rounded box black #e58139
node 653 660.4 1.7083 2.1111 0.94444 "X[12] <= 6.79\nmse = 2690799209.34\nsamples = 82\nvalue = 313720.9" filled, rounded box black #efb185
node 654 658.03 0.36806 2.1111 0.73611 "mse = 1397498766.67\nsamples = 18\nvalue = 277470.0" filled, rounded box black #f1bb94
node 655 660.4 0.36806 2.1111 0.73611 "mse = 2575442603.65\nsamples = 64\nvalue = 324177.89" filled, rounded box black #eeaf81
node 656 666.3 3.1528 2.1111 0.94444 "X[9] <= 598.5\nmse = 3850776802.12\nsamples = 105\nvalue = 363566.38" filled, rounded box black #eca471
node 657 665.12 1.7083 2.1111 0.94444 "X[12] <= 7.26\nmse = 2790531616.16\nsamples = 66\nvalue = 349450.9" filled, rounded box black #eda876
node 658 662.76 0.36806 2.1111 0.73611 "mse = 1697478788.89\nsamples = 37\nvalue = 333176.67" filled, rounded box black #eeac7d
node 659 665.12 0.36806 2.1111 0.73611 "mse = 3393537505.27\nsamples = 29\nvalue = 368228.87" filled, rounded box black #eca36f
node 660 667.48 1.7083 2.1111 0.94444 "X[8] <= 4557.0\nmse = 4738093543.23\nsamples = 39\nvalue = 387519.91" filled, rounded box black #eb9e67
node 661 667.48 0.36806 2.1111 0.73611 "mse = 1790228556.35\nsamples = 6\nvalue = 468464.93" filled, rounded box black #e78946
node 662 669.84 0.36806 2.1111 0.73611 "mse = 3292793558.52\nsamples = 33\nvalue = 365727.02" filled, rounded box black #eca470
node 663 679.44 4.5972 2.1111 0.94444 "X[5] <= -121.47\nmse = 2350514722.22\nsamples = 33\nvalue = 280850.0" filled, rounded box black #f1ba92
node 664 677.01 3.1528 2.0139 0.94444 "X[6] <= 37.94\nmse = 1622048960.3\nsamples = 11\nvalue = 313486.96" filled, rounded box black #efb185
node 665 673.99 1.7083 1.9028 0.94444 "X[8] <= 2159.5\nmse = 258296875.0\nsamples = 6\nvalue = 336975.0" filled, rounded box black #eeab7c
node 666 671.99 0.36806 1.6806 0.73611 "mse = 0.0\nsamples = 1\nvalue = 366700.0" filled, rounded box black #eca46f
node 667 673.99 0.36806 1.8056 0.73611 "mse = 97898100.0\nsamples = 5\nvalue = 331030.0" filled, rounded box black #eead7e
node 668 677.01 1.7083 2.1111 0.94444 "X[5] <= -122.17\nmse = 1851382314.05\nsamples = 5\nvalue = 287863.64" filled, rounded box black #f0b890
node 669 675.99 0.36806 1.6806 0.73611 "mse = 0.0\nsamples = 1\nvalue = 398800.0" filled, rounded box black #ea9b62
node 670 678.03 0.36806 1.9028 0.73611 "mse = 682764100.0\nsamples = 4\nvalue = 276770.0" filled, rounded box black #f1bb94
node 671 680.97 3.1528 2.1111 0.94444 "X[10] <= 196.5\nmse = 1514358418.31\nsamples = 22\nvalue = 256635.48" filled, rounded box black #f2c09c
node 672 680.97 1.7083 1.9028 0.94444 "X[11] <= 42.5\nmse = 77708888.89\nsamples = 2\nvalue = 200033.33" filled, rounded box black #f5cfb3
node 673 680.08 0.36806 1.6806 0.73611 "mse = 0.0\nsamples = 1\nvalue = 193800.0" filled, rounded box black #f5d1b6
node 674 682.01 0.36806 1.6806 0.73611 "mse = 0.0\nsamples = 1\nvalue = 212500.0" filled, rounded box black #f4ccae
node 675 684.13 1.7083 2.1111 0.94444 "X[10] <= 3015.0\nmse = 1288242142.86\nsamples = 20\nvalue = 262700.0" filled, rounded box black #f2bf9a
node 676 684.16 0.36806 2.1111 0.73611 "mse = 1008029876.54\nsamples = 19\nvalue = 266122.22" filled, rounded box black #f2be98
node 677 686.31 0.36806 1.6806 0.73611 "mse = 0.0\nsamples = 1\nvalue = 170300.0" filled, rounded box black #f7d7c0
node 678 691.26 6.0417 2.1111 0.94444 "X[6] <= 32.75\nmse = 6042094316.66\nsamples = 26\nvalue = 417420.31" filled, rounded box black #e9965b
node 679 690.08 4.5972 2.1111 0.94444 "X[12] <= 7.17\nmse = 2127362222.22\nsamples = 3\nvalue = 251666.67" filled, rounded box black #f2c29e
node 680 688.16 3.1528 1.9028 0.94444 "X[12] <= 6.8\nmse = 103022500.0\nsamples = 2\nvalue = 283750.0" filled, rounded box black #f1b991
node 681 686.28 1.7083 1.6806 0.73611 "mse = 0.0\nsamples = 1\nvalue = 273600.0" filled, rounded box black #f1bc95
node 682 688.22 1.7083 1.6806 0.73611 "mse = 0.0\nsamples = 1\nvalue = 293900.0" filled, rounded box black #f0b78d
node 683 690.2 3.1528 1.6806 0.73611 "mse = 0.0\nsamples = 1\nvalue = 187500.0" filled, rounded box black #f6d2b9
node 684 692.44 4.5972 2.1111 0.94444 "X[7] <= 14.5\nmse = 4219095284.12\nsamples = 23\nvalue = 429259.86" filled, rounded box black #e99356
node 685 692.4 3.1528 2.0139 0.94444 "X[12] <= 7.55\nmse = 2032055000.0\nsamples = 5\nvalue = 363500.0" filled, rounded box black #eca471
node 686 690.31 1.7083 2.0139 0.94444 "X[11] <= 500.5\nmse = 2111360000.0\nsamples = 3\nvalue = 394300.0" filled, rounded box black #eb9c64
node 687 688.31 0.36806 1.8056 0.73611 "mse = 64000000.0\nsamples = 2\nvalue = 348700.0" filled, rounded box black #eda877
node 688 690.31 0.36806 1.6806 0.73611 "mse = 0.0\nsamples = 1\nvalue = 439900.0" filled, rounded box black #e89152
node 689 692.48 1.7083 1.8056 0.94444 "X[10] <= 1916.5\nmse = 55470000.0\nsamples = 2\nvalue = 332700.0" filled, rounded box black #eeac7d
node 690 692.24 0.36806 1.6806 0.73611 "mse = 0.0\nsamples = 1\nvalue = 319800.0" filled, rounded box black #efb083
node 691 694.17 0.36806 1.6806 0.73611 "mse = 0.0\nsamples = 1\nvalue = 337000.0" filled, rounded box black #eeab7c
node 692 694.72 3.1528 2.1111 0.94444 "X[9] <= 152.0\nmse = 3476785938.65\nsamples = 18\nvalue = 444732.76" filled, rounded box black #e88f50
node 693 694.63 1.7083 1.6806 0.73611 "mse = 0.0\nsamples = 1\nvalue = 273300.0" filled, rounded box black #f1bc96
node 694 696.78 1.7083 2.1111 0.94444 "X[6] <= 37.52\nmse = 2664574166.64\nsamples = 17\nvalue = 449927.7" filled, rounded box black #e88e4d
node 695 696.33 0.36806 2.1111 0.73611 "mse = 1874798090.03\nsamples = 15\nvalue = 459713.8" filled, rounded box black #e78b49
node 696 698.59 0.36806 1.9028 0.73611 "mse = 27875555.56\nsamples = 2\nvalue = 352066.67" filled, rounded box black #eda775
node 697 704.23 7.4861 2.1111 0.94444 "X[6] <= 37.66\nmse = 6595443115.05\nsamples = 136\nvalue = 415703.6" filled, rounded box black #ea975b
node 698 704.23 6.0417 2.1111 0.94444 "X[9] <= 9.5\nmse = 6452666630.16\nsamples = 107\nvalue = 430387.14" filled, rounded box black #e99355
node 699 703.17 4.5972 1.5694 0.73611 "mse = 0.0\nsamples = 1\nvalue = 67500.0" filled, rounded box black #fcf1ea
node 700 705.27 4.5972 2.1111 0.94444 "X[6] <= 33.77\nmse = 5688833222.98\nsamples = 106\nvalue = 432586.45" filled, rounded box black #e99355
node 701 704.12 3.1528 2.0139 0.94444 "X[7] <= 49.5\nmse = 1869425735.9\nsamples = 13\nvalue = 478912.68" filled, rounded box black #e68642
node 702 702.06 1.7083 2.0139 0.94444 "X[12] <= 7.46\nmse = 354704900.76\nsamples = 12\nvalue = 490496.39" filled, rounded box black #e6833d
node 703 700.8 0.36806 2.0139 0.73611 "mse = 101348263.63\nsamples = 10\nvalue = 496595.85" filled, rounded box black #e5823a
node 704 703.06 0.36806 2.0139 0.73611 "mse = 142242222.22\nsamples = 2\nvalue = 449833.33" filled, rounded box black #e88e4d
node 705 704.16 1.7083 1.6806 0.73611 "mse = 0.0\nsamples = 1\nvalue = 345700.0" filled, rounded box black #eda978
node 706 706.44 3.1528 2.1111 0.94444 "X[5] <= -118.26\nmse = 5919199786.74\nsamples = 93\nvalue = 424313.91" filled, rounded box black #e99558
node 707 706.35 1.7083 2.1111 0.94444 "X[1] <= 0.5\nmse = 4467003607.17\nsamples = 66\nvalue = 445241.44" filled, rounded box black #e88f4f
node 708 705.38 0.36806 2.1111 0.73611 "mse = 3748683172.25\nsamples = 65\nvalue = 448004.48" filled, rounded box black #e88f4e
node 709 707.53 0.36806 1.6806 0.73611 "mse = 0.0\nsamples = 1\nvalue = 171700.0" filled, rounded box black #f7d6bf
node 710 708.72 1.7083 2.1111 0.94444 "X[5] <= -117.62\nmse = 5717528576.09\nsamples = 27\nvalue = 371995.1" filled, rounded box black #eca26d
node 711 709.69 0.36806 2.1111 0.73611 "mse = 4680631902.59\nsamples = 26\nvalue = 380173.79" filled, rounded box black #eba06a
node 712 711.84 0.36806 1.6806 0.73611 "mse = 0.0\nsamples = 1\nvalue = 216600.0" filled, rounded box black #f4cbad
node 713 712.08 6.0417 2.0139 0.94444 "X[5] <= -122.36\nmse = 3648650628.2\nsamples = 29\nvalue = 363842.6" filled, rounded box black #eca471
node 714 712.08 4.5972 2.1111 0.94444 "X[12] <= 6.77\nmse = 1266694300.25\nsamples = 3\nvalue = 467575.5" filled, rounded box black #e78946
node 715 710.55 3.1528 1.6806 0.73611 "mse = 0.0\nsamples = 1\nvalue = 500001.0" filled, rounded box black #e58139
node 716 712.59 3.1528 1.9028 0.94444 "X[9] <= 592.0\nmse = 430562500.0\nsamples = 2\nvalue = 435150.0" filled, rounded box black #e89253
node 717 710.87 1.7083 1.6806 0.73611 "mse = 0.0\nsamples = 1\nvalue = 455900.0" filled, rounded box black #e78c4b
node 718 712.8 1.7083 1.6806 0.73611 "mse = 0.0\nsamples = 1\nvalue = 414400.0" filled, rounded box black #ea975c
node 719 715.26 4.5972 2.1111 0.94444 "X[6] <= 37.8\nmse = 2776135532.72\nsamples = 26\nvalue = 354193.02" filled, rounded box black #eda775
node 720 715.26 3.1528 1.9028 0.94444 "X[6] <= 37.77\nmse = 51342222.22\nsamples = 2\nvalue = 250833.33" filled, rounded box black #f2c29f
node 721 714.73 1.7083 1.6806 0.73611 "mse = 0.0\nsamples = 1\nvalue = 255900.0" filled, rounded box black #f2c09d
node 722 716.66 1.7083 1.6806 0.73611 "mse = 0.0\nsamples = 1\nvalue = 240700.0" filled, rounded box black #f3c4a3
node 723 718.81 3.1528 2.0139 0.94444 "X[6] <= 38.07\nmse = 2119159975.0\nsamples = 24\nvalue = 361945.0" filled, rounded box black #eca571
node 724 718.81 1.7083 2.1111 0.94444 "X[11] <= 274.5\nmse = 1530969757.62\nsamples = 22\nvalue = 367739.47" filled, rounded box black #eca36f
node 725 716.55 0.36806 2.0139 0.73611 "mse = 1225172500.0\nsamples = 5\nvalue = 412550.0" filled, rounded box black #ea985d
node 726 718.81 0.36806 2.0139 0.73611 "mse = 934263566.67\nsamples = 17\nvalue = 355790.0" filled, rounded box black #eda674
node 727 721.08 1.7083 1.9028 0.94444 "X[9] <= 189.0\nmse = 535922500.0\nsamples = 2\nvalue = 251850.0" filled, rounded box black #f2c19e
node 728 720.91 0.36806 1.6806 0.73611 "mse = 0.0\nsamples = 1\nvalue = 275000.0" filled, rounded box black #f1bb95
node 729 722.84 0.36806 1.6806 0.73611 "mse = 0.0\nsamples = 1\nvalue = 228700.0" filled, rounded box black #f4c7a8
node 730 749.09 8.9306 2.1111 0.94444 "X[1] <= 0.5\nmse = 5389883249.01\nsamples = 396\nvalue = 454322.53" filled, rounded box black #e78d4c
node 731 749.09 7.4861 2.1111 0.94444 "X[12] <= 8.7\nmse = 3565823356.63\nsamples = 361\nvalue = 465530.18" filled, rounded box black #e78a47
node 732 745.05 6.0417 2.1111 0.94444 "X[7] <= 27.5\nmse = 4850459834.87\nsamples = 146\nvalue = 434152.26" filled, rounded box black #e99254
node 733 736.63 4.5972 2.1111 0.94444 "X[6] <= 33.74\nmse = 4119349848.89\nsamples = 80\nvalue = 392411.42" filled, rounded box black #eb9d65
node 734 730.19 3.1528 2.1111 0.94444 "X[11] <= 220.0\nmse = 3362643640.47\nsamples = 25\nvalue = 350305.29" filled, rounded box black #eda876
node 735 726.77 1.7083 2.0139 0.94444 "X[8] <= 688.5\nmse = 257649795.92\nsamples = 3\nvalue = 273914.29" filled, rounded box black #f1bc95
node 736 724.77 0.36806 1.6806 0.73611 "mse = 0.0\nsamples = 1\nvalue = 250000.0" filled, rounded box black #f2c29f
node 737 726.77 0.36806 1.8056 0.73611 "mse = 40449600.0\nsamples = 2\nvalue = 283480.0" filled, rounded box black #f1b991
node 738 730.19 1.7083 2.1111 0.94444 "X[11] <= 604.0\nmse = 2448510376.31\nsamples = 22\nvalue = 367554.87" filled, rounded box black #eca36f
node 739 728.98 0.36806 2.1111 0.73611 "mse = 1855081763.81\nsamples = 20\nvalue = 358878.61" filled, rounded box black #eda673
node 740 731.3 0.36806 2.0139 0.73611 "mse = 727075555.56\nsamples = 2\nvalue = 448533.33" filled, rounded box black #e88e4e
node 741 736.63 3.1528 2.1111 0.94444 "X[7] <= 7.5\nmse = 3186045026.81\nsamples = 55\nvalue = 413191.06" filled, rounded box black #ea985c
node 742 735.47 1.7083 2.0139 0.94444 "X[12] <= 8.42\nmse = 326365204.29\nsamples = 4\nvalue = 489215.0" filled, rounded box black #e6843d
node 743 733.51 0.36806 1.9028 0.73611 "mse = 124322500.0\nsamples = 2\nvalue = 462250.0" filled, rounded box black #e78b48
node 744 735.55 0.36806 1.6806 0.73611 "mse = 0.0\nsamples = 2\nvalue = 500001.0" filled, rounded box black #e58139
node 745 737.78 1.7083 2.1111 0.94444 "X[12] <= 8.17\nmse = 2836252751.76\nsamples = 51\nvalue = 405588.67" filled, rounded box black #ea9a60
node 746 737.7 0.36806 2.1111 0.73611 "mse = 3105190022.59\nsamples = 27\nvalue = 428897.03" filled, rounded box black #e99356
node 747 740.06 0.36806 2.1111 0.73611 "mse = 1767018603.93\nsamples = 24\nvalue = 385960.58" filled, rounded box black #eb9f68
node 748 745.05 4.5972 2.1111 0.94444 "X[6] <= 37.87\nmse = 1202707643.04\nsamples = 66\nvalue = 483638.84" filled, rounded box black #e68540
node 749 743.9 3.1528 2.0139 0.94444 "X[5] <= -117.11\nmse = 847628095.26\nsamples = 62\nvalue = 487653.47" filled, rounded box black #e6843e
node 750 741.99 1.7083 2.0139 0.94444 "X[7] <= 32.5\nmse = 619686369.18\nsamples = 61\nvalue = 489268.51" filled, rounded box black #e6843d
node 751 742.42 0.36806 2.1111 0.73611 "mse = 1766442529.66\nsamples = 13\nvalue = 476500.53" filled, rounded box black #e68743
node 752 744.74 0.36806 2.0139 0.73611 "mse = 305828784.11\nsamples = 48\nvalue = 492241.88" filled, rounded box black #e5833c
node 753 744.09 1.7083 1.6806 0.73611 "mse = 0.0\nsamples = 1\nvalue = 342300.0" filled, rounded box black #edaa79
node 754 746.22 3.1528 2.1111 0.94444 "X[9] <= 307.5\nmse = 2636204916.81\nsamples = 4\nvalue = 422750.17" filled, rounded box black #e99559
