graph 1 706.61 13.736
node 0 406.12 13.264 2.2222 0.94444 "X[12] <= 5.08\nmse = 13255307395.61\nsamples = 10447\nvalue = 206769.56" filled, rounded box black #f5cdb1
node 1 301.51 11.819 2.1111 0.94444 "X[1] <= 0.5\nmse = 8419370412.17\nsamples = 8260\nvalue = 173873.71" filled, rounded box black #f6d6be
node 2 166.97 10.375 2.1111 0.94444 "X[12] <= 2.83\nmse = 8108878884.37\nsamples = 5301\nvalue = 209083.38" filled, rounded box black #f5cdb0
node 3 60.896 8.9306 2.1111 0.94444 "X[6] <= 34.03\nmse = 5968730797.36\nsamples = 1832\nvalue = 165751.49" filled, rounded box black #f7d8c1
node 4 28.521 7.4861 2.1111 0.94444 "X[5] <= -118.4\nmse = 3808687041.41\nsamples = 888\nvalue = 147315.53" filled, rounded box black #f8ddc9
node 5 11.132 6.0417 2.1111 0.94444 "X[9] <= 446.0\nmse = 4365098917.96\nsamples = 14\nvalue = 377552.43" filled, rounded box black #eca16b
node 6 7.6875 4.5972 2.1111 0.94444 "X[6] <= 34.0\nmse = 3463646666.67\nsamples = 7\nvalue = 333100.0" filled, rounded box black #eeac7d
node 7 5.2986 3.1528 2.1111 0.94444 "X[7] <= 42.5\nmse = 1792929795.92\nsamples = 6\nvalue = 308785.71" filled, rounded box black #efb387
node 8 2.8403 1.7083 1.9028 0.94444 "X[12] <= 2.37\nmse = 421716875.0\nsamples = 4\nvalue = 274825.0" filled, rounded box black #f1bb95
node 9 0.84028 0.36806 1.6806 0.73611 "mse = 0.0\nsamples = 1\nvalue = 239300.0" filled, rounded box black #f3c5a3
node 10 2.8403 0.36806 1.8056 0.73611 "mse = 1388888.89\nsamples = 3\nvalue = 286666.67" filled, rounded box black #f0b890
node 11 5.2986 1.7083 1.9028 0.94444 "X[9] <= 333.5\nmse = 33075555.56\nsamples = 2\nvalue = 354066.67" filled, rounded box black #eda775
node 12 4.8403 0.36806 1.6806 0.73611 "mse = 0.0\nsamples = 1\nvalue = 350000.0" filled, rounded box black #eda876
node 13 6.7708 0.36806 1.6806 0.73611 "mse = 0.0\nsamples = 1\nvalue = 362200.0" filled, rounded box black #eca571
node 14 7.6875 3.1528 1.6806 0.73611 "mse = 0.0\nsamples = 1\nvalue = 418200.0" filled, rounded box black #e9965a
node 15 11.132 4.5972 2.1111 0.94444 "X[10] <= 1002.5\nmse = 2447663948.69\nsamples = 7\nvalue = 410891.75" filled, rounded box black #ea985d
node 16 9.9097 3.1528 2.0139 0.94444 "X[11] <= 501.0\nmse = 474743744.16\nsamples = 3\nvalue = 456640.2" filled, rounded box black #e78c4b
node 17 8.0625 1.7083 1.6806 0.73611 "mse = 0.0\nsamples = 1\nvalue = 500001.0" filled, rounded box black #e58139
node 18 10.007 1.7083 1.6944 0.94444 "X[10] <= 851.0\nmse = 5880000.0\nsamples = 2\nvalue = 445800.0" filled, rounded box black #e88f4f
node 19 8.7014 0.36806 1.6806 0.73611 "mse = 0.0\nsamples = 1\nvalue = 450000.0" filled, rounded box black #e88e4d
node 20 10.632 0.36806 1.6806 0.73611 "mse = 0.0\nsamples = 1\nvalue = 444400.0" filled, rounded box black #e88f50
node 21 12.229 3.1528 2.1111 0.94444 "X[12] <= 2.45\nmse = 1294132653.06\nsamples = 4\nvalue = 378214.29" filled, rounded box black #eca16b
node 22 12.049 1.7083 1.6806 0.73611 "mse = 0.0\nsamples = 1\nvalue = 297500.0" filled, rounded box black #f0b68c
node 23 14.146 1.7083 2.0139 0.94444 "X[5] <= -118.46\nmse = 243055555.56\nsamples = 3\nvalue = 391666.67" filled, rounded box black #eb9d65
node 24 12.632 0.36806 1.8056 0.73611 "mse = 39062500.0\nsamples = 2\nvalue = 381250.0" filled, rounded box black #eba069
node 25 14.632 0.36806 1.6806 0.73611 "mse = 0.0\nsamples = 1\nvalue = 412500.0" filled, rounded box black #ea985d
node 26 28.521 6.0417 2.1111 0.94444 "X[12] <= 2.25\nmse = 2971434210.85\nsamples = 874\nvalue = 143770.82" filled, rounded box black #f8deca
node 27 24.743 4.5972 2.1111 0.94444 "X[6] <= 32.72\nmse = 2415751063.16\nsamples = 517\nvalue = 131027.57" filled, rounded box black #f9e1d0
node 28 18.882 3.1528 2.1111 0.94444 "X[7] <= 6.0\nmse = 1267154959.55\nsamples = 61\nvalue = 98172.53" filled, rounded box black #fbe9dd
node 29 16.785 1.7083 1.6806 0.73611 "mse = 0.0\nsamples = 1\nvalue = 325000.0" filled, rounded box black #eeae80
node 30 18.882 1.7083 2.0139 0.94444 "X[12] <= 2.09\nmse = 703208050.62\nsamples = 60\nvalue = 95652.22" filled, rounded box black #fbeade
node 31 16.674 0.36806 1.9028 0.73611 "mse = 639210088.3\nsamples = 51\nvalue = 91443.42" filled, rounded box black #fbebe0
node 32 18.882 0.36806 2.0139 0.73611 "mse = 432442857.14\nsamples = 9\nvalue = 118500.0" filled, rounded box black #f9e4d5
node 33 24.743 3.1528 2.1111 0.94444 "X[6] <= 33.86\nmse = 2407423228.52\nsamples = 456\nvalue = 135151.45" filled, rounded box black #f9e0ce
node 34 23.562 1.7083 2.1111 0.94444 "X[5] <= -118.27\nmse = 3494677417.32\nsamples = 156\nvalue = 154512.69" filled, rounded box black #f8dbc6
node 35 21.201 0.36806 2.1111 0.73611 "mse = 5121577343.75\nsamples = 9\nvalue = 261637.5" filled, rounded box black #f2bf9a
node 36 23.562 0.36806 2.1111 0.73611 "mse = 2616503307.41\nsamples = 147\nvalue = 147711.12" filled, rounded box black #f8ddc9
node 37 25.924 1.7083 2.1111 0.94444 "X[11] <= 59.5\nmse = 1421077192.23\nsamples = 300\nvalue = 123797.37" filled, rounded box black #f9e3d3
node 38 25.924 0.36806 2.1111 0.73611 "mse = 5829489876.54\nsamples = 5\nvalue = 260711.11" filled, rounded box black #f2bf9b
node 39 28.243 0.36806 2.0139 0.73611 "mse = 948368963.45\nsamples = 295\nvalue = 121046.88" filled, rounded box black #f9e3d4
node 40 31.424 4.5972 2.0139 0.94444 "X[2] <= 0.5\nmse = 3197003460.7\nsamples = 357\nvalue = 162746.17" filled, rounded box black #f7d9c3
node 41 31.424 3.1528 2.1111 0.94444 "X[5] <= -117.12\nmse = 2905355067.16\nsamples = 356\nvalue = 161693.96" filled, rounded box black #f7d9c3
node 42 31.424 1.7083 2.1111 0.94444 "X[6] <= 33.89\nmse = 3150765330.87\nsamples = 293\nvalue = 168374.78" filled, rounded box black #f7d7c0
node 43 30.562 0.36806 2.1111 0.73611 "mse = 4194995980.89\nsamples = 149\nvalue = 186936.41" filled, rounded box black #f6d2b9
node 44 32.924 0.36806 2.1111 0.73611 "mse = 1112114460.29\nsamples = 144\nvalue = 147148.8" filled, rounded box black #f8ddc9
node 45 34.924 1.7083 2.0139 0.94444 "X[6] <= 32.75\nmse = 646694939.61\nsamples = 63\nvalue = 131153.06" filled, rounded box black #f9e1d0
node 46 35.243 0.36806 2.0139 0.73611 "mse = 515990864.16\nsamples = 38\nvalue = 120205.36" filled, rounded box black #f9e4d4
node 47 37.507 0.36806 2.0139 0.73611 "mse = 448093452.38\nsamples = 25\nvalue = 145750.0" filled, rounded box black #f8ddca
node 48 33.576 3.1528 1.6806 0.73611 "mse = 0.0\nsamples = 1\nvalue = 450000.0" filled, rounded box black #e88e4d
node 49 60.896 7.4861 2.1111 0.94444 "X[6] <= 37.91\nmse = 7397972678.08\nsamples = 944\nvalue = 183373.17" filled, rounded box black #f6d3ba
node 50 52.701 6.0417 2.1111 0.94444 "X[5] <= -122.32\nmse = 7471713514.87\nsamples = 780\nvalue = 197179.45" filled, rounded box black #f5d0b5
node 51 42.146 4.5972 2.2222 0.94444 "X[10] <= 251.0\nmse = 12118031662.81\nsamples = 53\nvalue = 316819.6" filled, rounded box black #efb184
node 52 38.951 3.1528 1.9028 0.94444 "X[11] <= 69.0\nmse = 555577778.0\nsamples = 3\nvalue = 466667.0" filled, rounded box black #e78a47
node 53 37.021 1.7083 1.6806 0.73611 "mse = 0.0\nsamples = 2\nvalue = 450000.0" filled, rounded box black #e88e4d
node 54 38.951 1.7083 1.6806 0.73611 "mse = 0.0\nsamples = 1\nvalue = 500001.0" filled, rounded box black #e58139
node 55 42.146 3.1528 2.2222 0.94444 "X[12] <= 1.01\nmse = 11037243048.81\nsamples = 50\nvalue = 304156.44" filled, rounded box black #efb489
node 56 40.882 1.7083 1.6806 0.73611 "mse = 0.0\nsamples = 2\nvalue = 500001.0" filled, rounded box black #e58139
node 57 43.035 1.7083 2.1111 0.94444 "X[6] <= 37.75\nmse = 9269618794.74\nsamples = 48\nvalue = 292464.22" filled, rounded box black #f0b78e
node 58 40.396 0.36806 2.0139 0.73611 "mse = 928316172.84\nsamples = 13\nvalue = 230477.78" filled, rounded box black #f3c7a7
node 59 42.715 0.36806 2.1111 0.73611 "mse = 10403809379.9\nsamples = 35\nvalue = 315234.76" filled, rounded box black #efb184
node 60 52.701 4.5972 2.1111 0.94444 "X[6] <= 37.51\nmse = 6099267056.07\nsamples = 727\nvalue = 188946.84" filled, rounded box black #f6d2b8
node 61 50.965 3.1528 2.1111 0.94444 "X[12] <= 0.7\nmse = 5877199732.93\nsamples = 568\nvalue = 201337.67" filled, rounded box black #f5cfb3
node 62 46.91 1.7083 2.1111 0.94444 "X[7] <= 32.5\nmse = 4253533333.56\nsamples = 3\nvalue = 454167.33" filled, rounded box black #e78d4c
node 63 44.868 0.36806 1.6806 0.73611 "mse = 0.0\nsamples = 1\nvalue = 500001.0" filled, rounded box black #e58139
node 64 46.91 0.36806 1.9028 0.73611 "mse = 156250000.0\nsamples = 2\nvalue = 362500.0" filled, rounded box black #eca571
node 65 50.965 1.7083 2.1111 0.94444 "X[5] <= -118.24\nmse = 5441991184.93\nsamples = 565\nvalue = 199583.94" filled, rounded box black #f5cfb4
node 66 49.174 0.36806 2.1111 0.73611 "mse = 6142926627.57\nsamples = 427\nvalue = 209793.76" filled, rounded box black #f5ccaf
node 67 51.535 0.36806 2.1111 0.73611 "mse = 1887785938.94\nsamples = 138\nvalue = 167537.81" filled, rounded box black #f7d7c1
node 68 54.451 3.1528 2.1111 0.94444 "X[6] <= 37.86\nmse = 4446167463.58\nsamples = 159\nvalue = 145429.03" filled, rounded box black #f8ddca
node 69 54.451 1.7083 2.1111 0.94444 "X[11] <= 441.5\nmse = 1947066443.61\nsamples = 141\nvalue = 130150.23" filled, rounded box black #f9e1d0
node 70 53.896 0.36806 2.1111 0.73611 "mse = 1036520216.27\nsamples = 95\nvalue = 113459.59" filled, rounded box black #fae5d7
node 71 56.257 0.36806 2.1111 0.73611 "mse = 2001367026.06\nsamples = 46\nvalue = 166520.9" filled, rounded box black #f7d8c1
node 72 58.41 1.7083 2.1111 0.94444 "X[9] <= 79.5\nmse = 9588597012.24\nsamples = 18\nvalue = 238411.43" filled, rounded box black #f3c5a4
node 73 58.41 0.36806 1.6806 0.73611 "mse = 0.0\nsamples = 1\nvalue = 475000.0" filled, rounded box black #e68743
node 74 60.562 0.36806 2.1111 0.73611 "mse = 4747990898.44\nsamples = 17\nvalue = 216231.25" filled, rounded box black #f4cbad
node 75 70.201 6.0417 2.1111 0.94444 "X[6] <= 39.69\nmse = 1888640186.54\nsamples = 164\nvalue = 118107.11" filled, rounded box black #f9e4d5
node 76 70.201 4.5972 2.1111 0.94444 "X[12] <= 2.36\nmse = 1745629553.29\nsamples = 108\nvalue = 134552.35" filled, rounded box black #f9e0ce
node 77 68.604 3.1528 2.0139 0.94444 "X[7] <= 50.0\nmse = 1524171814.4\nsamples = 59\nvalue = 119219.51" filled, rounded box black #f9e4d4
node 78 65.146 1.7083 2.0139 0.94444 "X[5] <= -122.05\nmse = 958528834.69\nsamples = 49\nvalue = 112572.86" filled, rounded box black #fae6d7
node 79 62.882 0.36806 2.0139 0.73611 "mse = 838410146.48\nsamples = 45\nvalue = 108478.12" filled, rounded box black #fae7d9
node 80 65.146 0.36806 2.0139 0.73611 "mse = 153255833.33\nsamples = 4\nvalue = 156250.0" filled, rounded box black #f7dac5
node 81 68.604 1.7083 2.1111 0.94444 "X[9] <= 312.0\nmse = 3062770763.89\nsamples = 10\nvalue = 157991.67" filled, rounded box black #f7dac5
node 82 67.465 0.36806 2.1111 0.73611 "mse = 2677351093.75\nsamples = 7\nvalue = 182812.5" filled, rounded box black #f6d3ba
node 83 69.729 0.36806 1.9028 0.73611 "mse = 137167500.0\nsamples = 3\nvalue = 108350.0" filled, rounded box black #fae7d9
node 84 72.938 3.1528 2.1111 0.94444 "X[11] <= 152.5\nmse = 1528790804.49\nsamples = 49\nvalue = 148839.77" filled, rounded box black #f8dcc8
node 85 72.938 1.7083 2.1111 0.94444 "X[6] <= 37.98\nmse = 3644749843.75\nsamples = 4\nvalue = 109462.5" filled, rounded box black #fae6d8
node 86 71.715 0.36806 1.5694 0.73611 "mse = 0.0\nsamples = 1\nvalue = 22500.0" filled, rounded box black #fffdfc
node 87 73.812 0.36806 2.1111 0.73611 "mse = 1498565833.33\nsamples = 3\nvalue = 138450.0" filled, rounded box black #f8dfcd
node 88 76.132 1.7083 2.1111 0.94444 "X[7] <= 35.5\nmse = 1146632243.75\nsamples = 45\nvalue = 152777.5" filled, rounded box black #f8dbc7
node 89 76.132 0.36806 2.0139 0.73611 "mse = 1297324440.1\nsamples = 26\nvalue = 165818.75" filled, rounded box black #f7d8c1
node 90 78.396 0.36806 2.0139 0.73611 "mse = 282815693.36\nsamples = 19\nvalue = 133215.62" filled, rounded box black #f9e0cf
node 91 83.396 4.5972 2.0139 0.94444 "X[7] <= 18.5\nmse = 493082551.89\nsamples = 56\nvalue = 84424.1" filled, rounded box black #fbede3
node 92 83.396 3.1528 1.9028 0.94444 "X[10] <= 814.0\nmse = 699510000.0\nsamples = 12\nvalue = 101033.33" filled, rounded box black #fae9dc
node 93 82.34 1.7083 1.8056 0.94444 "X[11] <= 332.5\nmse = 46080000.0\nsamples = 2\nvalue = 145200.0" filled, rounded box black #f8ddca
node 94 80.493 0.36806 1.6806 0.73611 "mse = 0.0\nsamples = 1\nvalue = 135600.0" filled, rounded box black #f9e0ce
node 95 82.424 0.36806 1.6806 0.73611 "mse = 0.0\nsamples = 1\nvalue = 150000.0" filled, rounded box black #f8dcc8
node 96 84.507 1.7083 2.0139 0.94444 "X[7] <= 12.5\nmse = 362029333.33\nsamples = 10\nvalue = 92200.0" filled, rounded box black #fbebdf
node 97 84.424 0.36806 1.8056 0.73611 "mse = 39690000.0\nsamples = 2\nvalue = 133200.0" filled, rounded box black #f9e0cf
node 98 86.59 0.36806 2.0139 0.73611 "mse = 113217633.14\nsamples = 8\nvalue = 85892.31" filled, rounded box black #fbede2
node 99 86.66 3.1528 2.0139 0.94444 "X[12] <= 0.91\nmse = 338368932.54\nsamples = 44\nvalue = 79824.62" filled, rounded box black #fceee5
node 100 86.66 1.7083 1.6806 0.73611 "mse = 0.0\nsamples = 1\nvalue = 153100.0" filled, rounded box black #f8dbc7
node 101 88.854 1.7083 2.0139 0.94444 "X[12] <= 1.9\nmse = 258450056.15\nsamples = 43\nvalue = 78679.69" filled, rounded box black #fceee5
node 102 88.854 0.36806 2.0139 0.73611 "mse = 136912925.17\nsamples = 14\nvalue = 65557.14" filled, rounded box black #fcf2ea
node 103 91.062 0.36806 1.9028 0.73611 "mse = 192635911.3\nsamples = 29\nvalue = 85088.37" filled, rounded box black #fbede2
node 104 166.97 8.9306 2.1111 0.94444 "X[5] <= -118.31\nmse = 7746858149.96\nsamples = 3469\nvalue = 231378.69" filled, rounded box black #f3c7a7
node 105 148.23 7.4861 2.1111 0.94444 "X[6] <= 34.16\nmse = 8901259157.33\nsamples = 1908\nvalue = 253948.82" filled, rounded box black #f2c19d
node 106 120.17 6.0417 2.2222 0.94444 "X[6] <= 34.05\nmse = 11536631262.41\nsamples = 301\nvalue = 322680.24" filled, rounded box black #efaf81
node 107 106.24 4.5972 2.1111 0.94444 "X[5] <= -118.38\nmse = 9559376166.59\nsamples = 212\nvalue = 289113.92" filled, rounded box black #f0b88f
node 108 99.229 3.1528 2.1111 0.94444 "X[5] <= -118.42\nmse = 5457570795.37\nsamples = 102\nvalue = 356454.99" filled, rounded box black #eda674
node 109 95.688 1.7083 2.1111 0.94444 "X[9] <= 431.5\nmse = 4046092215.93\nsamples = 63\nvalue = 381761.8" filled, rounded box black #eba069
node 110 93.326 0.36806 2.1111 0.73611 "mse = 1929230391.63\nsamples = 22\nvalue = 341078.16" filled, rounded box black #eeaa7a
node 111 95.688 0.36806 2.1111 0.73611 "mse = 3941772815.07\nsamples = 41\nvalue = 399120.16" filled, rounded box black #ea9b62
node 112 99.229 1.7083 2.1111 0.94444 "X[6] <= 33.9\nmse = 5024323940.24\nsamples = 39\nvalue = 315427.29" filled, rounded box black #efb184
node 113 98.049 0.36806 2.1111 0.73611 "mse = 2397925006.09\nsamples = 6\nvalue = 425470.1" filled, rounded box black #e99457
node 114 100.41 0.36806 2.1111 0.73611 "mse = 2944784996.81\nsamples = 33\nvalue = 295776.79" filled, rounded box black #f0b68c
node 115 106.24 3.1528 2.1111 0.94444 "X[6] <= 33.89\nmse = 4954230652.78\nsamples = 110\nvalue = 224391.67" filled, rounded box black #f4c9aa
node 116 105.06 1.7083 2.1111 0.94444 "X[6] <= 33.85\nmse = 2176062743.75\nsamples = 21\nvalue = 316897.5" filled, rounded box black #efb184
node 117 102.77 0.36806 2.1111 0.73611 "mse = 1532862603.88\nsamples = 10\nvalue = 349605.26" filled, rounded box black #eda876
node 118 105.09 0.36806 2.0139 0.73611 "mse = 914363310.66\nsamples = 11\nvalue = 287304.76" filled, rounded box black #f0b890
node 119 107.42 1.7083 2.1111 0.94444 "X[8] <= 2422.0\nmse = 2604484226.53\nsamples = 89\nvalue = 197961.43" filled, rounded box black #f5cfb4
node 120 107.41 0.36806 2.1111 0.73611 "mse = 1628369577.69\nsamples = 71\nvalue = 186746.36" filled, rounded box black #f6d2b9
node 121 109.77 0.36806 2.1111 0.73611 "mse = 4031375388.89\nsamples = 18\nvalue = 239083.33" filled, rounded box black #f3c5a4
node 122 120.17 4.5972 2.0139 0.94444 "X[12] <= 4.02\nmse = 7298425249.5\nsamples = 89\nvalue = 401672.97" filled, rounded box black #ea9b61
node 123 118.47 3.1528 2.1111 0.94444 "X[10] <= 1037.0\nmse = 7209859381.12\nsamples = 55\nvalue = 382269.0" filled, rounded box black #eba069
node 124 114.49 1.7083 2.1111 0.94444 "X[12] <= 3.71\nmse = 4518415966.14\nsamples = 24\nvalue = 415887.17" filled, rounded box black #ea975b
node 125 112.13 0.36806 2.1111 0.73611 "mse = 3717262581.43\nsamples = 19\nvalue = 435826.0" filled, rounded box black #e89253
node 126 114.49 0.36806 2.1111 0.73611 "mse = 1777735206.61\nsamples = 5\nvalue = 352445.45" filled, rounded box black #eda775
node 127 118.47 1.7083 2.1111 0.94444 "X[11] <= 620.0\nmse = 7655302434.35\nsamples = 31\nvalue = 349366.11" filled, rounded box black #eda876
node 128 116.76 0.36806 1.9028 0.73611 "mse = 865900400.0\nsamples = 6\nvalue = 265960.0" filled, rounded box black #f2be99
node 129 119.02 0.36806 2.1111 0.73611 "mse = 7101969212.43\nsamples = 25\nvalue = 371908.3" filled, rounded box black #eca26d
node 130 121.88 3.1528 2.1111 0.94444 "X[7] <= 21.5\nmse = 5826316431.64\nsamples = 34\nvalue = 433332.07" filled, rounded box black #e99254
node 131 121.88 1.7083 2.1111 0.94444 "X[0] <= 0.5\nmse = 3321799506.17\nsamples = 7\nvalue = 329222.22" filled, rounded box black #eead7f
node 132 121.34 0.36806 2.0139 0.73611 "mse = 885182222.22\nsamples = 3\nvalue = 271333.33" filled, rounded box black #f1bc96
node 133 123.66 0.36806 2.1111 0.73611 "mse = 2026765555.56\nsamples = 4\nvalue = 358166.67" filled, rounded box black #eda673
node 134 126.02 1.7083 2.1111 0.94444 "X[8] <= 1762.0\nmse = 3882573335.14\nsamples = 27\nvalue = 452852.67" filled, rounded box black #e88d4c
node 135 126.02 0.36806 2.1111 0.73611 "mse = 2599445306.12\nsamples = 5\nvalue = 378542.86" filled, rounded box black #eca16b
node 136 128.38 0.36806 2.1111 0.73611 "mse = 2997911399.62\nsamples = 22\nvalue = 465539.71" filled, rounded box black #e78a47
node 137 148.23 6.0417 2.1111 0.94444 "X[7] <= 47.5\nmse = 7257891369.56\nsamples = 1607\nvalue = 240332.48" filled, rounded box black #f3c4a3
node 138 143.63 4.5972 2.1111 0.94444 "X[6] <= 37.93\nmse = 5570670476.15\nsamples = 1359\nvalue = 229417.78" filled, rounded box black #f4c7a7
node 139 136.58 3.1528 2.1111 0.94444 "X[5] <= -122.22\nmse = 5551401740.57\nsamples = 1099\nvalue = 239964.41" filled, rounded box black #f3c5a3
node 140 133.06 1.7083 2.1111 0.94444 "X[6] <= 37.6\nmse = 6111460067.23\nsamples = 203\nvalue = 292373.97" filled, rounded box black #f0b78e
node 141 130.74 0.36806 2.1111 0.73611 "mse = 4841648763.26\nsamples = 51\nvalue = 338684.86" filled, rounded box black #eeab7b
node 142 133.06 0.36806 2.0139 0.73611 "mse = 5612242878.7\nsamples = 152\nvalue = 277561.98" filled, rounded box black #f1bb94
node 143 136.58 1.7083 2.1111 0.94444 "X[12] <= 4.19\nmse = 4640015185.29\nsamples = 896\nvalue = 227847.03" filled, rounded box black #f4c8a8
node 144 135.38 0.36806 2.1111 0.73611 "mse = 3866056569.77\nsamples = 561\nvalue = 213311.62" filled, rounded box black #f4cbae
node 145 137.74 0.36806 2.1111 0.73611 "mse = 4993182854.46\nsamples = 335\nvalue = 251835.92" filled, rounded box black #f2c19e
node 146 143.63 3.1528 2.0139 0.94444 "X[6] <= 38.8\nmse = 3280242184.2\nsamples = 260\nvalue = 185721.0" filled, rounded box black #f6d3b9
node 147 142.47 1.7083 2.1111 0.94444 "X[5] <= -122.37\nmse = 2916336430.54\nsamples = 221\nvalue = 197365.82" filled, rounded box black #f5d0b5
node 148 140.1 0.36806 2.1111 0.73611 "mse = 2732664041.95\nsamples = 129\nvalue = 219230.95" filled, rounded box black #f4caac
node 149 142.47 0.36806 2.1111 0.73611 "mse = 1470227482.64\nsamples = 92\nvalue = 165479.17" filled, rounded box black #f7d8c2
node 150 144.78 1.7083 2.0139 0.94444 "X[6] <= 39.4\nmse = 501592459.17\nsamples = 39\nvalue = 122301.54" filled, rounded box black #f9e3d3
node 151 144.78 0.36806 2.0139 0.73611 "mse = 245755562.13\nsamples = 14\nvalue = 139053.85" filled, rounded box black #f8dfcc
node 152 147.05 0.36806 2.0139 0.73611 "mse = 360328376.07\nsamples = 25\nvalue = 111133.33" filled, rounded box black #fae6d8
node 153 152.81 4.5972 2.2222 0.94444 "X[5] <= -122.4\nmse = 12306047987.98\nsamples = 248\nvalue = 301585.51" filled, rounded box black #f0b58a
node 154 152.81 3.1528 2.1111 0.94444 "X[6] <= 37.77\nmse = 9271369792.62\nsamples = 135\nvalue = 356361.88" filled, rounded box black #eda674
node 155 151.63 1.7083 2.1111 0.94444 "X[6] <= 37.74\nmse = 4210147383.47\nsamples = 86\nvalue = 307804.79" filled, rounded box black #efb387
node 156 149.31 0.36806 2.0139 0.73611 "mse = 197269143.99\nsamples = 26\nvalue = 255254.76" filled, rounded box black #f2c19d
node 157 151.63 0.36806 2.1111 0.73611 "mse = 4145457751.42\nsamples = 60\nvalue = 334079.8" filled, rounded box black #eeac7d
node 158 153.99 1.7083 2.1111 0.94444 "X[3] <= 0.5\nmse = 7941742319.93\nsamples = 49\nvalue = 430075.05" filled, rounded box black #e99356
node 159 153.99 0.36806 2.1111 0.73611 "mse = 3334742222.22\nsamples = 5\nvalue = 186233.33" filled, rounded box black #f6d3b9
node 160 156.35 0.36806 2.1111 0.73611 "mse = 3306552685.27\nsamples = 44\nvalue = 449075.7" filled, rounded box black #e88e4e
node 161 159.9 3.1528 2.1111 0.94444 "X[6] <= 37.66\nmse = 8067328061.56\nsamples = 113\nvalue = 236166.87" filled, rounded box black #f3c6a5
node 162 159.9 1.7083 2.1111 0.94444 "X[12] <= 3.18\nmse = 10719623087.9\nsamples = 35\nvalue = 299068.06" filled, rounded box black #f0b58b
node 163 158.72 0.36806 2.1111 0.73611 "mse = 2129477777.78\nsamples = 7\nvalue = 194533.33" filled, rounded box black #f5d0b6
node 164 161.08 0.36806 2.1111 0.73611 "mse = 9679994613.04\nsamples = 28\nvalue = 322014.71" filled, rounded box black #efaf82
node 165 163.44 1.7083 2.1111 0.94444 "X[5] <= -122.24\nmse = 4790736919.04\nsamples = 78\nvalue = 211006.4" filled, rounded box black #f4ccaf
node 166 163.44 0.36806 2.1111 0.73611 "mse = 5268173569.39\nsamples = 48\nvalue = 238098.57" filled, rounded box black #f3c5a4
node 167 165.8 0.36806 2.1111 0.73611 "mse = 2059990988.43\nsamples = 30\nvalue = 176525.45" filled, rounded box black #f6d5bd
node 168 185.69 7.4861 2.1111 0.94444 "X[5] <= -117.16\nmse = 4919242974.59\nsamples = 1561\nvalue = 203536.71" filled, rounded box black #f5ceb2
node 169 185.69 6.0417 2.1111 0.94444 "X[6] <= 33.78\nmse = 5221640399.11\nsamples = 1314\nvalue = 210411.36" filled, rounded box black #f5ccaf
node 170 180.94 4.5972 2.1111 0.94444 "X[7] <= 35.5\nmse = 9117093406.82\nsamples = 412\nvalue = 235671.61" filled, rounded box black #f3c6a5
node 171 174.15 3.1528 2.1111 0.94444 "X[12] <= 3.23\nmse = 7034953534.63\nsamples = 360\nvalue = 223585.17" filled, rounded box black #f4c9aa
node 172 170.52 1.7083 2.1111 0.94444 "X[4] <= 0.5\nmse = 2722451493.38\nsamples = 73\nvalue = 185326.09" filled, rounded box black #f6d3b9
node 173 168.16 0.36806 2.1111 0.73611 "mse = 2174307265.84\nsamples = 44\nvalue = 165959.09" filled, rounded box black #f7d8c1
node 174 170.52 0.36806 2.1111 0.73611 "mse = 2275070054.14\nsamples = 29\nvalue = 211412.24" filled, rounded box black #f4ccaf
node 175 174.15 1.7083 2.1111 0.94444 "X[5] <= -118.06\nmse = 7659124982.88\nsamples = 287\nvalue = 233212.73" filled, rounded box black #f3c6a6
node 176 172.94 0.36806 2.2222 0.73611 "mse = 13073110118.13\nsamples = 13\nvalue = 320940.15" filled, rounded box black #efb082
node 177 175.35 0.36806 2.1111 0.73611 "mse = 7043000961.53\nsamples = 274\nvalue = 229197.74" filled, rounded box black #f4c7a8
node 178 180.94 3.1528 2.2222 0.94444 "X[8] <= 887.5\nmse = 15514053940.51\nsamples = 52\nvalue = 319981.89" filled, rounded box black #efb082
node 179 179.74 1.7083 2.0139 0.94444 "X[5] <= -117.88\nmse = 645416666.67\nsamples = 4\nvalue = 140500.0" filled, rounded box black #f8decc
node 180 177.62 0.36806 1.9028 0.73611 "mse = 156250000.0\nsamples = 2\nvalue = 125000.0" filled, rounded box black #f9e2d2
node 181 179.77 0.36806 1.9028 0.73611 "mse = 182250000.0\nsamples = 2\nvalue = 171500.0" filled, rounded box black #f7d6bf
node 182 182.12 1.7083 2.2222 0.94444 "X[10] <= 1514.5\nmse = 13943924807.12\nsamples = 48\nvalue = 334151.51" filled, rounded box black #eeac7d
node 183 182.09 0.36806 2.2222 0.73611 "mse = 12381175298.68\nsamples = 40\nvalue = 350500.22" filled, rounded box black #eda876
node 184 184.51 0.36806 2.1111 0.73611 "mse = 8775362469.14\nsamples = 8\nvalue = 212444.44" filled, rounded box black #f4ccae
node 185 190.41 4.5972 2.1111 0.94444 "X[6] <= 34.09\nmse = 3024575920.02\nsamples = 902\nvalue = 198907.03" filled, rounded box black #f5cfb4
node 186 190.41 3.1528 2.1111 0.94444 "X[6] <= 33.86\nmse = 2196310036.49\nsamples = 715\nvalue = 189400.45" filled, rounded box black #f6d2b8
node 187 189.23 1.7083 2.1111 0.94444 "X[8] <= 1409.5\nmse = 2443759234.03\nsamples = 249\nvalue = 208908.44" filled, rounded box black #f5cdb0
node 188 186.87 0.36806 2.1111 0.73611 "mse = 1857995980.08\nsamples = 60\nvalue = 185238.3" filled, rounded box black #f6d3ba
node 189 189.23 0.36806 2.1111 0.73611 "mse = 2399663801.38\nsamples = 189\nvalue = 216109.06" filled, rounded box black #f4cbad
node 190 191.59 1.7083 2.1111 0.94444 "X[5] <= -118.17\nmse = 1725572602.29\nsamples = 466\nvalue = 178481.39" filled, rounded box black #f6d5bc
node 191 191.59 0.36806 2.1111 0.73611 "mse = 2193742619.22\nsamples = 124\nvalue = 154568.95" filled, rounded box black #f8dbc6
node 192 193.95 0.36806 2.1111 0.73611 "mse = 1279265731.04\nsamples = 342\nvalue = 187053.77" filled, rounded box black #f6d2b9
node 193 197.49 3.1528 2.1111 0.94444 "X[5] <= -118.0\nmse = 4508647688.15\nsamples = 187\nvalue = 233015.34" filled, rounded box black #f3c6a6
node 194 197.49 1.7083 2.1111 0.94444 "X[12] <= 3.55\nmse = 4460676053.75\nsamples = 162\nvalue = 240829.39" filled, rounded box black #f3c4a3
node 195 196.31 0.36806 2.1111 0.73611 "mse = 2824510328.51\nsamples = 67\nvalue = 214538.21" filled, rounded box black #f4cbae
node 196 198.67 0.36806 2.1111 0.73611 "mse = 4776008957.92\nsamples = 95\nvalue = 261558.97" filled, rounded box black #f2bf9a
node 197 200.99 1.7083 1.9028 0.94444 "X[5] <= -117.88\nmse = 289719965.4\nsamples = 25\nvalue = 168894.12" filled, rounded box black #f7d7c0
node 198 200.99 0.36806 2.0139 0.73611 "mse = 187046938.78\nsamples = 15\nvalue = 159314.29" filled, rounded box black #f7dac4
node 199 203.2 0.36806 1.9028 0.73611 "mse = 67848284.02\nsamples = 10\nvalue = 184369.23" filled, rounded box black #f6d3ba
node 200 212.72 6.0417 2.1111 0.94444 "X[12] <= 3.89\nmse = 1515448203.66\nsamples = 247\nvalue = 165323.94" filled, rounded box black #f7d8c2
node 201 212.72 4.5972 2.1111 0.94444 "X[6] <= 32.74\nmse = 1093555195.04\nsamples = 127\nvalue = 151046.35" filled, rounded box black #f8dcc7
node 202 210.73 3.1528 2.0139 0.94444 "X[7] <= 48.0\nmse = 516661178.34\nsamples = 47\nvalue = 134528.17" filled, rounded box black #f9e0ce
node 203 207.67 1.7083 2.0139 0.94444 "X[6] <= 32.67\nmse = 316814047.67\nsamples = 45\nvalue = 131159.7" filled, rounded box black #f9e1d0
node 204 205.41 0.36806 2.0139 0.73611 "mse = 306119698.22\nsamples = 17\nvalue = 140674.07" filled, rounded box black #f8decc
node 205 207.67 0.36806 2.0139 0.73611 "mse = 221684843.75\nsamples = 28\nvalue = 124737.5" filled, rounded box black #f9e2d2
node 206 210.73 1.7083 1.9028 0.94444 "X[12] <= 3.56\nmse = 490622500.0\nsamples = 2\nvalue = 190950.0" filled, rounded box black #f6d1b7
node 207 209.77 0.36806 1.6806 0.73611 "mse = 0.0\nsamples = 1\nvalue = 168800.0" filled, rounded box black #f7d7c0
node 208 211.7 0.36806 1.6806 0.73611 "mse = 0.0\nsamples = 1\nvalue = 213100.0" filled, rounded box black #f4ccae
node 209 214.95 3.1528 2.0139 0.94444 "X[6] <= 33.17\nmse = 1178016590.4\nsamples = 80\nvalue = 160738.84" filled, rounded box black #f7d9c4
node 210 214.95 1.7083 2.1111 0.94444 "X[7] <= 19.5\nmse = 1013704178.54\nsamples = 77\nvalue = 158255.56" filled, rounded box black #f7dac5
node 211 213.85 0.36806 2.1111 0.73611 "mse = 1005037155.22\nsamples = 26\nvalue = 145834.88" filled, rounded box black #f8ddca
node 212 216.12 0.36806 1.9028 0.73611 "mse = 877004134.4\nsamples = 51\nvalue = 165472.97" filled, rounded box black #f7d8c2
node 213 218.33 1.7083 1.9028 0.94444 "X[11] <= 836.5\nmse = 527766875.0\nsamples = 3\nvalue = 233375.0" filled, rounded box black #f3c6a6
node 214 218.33 0.36806 2.0139 0.73611 "mse = 202675555.56\nsamples = 2\nvalue = 244566.67" filled, rounded box black #f3c3a1
node 215 220.42 0.36806 1.6806 0.73611 "mse = 0.0\nsamples = 1\nvalue = 199800.0" filled, rounded box black #f5cfb4
node 216 225.28 4.5972 2.1111 0.94444 "X[8] <= 11794.5\nmse = 1521011296.96\nsamples = 120\nvalue = 180222.28" filled, rounded box black #f6d4bc
node 217 225.28 3.1528 2.1111 0.94444 "X[6] <= 33.16\nmse = 1212088529.32\nsamples = 117\nvalue = 178063.89" filled, rounded box black #f6d5bc
node 218 224.19 1.7083 2.1111 0.94444 "X[7] <= 45.0\nmse = 1059355940.02\nsamples = 112\nvalue = 176152.87" filled, rounded box black #f6d5bd
node 219 222.52 0.36806 2.0139 0.73611 "mse = 976307301.95\nsamples = 111\nvalue = 175436.99" filled, rounded box black #f6d5be
node 220 224.62 0.36806 1.6806 0.73611 "mse = 0.0\nsamples = 1\nvalue = 300000.0" filled, rounded box black #f0b58b
node 221 226.55 1.7083 2.1111 0.94444 "X[12] <= 4.37\nmse = 2464111388.89\nsamples = 5\nvalue = 233483.33" filled, rounded box black #f3c6a6
node 222 226.55 0.36806 1.6806 0.73611 "mse = 0.0\nsamples = 1\nvalue = 145600.0" filled, rounded box black #f8ddca
node 223 228.65 0.36806 2.0139 0.73611 "mse = 1103298400.0\nsamples = 4\nvalue = 251060.0" filled, rounded box black #f2c29f
node 224 228.7 3.1528 2.0139 0.94444 "X[11] <= 2624.5\nmse = 5779102500.0\nsamples = 3\nvalue = 277350.0" filled, rounded box black #f1bb94
node 225 228.7 1.7083 1.6806 0.73611 "mse = 0.0\nsamples = 1\nvalue = 353000.0" filled, rounded box black #eda775
node 226 230.74 1.7083 1.9028 0.94444 "X[11] <= 3795.5\nmse = 112360000.0\nsamples = 2\nvalue = 201700.0" filled, rounded box black #f5ceb3
node 227 230.74 0.36806 1.6806 0.73611 "mse = 0.0\nsamples = 1\nvalue = 191100.0" filled, rounded box black #f6d1b7
node 228 232.67 0.36806 1.6806 0.73611 "mse = 0.0\nsamples = 1\nvalue = 212300.0" filled, rounded box black #f4ccae
node 229 301.51 10.375 2.1111 0.94444 "X[12] <= 3.19\nmse = 2898702539.89\nsamples = 2959\nvalue = 111605.51" filled, rounded box black #fae6d8
node 230 278.22 8.9306 2.1111 0.94444 "X[12] <= 2.23\nmse = 1898256767.75\nsamples = 1911\nvalue = 93941.25" filled, rounded box black #fbeadf
node 231 249.23 7.4861 2.1111 0.94444 "X[10] <= 32.0\nmse = 1685874689.06\nsamples = 903\nvalue = 80487.58" filled, rounded box black #fbeee4
node 232 240.06 6.0417 2.2222 0.94444 "X[12] <= 1.7\nmse = 35646993458.41\nsamples = 7\nvalue = 247583.42" filled, rounded box black #f3c3a0
node 233 236.87 4.5972 2.1111 0.94444 "X[11] <= 5.5\nmse = 5573336734.69\nsamples = 5\nvalue = 95857.14" filled, rounded box black #fbeade
node 234 234.6 3.1528 1.9028 0.94444 "X[5] <= -118.9\nmse = 301000000.0\nsamples = 3\nvalue = 64500.0" filled, rounded box black #fcf2eb
node 235 232.73 1.7083 1.5694 0.73611 "mse = 0.0\nsamples = 1\nvalue = 85000.0" filled, rounded box black #fbede2
node 236 234.72 1.7083 1.9028 0.94444 "X[7] <= 2.5\nmse = 34722222.22\nsamples = 2\nvalue = 50833.33" filled, rounded box black #fdf6f0
node 237 234.63 0.36806 1.5694 0.73611 "mse = 0.0\nsamples = 1\nvalue = 55000.0" filled, rounded box black #fdf5ef
node 238 236.45 0.36806 1.5694 0.73611 "mse = 0.0\nsamples = 1\nvalue = 42500.0" filled, rounded box black #fef8f4
node 239 236.87 3.1528 2.1111 0.94444 "X[8] <= 214.5\nmse = 10150562500.0\nsamples = 2\nvalue = 174250.0" filled, rounded box black #f6d6be
node 240 236.76 1.7083 1.6806 0.73611 "mse = 0.0\nsamples = 1\nvalue = 275000.0" filled, rounded box black #f1bb95
node 241 238.63 1.7083 1.5694 0.73611 "mse = 0.0\nsamples = 1\nvalue = 73500.0" filled, rounded box black #fcf0e7
node 242 240.06 4.5972 2.0139 0.94444 "X[11] <= 10.0\nmse = 400016000.16\nsamples = 2\nvalue = 460000.2" filled, rounded box black #e78b49
node 243 239.02 3.1528 1.6806 0.73611 "mse = 0.0\nsamples = 1\nvalue = 450000.0" filled, rounded box black #e88e4d
node 244 240.95 3.1528 1.6806 0.73611 "mse = 0.0\nsamples = 1\nvalue = 500001.0" filled, rounded box black #e58139
node 245 249.23 6.0417 2.1111 0.94444 "X[12] <= 0.69\nmse = 1167166558.47\nsamples = 896\nvalue = 79092.21" filled, rounded box black #fceee5
node 246 246.22 4.5972 2.2222 0.94444 "X[6] <= 34.42\nmse = 17364870934.36\nsamples = 7\nvalue = 166176.59" filled, rounded box black #f7d8c1
node 247 243.16 3.1528 2.2222 0.94444 "X[5] <= -117.92\nmse = 37539256250.25\nsamples = 2\nvalue = 306250.5" filled, rounded box black #efb388
node 248 240.51 1.7083 1.6806 0.73611 "mse = 0.0\nsamples = 1\nvalue = 500001.0" filled, rounded box black #e58139
node 249 242.44 1.7083 1.6806 0.73611 "mse = 0.0\nsamples = 1\nvalue = 112500.0" filled, rounded box black #fae6d7
node 250 246.22 3.1528 2.1111 0.94444 "X[10] <= 159.0\nmse = 3262647928.99\nsamples = 5\nvalue = 123076.92" filled, rounded box black #f9e3d3
node 251 244.53 1.7083 2.0139 0.94444 "X[6] <= 36.17\nmse = 205102040.82\nsamples = 3\nvalue = 71428.57" filled, rounded box black #fcf0e8
node 252 240.98 0.36806 1.5694 0.73611 "mse = 0.0\nsamples = 1\nvalue = 55000.0" filled, rounded box black #fdf5ef
node 253 242.87 0.36806 1.6944 0.73611 "mse = 4687500.0\nsamples = 2\nvalue = 83750.0" filled, rounded box black #fbede3
node 254 246.74 1.7083 1.9028 0.94444 "X[12] <= 0.61\nmse = 86805555.56\nsamples = 2\nvalue = 183333.33" filled, rounded box black #f6d3ba
node 255 244.81 0.36806 1.6806 0.73611 "mse = 0.0\nsamples = 1\nvalue = 162500.0" filled, rounded box black #f7d9c3
node 256 246.74 0.36806 1.6806 0.73611 "mse = 0.0\nsamples = 1\nvalue = 187500.0" filled, rounded box black #f6d2b9
node 257 252.26 4.5972 2.0139 0.94444 "X[6] <= 37.32\nmse = 881372799.95\nsamples = 889\nvalue = 78049.65" filled, rounded box black #fcefe5
node 258 252.26 3.1528 2.0139 0.94444 "X[6] <= 34.8\nmse = 677414910.95\nsamples = 472\nvalue = 70825.23" filled, rounded box black #fcf0e8
node 259 251.1 1.7083 2.0139 0.94444 "X[5] <= -117.42\nmse = 872229611.04\nsamples = 196\nvalue = 83834.81" filled, rounded box black #fbede3
node 260 248.84 0.36806 2.0139 0.73611 "mse = 917594565.97\nsamples = 29\nvalue = 113754.17" filled, rounded box black #fae5d7
node 261 251.1 0.36806 2.0139 0.73611 "mse = 675060399.87\nsamples = 167\nvalue = 78476.12" filled, rounded box black #fcefe5
node 262 253.42 1.7083 2.0139 0.94444 "X[10] <= 117.5\nmse = 333543095.68\nsamples = 276\nvalue = 61586.96" filled, rounded box black #fdf3ec
node 263 253.42 0.36806 2.1111 0.73611 "mse = 1335743801.65\nsamples = 6\nvalue = 105227.27" filled, rounded box black #fae8da
node 264 255.74 0.36806 2.0139 0.73611 "mse = 258648115.74\nsamples = 270\nvalue = 60480.87" filled, rounded box black #fdf3ec
node 265 259.16 3.1528 2.0139 0.94444 "X[7] <= 18.5\nmse = 987029545.57\nsamples = 417\nvalue = 86392.26" filled, rounded box black #fbece2
node 266 259.16 1.7083 2.1111 0.94444 "X[6] <= 38.91\nmse = 1071957076.44\nsamples = 98\nvalue = 101188.08" filled, rounded box black #fae9dc
node 267 258.06 0.36806 2.1111 0.73611 "mse = 1257021643.84\nsamples = 45\nvalue = 115900.0" filled, rounded box black #fae5d6
node 268 260.38 0.36806 2.0139 0.73611 "mse = 506608219.92\nsamples = 53\nvalue = 87419.23" filled, rounded box black #fbece1
node 269 262.59 1.7083 2.0139 0.94444 "X[5] <= -120.07\nmse = 877371640.64\nsamples = 319\nvalue = 81994.29" filled, rounded box black #fbeee4
node 270 262.59 0.36806 1.9028 0.73611 "mse = 754079684.9\nsamples = 307\nvalue = 80212.3" filled, rounded box black #fceee4
node 271 264.8 0.36806 2.0139 0.73611 "mse = 1917640875.0\nsamples = 12\nvalue = 125475.0" filled, rounded box black #f9e2d2
node 272 278.22 7.4861 2.1111 0.94444 "X[8] <= 58.0\nmse = 1779558619.51\nsamples = 1008\nvalue = 106064.62" filled, rounded box black #fae7da
node 273 277.01 6.0417 2.2222 0.94444 "X[5] <= -119.27\nmse = 37129854375.19\nsamples = 3\nvalue = 388750.75" filled, rounded box black #eb9e66
node 274 275.2 4.5972 1.5694 0.73611 "mse = 0.0\nsamples = 1\nvalue = 55000.0" filled, rounded box black #fdf5ef
node 275 277.08 4.5972 1.6806 0.73611 "mse = 0.0\nsamples = 2\nvalue = 500001.0" filled, rounded box black #e58139
node 276 279.42 6.0417 2.1111 0.94444 "X[6] <= 34.73\nmse = 1491625885.42\nsamples = 1005\nvalue = 105359.66" filled, rounded box black #fae8da
node 277 279.3 4.5972 2.1111 0.94444 "X[5] <= -117.67\nmse = 1843683379.26\nsamples = 245\nvalue = 120882.43" filled, rounded box black #f9e3d4
node 278 272.55 3.1528 2.1111 0.94444 "X[7] <= 38.0\nmse = 1627781168.64\nsamples = 63\nvalue = 158430.77" filled, rounded box black #f7dac4
node 279 269.17 1.7083 2.1111 0.94444 "X[5] <= -118.11\nmse = 1208719130.66\nsamples = 52\nvalue = 151508.05" filled, rounded box black #f8dcc7
node 280 266.97 0.36806 1.8056 0.73611 "mse = 13682400.0\nsamples = 4\nvalue = 100260.0" filled, rounded box black #fae9dc
node 281 269.17 0.36806 2.1111 0.73611 "mse = 1111678306.07\nsamples = 48\nvalue = 154632.93" filled, rounded box black #f8dbc6
node 282 272.55 1.7083 2.1111 0.94444 "X[5] <= -117.99\nmse = 2271987128.03\nsamples = 11\nvalue = 193858.82" filled, rounded box black #f5d1b6
node 283 271.38 0.36806 1.8056 0.73611 "mse = 56805432.1\nsamples = 5\nvalue = 236211.11" filled, rounded box black #f3c6a5
node 284 273.55 0.36806 2.0139 0.73611 "mse = 475963593.75\nsamples = 6\nvalue = 146212.5" filled, rounded box black #f8ddc9
node 285 279.3 3.1528 2.1111 0.94444 "X[7] <= 29.5\nmse = 1260335721.22\nsamples = 182\nvalue = 107865.67" filled, rounded box black #fae7d9
node 286 278.16 1.7083 2.0139 0.94444 "X[9] <= 201.0\nmse = 1558315840.3\nsamples = 127\nvalue = 113975.12" filled, rounded box black #fae5d7
node 287 275.87 0.36806 2.1111 0.73611 "mse = 7292243078.51\nsamples = 13\nvalue = 152068.18" filled, rounded box black #f8dbc7
node 288 278.19 0.36806 2.0139 0.73611 "mse = 692936536.36\nsamples = 114\nvalue = 109493.58" filled, rounded box black #fae6d8
node 289 280.42 1.7083 2.0139 0.94444 "X[5] <= -117.39\nmse = 293352575.78\nsamples = 55\nvalue = 93834.07" filled, rounded box black #fbebdf
node 290 280.4 0.36806 1.9028 0.73611 "mse = 144146900.0\nsamples = 25\nvalue = 108510.0" filled, rounded box black #fae7d9
node 291 282.6 0.36806 2.0139 0.73611 "mse = 108956309.11\nsamples = 30\nvalue = 82323.53" filled, rounded box black #fbeee4
node 292 288.17 4.5972 2.1111 0.94444 "X[6] <= 36.84\nmse = 1264666916.56\nsamples = 760\nvalue = 100133.67" filled, rounded box black #fae9dc
node 293 288.17 3.1528 2.0139 0.94444 "X[6] <= 34.86\nmse = 423582705.58\nsamples = 205\nvalue = 77011.92" filled, rounded box black #fcefe6
node 294 287.05 1.7083 2.0139 0.94444 "X[8] <= 2593.5\nmse = 225386666.67\nsamples = 5\nvalue = 106200.0" filled, rounded box black #fae7da
node 295 284.87 0.36806 2.0139 0.73611 "mse = 102722222.22\nsamples = 2\nvalue = 97633.33" filled, rounded box black #fbeadd
node 296 287.08 0.36806 1.9028 0.73611 "mse = 30388888.89\nsamples = 3\nvalue = 123333.33" filled, rounded box black #f9e3d3
node 297 289.31 1.7083 2.0139 0.94444 "X[8] <= 3074.5\nmse = 402697886.99\nsamples = 200\nvalue = 76115.36" filled, rounded box black #fcefe6
node 298 289.28 0.36806 2.0139 0.73611 "mse = 312141081.47\nsamples = 162\nvalue = 73960.08" filled, rounded box black #fcf0e7
node 299 291.49 0.36806 1.9028 0.73611 "mse = 710510100.0\nsamples = 38\nvalue = 86590.0" filled, rounded box black #fbece2
node 300 294.94 3.1528 2.1111 0.94444 "X[6] <= 39.33\nmse = 1307268571.98\nsamples = 555\nvalue = 107909.58" filled, rounded box black #fae7d9
node 301 294.94 1.7083 2.1111 0.94444 "X[10] <= 275.5\nmse = 1357060138.13\nsamples = 451\nvalue = 113044.25" filled, rounded box black #fae6d7
node 302 293.76 0.36806 2.1111 0.73611 "mse = 2790248473.53\nsamples = 27\nvalue = 142302.17" filled, rounded box black #f8decb
node 303 296.12 0.36806 2.1111 0.73611 "mse = 1199235505.45\nsamples = 424\nvalue = 111076.61" filled, rounded box black #fae6d8
node 304 298.44 1.7083 2.0139 0.94444 "X[8] <= 4818.0\nmse = 478553984.91\nsamples = 104\nvalue = 85598.21" filled, rounded box black #fbede2
node 305 298.44 0.36806 2.0139 0.73611 "mse = 392355187.38\nsamples = 98\nvalue = 82761.54" filled, rounded box black #fbede3
node 306 300.7 0.36806 2.0139 0.73611 "mse = 134633541.67\nsamples = 6\nvalue = 122475.0" filled, rounded box black #f9e3d3
node 307 324.76 8.9306 2.0139 0.94444 "X[12] <= 4.07\nmse = 3108277944.1\nsamples = 1048\nvalue = 144135.42" filled, rounded box black #f8ddca
node 308 324.76 7.4861 2.1111 0.94444 "X[6] <= 34.21\nmse = 2211668312.59\nsamples = 625\nvalue = 129431.65" filled, rounded box black #f9e1d0
node 309 317.94 6.0417 2.1111 0.94444 "X[5] <= -118.01\nmse = 3373506509.99\nsamples = 186\nvalue = 145351.84" filled, rounded box black #f8ddca
node 310 307.95 4.5972 2.1111 0.94444 "X[7] <= 21.5\nmse = 3753386159.17\nsamples = 23\nvalue = 250082.35" filled, rounded box black #f2c29f
node 311 305.8 3.1528 1.6806 0.73611 "mse = 0.0\nsamples = 1\nvalue = 476700.0" filled, rounded box black #e68743
node 312 307.95 3.1528 2.1111 0.94444 "X[6] <= 34.1\nmse = 2263737649.22\nsamples = 22\nvalue = 243215.15" filled, rounded box black #f3c4a2
node 313 304.74 1.7083 1.8056 0.94444 "X[7] <= 34.5\nmse = 62173600.0\nsamples = 3\nvalue = 168220.0" filled, rounded box black #f7d7c0
node 314 302.8 0.36806 1.6806 0.73611 "mse = 0.0\nsamples = 1\nvalue = 183000.0" filled, rounded box black #f6d3ba
node 315 304.74 0.36806 1.6944 0.73611 "mse = 9451875.0\nsamples = 2\nvalue = 164525.0" filled, rounded box black #f7d8c2
node 316 307.95 1.7083 2.1111 0.94444 "X[11] <= 667.5\nmse = 1473194234.69\nsamples = 19\nvalue = 256607.14" filled, rounded box black #f2c09c
node 317 306.8 0.36806 1.9028 0.73611 "mse = 862491728.4\nsamples = 12\nvalue = 274877.78" filled, rounded box black #f1bb95
node 318 308.95 0.36806 1.9028 0.73611 "mse = 890025600.0\nsamples = 7\nvalue = 223720.0" filled, rounded box black #f4c9aa
node 319 317.94 4.5972 2.1111 0.94444 "X[5] <= -116.33\nmse = 1736934236.24\nsamples = 163\nvalue = 131914.72" filled, rounded box black #f9e1cf
node 320 316.27 3.1528 2.1111 0.94444 "X[6] <= 33.65\nmse = 1556878666.67\nsamples = 147\nvalue = 137400.0" filled, rounded box black #f8dfcd
node 321 312.92 1.7083 2.0139 0.94444 "X[10] <= 618.0\nmse = 7542922500.0\nsamples = 2\nvalue = 250350.0" filled, rounded box black #f2c29f
node 322 310.99 0.36806 1.6806 0.73611 "mse = 0.0\nsamples = 1\nvalue = 163500.0" filled, rounded box black #f7d8c2
node 323 312.92 0.36806 1.6806 0.73611 "mse = 0.0\nsamples = 1\nvalue = 337200.0" filled, rounded box black #eeab7b
node 324 316.27 1.7083 2.1111 0.94444 "X[5] <= -117.55\nmse = 1235523097.53\nsamples = 145\nvalue = 135485.59" filled, rounded box black #f9e0ce
node 325 315.02 0.36806 2.0139 0.73611 "mse = 435033293.67\nsamples = 55\nvalue = 151586.05" filled, rounded box black #f8dcc7
node 326 317.34 0.36806 2.1111 0.73611 "mse = 1460638478.22\nsamples = 90\nvalue = 126254.67" filled, rounded box black #f9e2d2
node 327 319.6 3.1528 1.9028 0.94444 "X[12] <= 3.95\nmse = 403679264.0\nsamples = 16\nvalue = 79256.0" filled, rounded box black #fceee5
node 328 319.6 1.7083 2.0139 0.94444 "X[7] <= 22.5\nmse = 232153875.24\nsamples = 15\nvalue = 83321.74" filled, rounded box black #fbede3
node 329 319.6 0.36806 1.9028 0.73611 "mse = 110520400.0\nsamples = 8\nvalue = 95460.0" filled, rounded box black #fbeade
node 330 321.81 0.36806 2.0139 0.73611 "mse = 125199763.31\nsamples = 7\nvalue = 73984.62" filled, rounded box black #fcf0e7
node 331 321.65 1.7083 1.5694 0.73611 "mse = 0.0\nsamples = 1\nvalue = 32500.0" filled, rounded box black #fefaf8
node 332 331.56 6.0417 2.1111 0.94444 "X[5] <= -120.66\nmse = 1553849147.88\nsamples = 439\nvalue = 122562.77" filled, rounded box black #f9e3d3
node 333 331.56 4.5972 2.1111 0.94444 "X[6] <= 37.05\nmse = 1619481408.13\nsamples = 274\nvalue = 133728.94" filled, rounded box black #f9e0cf
node 334 328.95 3.1528 2.1111 0.94444 "X[11] <= 432.0\nmse = 2048464081.63\nsamples = 5\nvalue = 234214.29" filled, rounded box black #f3c6a6
node 335 325.84 1.7083 2.1111 0.94444 "X[7] <= 28.5\nmse = 2334722222.22\nsamples = 2\nvalue = 270833.33" filled, rounded box black #f1bd97
node 336 323.91 0.36806 1.6806 0.73611 "mse = 0.0\nsamples = 1\nvalue = 305000.0" filled, rounded box black #efb489
node 337 325.84 0.36806 1.6806 0.73611 "mse = 0.0\nsamples = 1\nvalue = 202500.0" filled, rounded box black #f5ceb2
node 338 328.95 1.7083 1.8056 0.94444 "X[12] <= 3.6\nmse = 73767500.0\nsamples = 3\nvalue = 206750.0" filled, rounded box black #f5cdb1
node 339 327.84 0.36806 1.8056 0.73611 "mse = 5555555.56\nsamples = 2\nvalue = 201933.33" filled, rounded box black #f5ceb3
node 340 329.84 0.36806 1.6806 0.73611 "mse = 0.0\nsamples = 1\nvalue = 221200.0" filled, rounded box black #f4c9ab
node 341 333.28 3.1528 2.1111 0.94444 "X[5] <= -121.24\nmse = 1443368047.28\nsamples = 269\nvalue = 132073.88" filled, rounded box black #f9e1cf
node 342 333.28 1.7083 2.1111 0.94444 "X[7] <= 19.5\nmse = 1374606675.15\nsamples = 183\nvalue = 123948.29" filled, rounded box black #f9e3d3
node 343 331.99 0.36806 2.1111 0.73611 "mse = 1278654851.84\nsamples = 87\nvalue = 136215.86" filled, rounded box black #f9e0ce
node 344 334.35 0.36806 2.1111 0.73611 "mse = 1174380997.73\nsamples = 96\nvalue = 111847.62" filled, rounded box black #fae6d7
node 345 336.67 1.7083 2.0139 0.94444 "X[6] <= 37.69\nmse = 1131121922.1\nsamples = 86\nvalue = 149913.53" filled, rounded box black #f8dcc8
node 346 336.67 0.36806 2.0139 0.73611 "mse = 759773361.68\nsamples = 26\nvalue = 134026.19" filled, rounded box black #f9e0ce
node 347 338.94 0.36806 2.0139 0.73611 "mse = 1132250397.3\nsamples = 60\nvalue = 157246.15" filled, rounded box black #f7dac5
node 348 344.02 4.5972 2.0139 0.94444 "X[6] <= 35.1\nmse = 897262544.88\nsamples = 165\nvalue = 104080.84" filled, rounded box black #fae8db
node 349 344.02 3.1528 2.0139 0.94444 "X[7] <= 4.5\nmse = 713254744.27\nsamples = 39\nvalue = 123122.22" filled, rounded box black #f9e3d3
node 350 342.91 1.7083 1.9028 0.94444 "X[8] <= 6089.0\nmse = 763430400.0\nsamples = 2\nvalue = 163540.0" filled, rounded box black #f7d8c2
node 351 341.03 0.36806 1.6806 0.73611 "mse = 0.0\nsamples = 1\nvalue = 186100.0" filled, rounded box black #f6d3b9
node 352 342.97 0.36806 1.6806 0.73611 "mse = 0.0\nsamples = 1\nvalue = 129700.0" filled, rounded box black #f9e1d0
node 353 345.12 1.7083 2.0139 0.94444 "X[5] <= -117.4\nmse = 555961664.68\nsamples = 37\nvalue = 119637.93" filled, rounded box black #f9e4d4
node 354 345.06 0.36806 2.0139 0.73611 "mse = 338298505.86\nsamples = 19\nvalue = 130834.38" filled, rounded box black #f9e1d0
node 355 347.33 0.36806 2.0139 0.73611 "mse = 479670133.14\nsamples = 18\nvalue = 105857.69" filled, rounded box black #fae7da
node 356 350.69 3.1528 2.0139 0.94444 "X[6] <= 37.47\nmse = 803739102.13\nsamples = 126\nvalue = 98022.22" filled, rounded box black #fbe9dd
node 357 350.69 1.7083 2.0139 0.94444 "X[12] <= 4.02\nmse = 388653557.33\nsamples = 107\nvalue = 92912.79" filled, rounded box black #fbebdf
node 358 349.59 0.36806 2.0139 0.73611 "mse = 339399496.48\nsamples = 102\nvalue = 90808.12" filled, rounded box black #fbebe0
node 359 351.85 0.36806 2.0139 0.73611 "mse = 198825208.33\nsamples = 5\nvalue = 120975.0" filled, rounded box black #f9e3d4
node 360 354.12 1.7083 2.1111 0.94444 "X[9] <= 1094.0\nmse = 2234488698.22\nsamples = 19\nvalue = 131823.08" filled, rounded box black #f9e1cf
node 361 354.12 0.36806 2.0139 0.73611 "mse = 798282570.89\nsamples = 17\nvalue = 117721.74" filled, rounded box black #f9e4d5
node 362 356.33 0.36806 1.9028 0.73611 "mse = 33075555.56\nsamples = 2\nvalue = 239933.33" filled, rounded box black #f3c5a3
node 363 366.34 7.4861 2.1111 0.94444 "X[7] <= 41.5\nmse = 3641914770.34\nsamples = 423\nvalue = 165970.96" filled, rounded box black #f7d8c1
node 364 366.34 6.0417 2.1111 0.94444 "X[12] <= 4.07\nmse = 3108513825.78\nsamples = 396\nvalue = 161455.03" filled, rounded box black #f7d9c3
node 365 365.26 4.5972 1.6806 0.73611 "mse = 0.0\nsamples = 1\nvalue = 437500.0" filled, rounded box black #e89153
node 366 367.41 4.5972 2.1111 0.94444 "X[5] <= -117.51\nmse = 2755347170.76\nsamples = 395\nvalue = 160127.89" filled, rounded box black #f7d9c4
node 367 364.49 3.1528 2.1111 0.94444 "X[6] <= 34.52\nmse = 2977120090.68\nsamples = 330\nvalue = 164357.75" filled, rounded box black #f7d8c2
node 368 360.95 1.7083 2.0139 0.94444 "X[10] <= 1257.5\nmse = 4323916216.9\nsamples = 50\nvalue = 214450.63" filled, rounded box black #f4cbae
node 369 358.59 0.36806 2.1111 0.73611 "mse = 4805851212.14\nsamples = 22\nvalue = 258805.91" filled, rounded box black #f2c09b
node 370 360.95 0.36806 2.1111 0.73611 "mse = 1522500606.61\nsamples = 28\nvalue = 182363.83" filled, rounded box black #f6d4bb
node 371 364.49 1.7083 2.0139 0.94444 "X[5] <= -120.1\nmse = 2186189598.9\nsamples = 280\nvalue = 155177.83" filled, rounded box black #f7dbc6
node 372 363.31 0.36806 2.1111 0.73611 "mse = 2152755851.29\nsamples = 205\nvalue = 165223.71" filled, rounded box black #f7d8c2
node 373 365.67 0.36806 2.1111 0.73611 "mse = 1134221890.52\nsamples = 75\nvalue = 125929.2" filled, rounded box black #f9e2d2
node 374 369.15 3.1528 2.0139 0.94444 "X[8] <= 12332.5\nmse = 1034564238.8\nsamples = 65\nvalue = 138224.75" filled, rounded box black #f8dfcd
node 375 369.15 1.7083 2.0139 0.94444 "X[10] <= 602.0\nmse = 717457665.23\nsamples = 60\nvalue = 134530.85" filled, rounded box black #f9e0ce
node 376 368.03 0.36806 2.1111 0.73611 "mse = 2052889843.75\nsamples = 6\nvalue = 172562.5" filled, rounded box black #f7d6bf
node 377 370.35 0.36806 2.0139 0.73611 "mse = 446165765.28\nsamples = 54\nvalue = 130993.02" filled, rounded box black #f9e1d0
node 378 372.56 1.7083 2.1111 0.94444 "X[6] <= 33.82\nmse = 2649082040.82\nsamples = 5\nvalue = 187828.57" filled, rounded box black #f6d2b8
node 379 372.56 0.36806 1.9028 0.73611 "mse = 939240000.0\nsamples = 3\nvalue = 227500.0" filled, rounded box black #f4c8a8
node 380 374.72 0.36806 1.9028 0.73611 "mse = 32535555.56\nsamples = 2\nvalue = 134933.33" filled, rounded box black #f9e0ce
node 381 378.8 6.0417 2.1111 0.94444 "X[6] <= 34.19\nmse = 6717788996.22\nsamples = 27\nvalue = 235031.68" filled, rounded box black #f3c6a5
node 382 378.8 4.5972 2.0139 0.94444 "X[6] <= 34.01\nmse = 4504234176.0\nsamples = 14\nvalue = 273132.0" filled, rounded box black #f1bc96
node 383 377.72 3.1528 1.6806 0.73611 "mse = 0.0\nsamples = 1\nvalue = 114400.0" filled, rounded box black #fae5d6
node 384 379.87 3.1528 2.1111 0.94444 "X[7] <= 42.5\nmse = 3598340815.97\nsamples = 13\nvalue = 279745.83" filled, rounded box black #f1ba93
node 385 378.76 1.7083 1.9028 0.94444 "X[6] <= 34.14\nmse = 755947500.0\nsamples = 3\nvalue = 221050.0" filled, rounded box black #f4c9ab
node 386 376.76 0.36806 1.6806 0.73611 "mse = 0.0\nsamples = 1\nvalue = 173800.0" filled, rounded box black #f6d6be
node 387 378.76 0.36806 1.8056 0.73611 "mse = 15680000.0\nsamples = 2\nvalue = 236800.0" filled, rounded box black #f3c5a4
node 388 380.97 1.7083 2.0139 0.94444 "X[9] <= 285.0\nmse = 3339971275.0\nsamples = 10\nvalue = 291485.0" filled, rounded box black #f0b78e
node 389 380.97 0.36806 2.1111 0.73611 "mse = 8497082222.22\nsamples = 3\nvalue = 367166.67" filled, rounded box black #eca46f
node 390 383.33 0.36806 2.1111 0.73611 "mse = 1240747958.48\nsamples = 7\nvalue = 278129.41" filled, rounded box black #f1bb94
node 391 386.72 4.5972 2.1111 0.94444 "X[8] <= 1037.0\nmse = 4364261312.56\nsamples = 13\nvalue = 175499.94" filled, rounded box black #f6d5bd
node 392 386.72 3.1528 2.1111 0.94444 "X[12] <= 4.71\nmse = 6747997387.69\nsamples = 4\nvalue = 96024.75" filled, rounded box black #fbeade
node 393 385.81 1.7083 2.0139 0.94444 "X[10] <= 385.0\nmse = 621999066.89\nsamples = 3\nvalue = 50266.33" filled, rounded box black #fdf6f1
node 394 385.44 0.36806 1.5972 0.73611 "mse = 160000.0\nsamples = 2\nvalue = 67900.0" filled, rounded box black #fcf1e9
node 395 387.27 0.36806 1.5694 0.73611 "mse = 0.0\nsamples = 1\nvalue = 14999.0" filled, rounded box black #ffffff
node 396 387.91 1.7083 1.6806 0.73611 "mse = 0.0\nsamples = 1\nvalue = 233300.0" filled, rounded box black #f3c6a6
node 397 390.7 3.1528 2.0139 0.94444 "X[10] <= 1022.5\nmse = 762435763.89\nsamples = 9\nvalue = 201991.67" filled, rounded box black #f5ceb3
node 398 390.7 1.7083 1.9028 0.94444 "X[12] <= 4.9\nmse = 482635000.0\nsamples = 6\nvalue = 187250.0" filled, rounded box black #f6d2b9
node 399 389.22 0.36806 1.8056 0.73611 "mse = 93835510.2\nsamples = 5\nvalue = 179685.71" filled, rounded box black #f6d4bc
node 400 391.22 0.36806 1.6806 0.73611 "mse = 0.0\nsamples = 1\nvalue = 240200.0" filled, rounded box black #f3c4a3
node 401 393.2 1.7083 1.8056 0.94444 "X[10] <= 1462.5\nmse = 18136875.0\nsamples = 3\nvalue = 231475.0" filled, rounded box black #f3c7a7
node 402 393.2 0.36806 1.7778 0.73611 "mse = 8888.89\nsamples = 2\nvalue = 233933.33" filled, rounded box black #f3c6a6
node 403 395.19 0.36806 1.6806 0.73611 "mse = 0.0\nsamples = 1\nvalue = 224100.0" filled, rounded box black #f4c9aa
node 404 510.74 11.819 2.2222 0.94444 "X[12] <= 6.87\nmse = 11974123933.37\nsamples = 2187\nvalue = 331179.32" filled, rounded box black #eead7e
node 405 510.74 10.375 2.1111 0.94444 "X[1] <= 0.5\nmse = 8353428882.24\nsamples = 1525\nvalue = 290253.66" filled, rounded box black #f0b78f
node 406 490.02 8.9306 2.1111 0.94444 "X[7] <= 36.5\nmse = 7478501882.33\nsamples = 1274\nvalue = 305037.72" filled, rounded box black #efb489
node 407 450.3 7.4861 2.1111 0.94444 "X[12] <= 5.71\nmse = 6131009989.25\nsamples = 1060\nvalue = 292928.91" filled, rounded box black #f0b78e
node 408 424.87 6.0417 2.1111 0.94444 "X[5] <= -118.12\nmse = 5613167423.04\nsamples = 515\nvalue = 271970.16" filled, rounded box black #f1bc96
node 409 410.31 4.5972 2.1111 0.94444 "X[6] <= 34.17\nmse = 5402489724.53\nsamples = 307\nvalue = 288650.03" filled, rounded box black #f0b88f
node 410 403.24 3.1528 2.1111 0.94444 "X[5] <= -118.38\nmse = 8567313619.36\nsamples = 57\nvalue = 343024.56" filled, rounded box black #edaa79
node 411 399.7 1.7083 2.1111 0.94444 "X[12] <= 5.21\nmse = 4557239020.87\nsamples = 21\nvalue = 419565.76" filled, rounded box black #e9965a
node 412 397.34 0.36806 2.1111 0.73611 "mse = 2194899069.69\nsamples = 8\nvalue = 454783.75" filled, rounded box black #e78d4b
node 413 399.7 0.36806 2.1111 0.73611 "mse = 4731254740.59\nsamples = 13\nvalue = 394706.0" filled, rounded box black #eb9c64
node 414 403.24 1.7083 2.1111 0.94444 "X[4] <= 0.5\nmse = 6364408866.27\nsamples = 36\nvalue = 306636.11" filled, rounded box black #efb388
node 415 402.06 0.36806 2.1111 0.73611 "mse = 3556561146.32\nsamples = 32\nvalue = 285686.79" filled, rounded box black #f0b990
node 416 404.42 0.36806 2.1111 0.73611 "mse = 2796400306.48\nsamples = 4\nvalue = 445425.38" filled, rounded box black #e88f4f
node 417 410.31 3.1528 2.1111 0.94444 "X[5] <= -118.91\nmse = 3908312827.92\nsamples = 250\nvalue = 276655.65" filled, rounded box black #f1bb94
node 418 409.13 1.7083 2.1111 0.94444 "X[6] <= 37.51\nmse = 3977959542.64\nsamples = 203\nvalue = 286704.57" filled, rounded box black #f0b890
node 419 406.78 0.36806 2.1111 0.73611 "mse = 4141373162.17\nsamples = 128\nvalue = 300062.22" filled, rounded box black #f0b58b
node 420 409.15 0.36806 2.1111 0.73611 "mse = 2841347233.33\nsamples = 75\nvalue = 263440.0" filled, rounded box black #f2be9a
node 421 411.49 1.7083 2.1111 0.94444 "X[12] <= 5.5\nmse = 1446359073.87\nsamples = 47\nvalue = 234806.33" filled, rounded box black #f3c6a5
node 422 411.47 0.36806 2.0139 0.73611 "mse = 748462137.19\nsamples = 25\nvalue = 213702.38" filled, rounded box black #f4cbae
node 423 413.78 0.36806 2.1111 0.73611 "mse = 1159121811.54\nsamples = 22\nvalue = 258762.16" filled, rounded box black #f2c09b
node 424 424.87 4.5972 2.1111 0.94444 "X[5] <= -117.15\nmse = 4829677254.08\nsamples = 208\nvalue = 245930.75" filled, rounded box black #f3c3a1
node 425 422.05 3.1528 2.1111 0.94444 "X[6] <= 33.62\nmse = 4936823915.75\nsamples = 169\nvalue = 256185.53" filled, rounded box black #f2c09d
node 426 418.51 1.7083 2.1111 0.94444 "X[7] <= 32.0\nmse = 8935912277.62\nsamples = 41\nvalue = 310788.03" filled, rounded box black #efb286
node 427 416.15 0.36806 2.1111 0.73611 "mse = 6355897490.75\nsamples = 35\nvalue = 291959.69" filled, rounded box black #f0b78e
node 428 418.51 0.36806 2.1111 0.73611 "mse = 1596276244.67\nsamples = 6\nvalue = 473967.0" filled, rounded box black #e68844
node 429 422.05 1.7083 2.0139 0.94444 "X[8] <= 2147.0\nmse = 2711163536.4\nsamples = 128\nvalue = 240661.28" filled, rounded box black #f3c4a3
node 430 420.87 0.36806 2.1111 0.73611 "mse = 1894516688.12\nsamples = 51\nvalue = 217202.42" filled, rounded box black #f4caac
node 431 423.23 0.36806 2.1111 0.73611 "mse = 2634911636.22\nsamples = 77\nvalue = 256752.9" filled, rounded box black #f2c09c
node 432 426.51 3.1528 2.1111 0.94444 "X[12] <= 5.35\nmse = 1632005761.77\nsamples = 39\nvalue = 198794.74" filled, rounded box black #f5cfb4
node 433 426.51 1.7083 2.0139 0.94444 "X[5] <= -116.96\nmse = 1046800896.0\nsamples = 18\nvalue = 174348.0" filled, rounded box black #f6d6be
node 434 425.55 0.36806 2.0139 0.73611 "mse = 594534462.81\nsamples = 15\nvalue = 165990.91" filled, rounded box black #f7d8c1
node 435 427.76 0.36806 1.9028 0.73611 "mse = 95362222.22\nsamples = 3\nvalue = 235633.33" filled, rounded box black #f3c6a5
node 436 429.8 1.7083 2.1111 0.94444 "X[6] <= 32.67\nmse = 1257516210.94\nsamples = 21\nvalue = 217893.75" filled, rounded box black #f4caac
node 437 429.8 0.36806 1.6806 0.73611 "mse = 22500.0\nsamples = 2\nvalue = 266750.0" filled, rounded box black #f2be98
node 438 431.95 0.36806 2.1111 0.73611 "mse = 1047454795.92\nsamples = 19\nvalue = 210914.29" filled, rounded box black #f4ccaf
node 439 450.3 6.0417 2.1111 0.94444 "X[4] <= 0.5\nmse = 5793678851.68\nsamples = 545\nvalue = 313265.37" filled, rounded box black #efb285
node 440 447.12 4.5972 2.1111 0.94444 "X[7] <= 26.5\nmse = 4918629279.02\nsamples = 473\nvalue = 304134.97" filled, rounded box black #efb489
node 441 440.22 3.1528 2.1111 0.94444 "X[12] <= 6.55\nmse = 3735852045.57\nsamples = 340\nvalue = 291741.1" filled, rounded box black #f0b78e
node 442 436.67 1.7083 2.0139 0.94444 "X[5] <= -117.69\nmse = 3431210539.3\nsamples = 259\nvalue = 283157.41" filled, rounded box black #f1b992
node 443 434.31 0.36806 2.1111 0.73611 "mse = 3818575070.07\nsamples = 212\nvalue = 289393.64" filled, rounded box black #f0b88f
node 444 436.67 0.36806 2.1111 0.73611 "mse = 1364689134.67\nsamples = 47\nvalue = 260460.47" filled, rounded box black #f2bf9b
node 445 440.22 1.7083 2.1111 0.94444 "X[5] <= -117.92\nmse = 3703124493.25\nsamples = 81\nvalue = 319813.98" filled, rounded box black #efb083
node 446 439.03 0.36806 2.1111 0.73611 "mse = 3852052505.41\nsamples = 53\nvalue = 337358.6" filled, rounded box black #eeab7b
node 447 441.4 0.36806 2.1111 0.73611 "mse = 1473216493.75\nsamples = 28\nvalue = 283847.5" filled, rounded box black #f1b991
node 448 447.12 3.1528 2.1111 0.94444 "X[12] <= 6.32\nmse = 6538977042.75\nsamples = 133\nvalue = 335480.64" filled, rounded box black #eeac7c
node 449 445.97 1.7083 2.0139 0.94444 "X[5] <= -118.34\nmse = 5259570790.3\nsamples = 83\nvalue = 313933.12" filled, rounded box black #efb185
node 450 443.76 0.36806 2.1111 0.73611 "mse = 5205341180.24\nsamples = 55\nvalue = 333125.6" filled, rounded box black #eeac7d
node 451 446.08 0.36806 2.0139 0.73611 "mse = 2988453324.2\nsamples = 28\nvalue = 273762.81" filled, rounded box black #f1bc95
node 452 448.28 1.7083 2.1111 0.94444 "X[6] <= 33.15\nmse = 6482865839.34\nsamples = 50\nvalue = 374738.45" filled, rounded box black #eca26c
node 453 448.17 0.36806 1.6806 0.73611 "mse = 0.0\nsamples = 1\nvalue = 189100.0" filled, rounded box black #f6d2b8
node 454 450.33 0.36806 2.1111 0.73611 "mse = 5667386421.87\nsamples = 49\nvalue = 379967.7" filled, rounded box black #eba06a
node 455 453.31 4.5972 2.1111 0.94444 "X[6] <= 32.69\nmse = 7466909664.23\nsamples = 72\nvalue = 370985.37" filled, rounded box black #eca36e
node 456 453.31 3.1528 2.1111 0.94444 "X[5] <= -117.02\nmse = 1997653593.75\nsamples = 3\nvalue = 239312.5" filled, rounded box black #f3c5a3
node 457 452.31 1.7083 1.6806 0.73611 "mse = 0.0\nsamples = 1\nvalue = 166900.0" filled, rounded box black #f7d8c1
node 458 454.35 1.7083 1.9028 0.94444 "X[11] <= 112.0\nmse = 333062500.0\nsamples = 2\nvalue = 263450.0" filled, rounded box black #f2be9a
node 459 452.48 0.36806 1.6806 0.73611 "mse = 0.0\nsamples = 1\nvalue = 281700.0" filled, rounded box black #f1ba92
node 460 454.41 0.36806 1.6806 0.73611 "mse = 0.0\nsamples = 1\nvalue = 245200.0" filled, rounded box black #f3c3a1
node 461 456.62 3.1528 2.0139 0.94444 "X[10] <= 2005.0\nmse = 6482628000.9\nsamples = 69\nvalue = 380830.07" filled, rounded box black #eba06a
node 462 456.62 1.7083 2.0139 0.94444 "X[8] <= 2330.5\nmse = 6320495303.1\nsamples = 51\nvalue = 397988.95" filled, rounded box black #ea9c63
node 463 456.56 0.36806 2.1111 0.73611 "mse = 7362321601.13\nsamples = 21\nvalue = 355383.97" filled, rounded box black #eda774
node 464 458.92 0.36806 2.1111 0.73611 "mse = 3786471255.01\nsamples = 30\nvalue = 424943.12" filled, rounded box black #e99458
node 465 461.19 1.7083 2.1111 0.94444 "X[8] <= 4293.0\nmse = 3505822469.99\nsamples = 18\nvalue = 329988.93" filled, rounded box black #eead7e
node 466 461.19 0.36806 1.9028 0.73611 "mse = 339302400.0\nsamples = 2\nvalue = 249840.0" filled, rounded box black #f2c29f
node 467 463.45 0.36806 2.1111 0.73611 "mse = 2433709688.06\nsamples = 16\nvalue = 348204.59" filled, rounded box black #eda877
node 468 490.02 7.4861 2.1111 0.94444 "X[5] <= -118.37\nmse = 9840369702.33\nsamples = 214\nvalue = 364471.18" filled, rounded box black #eca470
node 469 481.94 6.0417 2.1111 0.94444 "X[6] <= 34.1\nmse = 7905384964.26\nsamples = 152\nvalue = 387969.97" filled, rounded box black #eb9e67
node 470 469.33 4.5972 2.1111 0.94444 "X[10] <= 284.0\nmse = 4247609817.71\nsamples = 43\nvalue = 444433.19" filled, rounded box black #e88f50
node 471 465.94 3.1528 2.0139 0.94444 "X[9] <= 75.0\nmse = 1628670000.0\nsamples = 2\nvalue = 317100.0" filled, rounded box black #efb184
node 472 464.01 1.7083 1.6806 0.73611 "mse = 0.0\nsamples = 1\nvalue = 247200.0" filled, rounded box black #f3c3a0
node 473 465.94 1.7083 1.6806 0.73611 "mse = 0.0\nsamples = 1\nvalue = 340400.0" filled, rounded box black #eeaa7a
node 474 469.33 3.1528 2.1111 0.94444 "X[6] <= 34.02\nmse = 3269228693.46\nsamples = 41\nvalue = 452922.07" filled, rounded box black #e88d4c
node 475 468.09 1.7083 2.1111 0.94444 "X[6] <= 33.91\nmse = 3905614176.18\nsamples = 26\nvalue = 429240.23" filled, rounded box black #e99356
node 476 465.77 0.36806 2.0139 0.73611 "mse = 1484450967.6\nsamples = 9\nvalue = 471686.21" filled, rounded box black #e78845
node 477 468.09 0.36806 2.1111 0.73611 "mse = 3517876644.94\nsamples = 17\nvalue = 400942.9" filled, rounded box black #ea9b61
node 478 470.41 1.7083 2.0139 0.94444 "X[9] <= 245.0\nmse = 493902046.95\nsamples = 15\nvalue = 486076.64" filled, rounded box black #e6853f
node 479 470.24 0.36806 1.6806 0.73611 "mse = 0.0\nsamples = 1\nvalue = 427300.0" filled, rounded box black #e99457
node 480 472.34 0.36806 2.0139 0.73611 "mse = 210319483.01\nsamples = 14\nvalue = 491187.65" filled, rounded box black #e5833d
node 481 481.94 4.5972 2.1111 0.94444 "X[5] <= -122.33\nmse = 7646828031.06\nsamples = 109\nvalue = 367201.9" filled, rounded box black #eca46f
node 482 480.28 3.1528 2.1111 0.94444 "X[6] <= 37.75\nmse = 5695286045.09\nsamples = 35\nvalue = 421519.25" filled, rounded box black #e99559
node 483 476.98 1.7083 2.1111 0.94444 "X[4] <= 0.5\nmse = 5396821611.65\nsamples = 17\nvalue = 377164.16" filled, rounded box black #eca16b
node 484 474.66 0.36806 2.1111 0.73611 "mse = 1597898163.27\nsamples = 9\nvalue = 331642.86" filled, rounded box black #eead7e
node 485 476.98 0.36806 2.0139 0.73611 "mse = 4237879927.5\nsamples = 8\nvalue = 435100.36" filled, rounded box black #e89253
node 486 480.28 1.7083 2.1111 0.94444 "X[5] <= -122.52\nmse = 2636810402.29\nsamples = 18\nvalue = 461122.0" filled, rounded box black #e78b49
node 487 479.19 0.36806 1.9028 0.73611 "mse = 452612100.0\nsamples = 5\nvalue = 394670.0" filled, rounded box black #eb9c64
node 488 481.34 0.36806 1.9028 0.73611 "mse = 34071418.62\nsamples = 13\nvalue = 498039.78" filled, rounded box black #e5823a
node 489 484.6 3.1528 2.0139 0.94444 "X[6] <= 37.62\nmse = 6643268594.3\nsamples = 74\nvalue = 343410.0" filled, rounded box black #edaa79
node 490 484.6 1.7083 2.1111 0.94444 "X[12] <= 5.42\nmse = 6479274031.06\nsamples = 39\nvalue = 383388.1" filled, rounded box black #eb9f69
node 491 483.6 0.36806 2.1111 0.73611 "mse = 7318311227.04\nsamples = 12\nvalue = 315747.12" filled, rounded box black #efb184
node 492 485.92 0.36806 2.0139 0.73611 "mse = 3447710887.5\nsamples = 27\nvalue = 411434.37" filled, rounded box black #ea985d
node 493 487.97 1.7083 2.1111 0.94444 "X[10] <= 161.0\nmse = 3968218548.75\nsamples = 35\nvalue = 306604.76" filled, rounded box black #efb388
node 494 487.97 0.36806 1.5694 0.73611 "mse = 0.0\nsamples = 1\nvalue = 75000.0" filled, rounded box black #fcefe7
node 495 490.06 0.36806 2.1111 0.73611 "mse = 2281947702.23\nsamples = 34\nvalue = 314198.36" filled, rounded box black #efb185
node 496 498.13 6.0417 2.2222 0.94444 "X[6] <= 33.78\nmse = 10003570438.78\nsamples = 62\nvalue = 308544.06" filled, rounded box black #efb387
node 497 498.13 4.5972 2.1111 0.94444 "X[5] <= -117.15\nmse = 4992778648.08\nsamples = 13\nvalue = 395991.09" filled, rounded box black #eb9c63
node 498 497.01 3.1528 2.1111 0.94444 "X[5] <= -117.22\nmse = 3453576489.16\nsamples = 11\nvalue = 409465.2" filled, rounded box black #ea995e
node 499 494.67 1.7083 2.1111 0.94444 "X[0] <= 0.5\nmse = 2538863864.06\nsamples = 7\nvalue = 389686.73" filled, rounded box black #eb9e66
node 500 492.42 0.36806 2.1111 0.73611 "mse = 1263034082.84\nsamples = 5\nvalue = 374923.08" filled, rounded box black #eca16c
node 501 494.74 0.36806 2.0139 0.73611 "mse = 205936850.25\nsamples = 2\nvalue = 485650.5" filled, rounded box black #e6853f
node 502 497.03 1.7083 2.1111 0.94444 "X[12] <= 5.96\nmse = 1503461440.24\nsamples = 4\nvalue = 468800.6" filled, rounded box black #e78946
node 503 497.01 0.36806 2.0139 0.73611 "mse = 856855350.19\nsamples = 3\nvalue = 483100.75" filled, rounded box black #e68540
node 504 499.1 0.36806 1.6806 0.73611 "mse = 0.0\nsamples = 1\nvalue = 411600.0" filled, rounded box black #ea985d
node 505 499.27 3.1528 1.9028 0.94444 "X[5] <= -117.11\nmse = 414122500.0\nsamples = 2\nvalue = 261250.0" filled, rounded box black #f2bf9a
node 506 499.24 1.7083 1.6806 0.73611 "mse = 0.0\nsamples = 1\nvalue = 240900.0" filled, rounded box black #f3c4a3
node 507 501.17 1.7083 1.6806 0.73611 "mse = 0.0\nsamples = 1\nvalue = 281600.0" filled, rounded box black #f1ba92
node 508 504.53 4.5972 2.0139 0.94444 "X[6] <= 34.0\nmse = 8651689380.3\nsamples = 49\nvalue = 283879.51" filled, rounded box black #f1b991
node 509 504.53 3.1528 2.1111 0.94444 "X[9] <= 250.5\nmse = 1754211477.55\nsamples = 20\nvalue = 217062.86" filled, rounded box black #f4cbad
node 510 503.41 1.7083 2.0139 0.94444 "X[5] <= -118.18\nmse = 531569097.22\nsamples = 7\nvalue = 174508.33" filled, rounded box black #f6d6be
node 511 501.26 0.36806 2.1111 0.73611 "mse = 1067508888.89\nsamples = 3\nvalue = 148233.33" filled, rounded box black #f8dcc9
node 512 503.52 0.36806 1.9028 0.73611 "mse = 46088888.89\nsamples = 4\nvalue = 183266.67" filled, rounded box black #f6d3ba
node 513 505.67 1.7083 2.0139 0.94444 "X[5] <= -118.35\nmse = 954356181.47\nsamples = 13\nvalue = 239265.22" filled, rounded box black #f3c5a3
node 514 505.56 0.36806 1.6806 0.73611 "mse = 0.0\nsamples = 1\nvalue = 295900.0" filled, rounded box black #f0b68c
node 515 507.66 0.36806 2.0139 0.73611 "mse = 710678231.29\nsamples = 12\nvalue = 233871.43" filled, rounded box black #f3c6a6
node 516 511.09 3.1528 2.1111 0.94444 "X[12] <= 5.94\nmse = 7674249409.67\nsamples = 29\nvalue = 338265.16" filled, rounded box black #eeab7b
node 517 511.09 1.7083 2.1111 0.94444 "X[7] <= 51.5\nmse = 4543208690.68\nsamples = 23\nvalue = 302896.94" filled, rounded box black #f0b489
node 518 509.98 0.36806 2.1111 0.73611 "mse = 1718909245.56\nsamples = 18\nvalue = 284119.23" filled, rounded box black #f1b991
node 519 512.3 0.36806 2.0139 0.73611 "mse = 8632809378.0\nsamples = 5\nvalue = 384267.0" filled, rounded box black #eb9f68
node 520 513.9 1.7083 2.1111 0.94444 "X[12] <= 6.33\nmse = 2557491570.25\nsamples = 6\nvalue = 441154.55" filled, rounded box black #e89051
node 521 514.56 0.36806 2.0139 0.73611 "mse = 736648888.89\nsamples = 3\nvalue = 481533.33" filled, rounded box black #e68641
node 522 516.77 0.36806 1.9028 0.73611 "mse = 438124000.0\nsamples = 3\nvalue = 392700.0" filled, rounded box black #eb9d65
node 523 531.52 8.9306 2.1111 0.94444 "X[7] <= 32.5\nmse = 6144050415.94\nsamples = 251\nvalue = 216073.37" filled, rounded box black #f4cbad
node 524 531.52 7.4861 2.1111 0.94444 "X[12] <= 5.72\nmse = 4236183143.16\nsamples = 208\nvalue = 203554.85" filled, rounded box black #f5ceb2
node 525 528.6 6.0417 2.1111 0.94444 "X[11] <= 596.5\nmse = 3388500376.84\nsamples = 114\nvalue = 180943.17" filled, rounded box black #f6d4bb
node 526 520.95 4.5972 2.1111 0.94444 "X[6] <= 33.49\nmse = 2921221782.01\nsamples = 73\nvalue = 167586.99" filled, rounded box black #f7d7c1
node 527 517.81 3.1528 1.9028 0.94444 "X[5] <= -115.69\nmse = 651458400.0\nsamples = 2\nvalue = 78760.0" filled, rounded box black #fceee5
node 528 515.99 1.7083 1.5694 0.73611 "mse = 0.0\nsamples = 1\nvalue = 47500.0" filled, rounded box black #fdf7f2
node 529 517.81 1.7083 1.5694 0.73611 "mse = 0.0\nsamples = 1\nvalue = 99600.0" filled, rounded box black #fae9dc
node 530 520.95 3.1528 2.1111 0.94444 "X[9] <= 47.0\nmse = 2668899617.93\nsamples = 71\nvalue = 171350.85" filled, rounded box black #f7d6bf
node 531 519.69 1.7083 1.6806 0.73611 "mse = 0.0\nsamples = 1\nvalue = 375000.0" filled, rounded box black #eca16c
node 532 521.84 1.7083 2.1111 0.94444 "X[11] <= 116.0\nmse = 1987535324.02\nsamples = 70\nvalue = 167839.66" filled, rounded box black #f7d7c1
node 533 518.92 0.36806 1.9028 0.73611 "mse = 312120000.0\nsamples = 2\nvalue = 87100.0" filled, rounded box black #fbece2
node 534 521.19 0.36806 2.1111 0.73611 "mse = 1649600946.05\nsamples = 68\nvalue = 173024.77" filled, rounded box black #f7d6be
node 535 528.6 4.5972 2.1111 0.94444 "X[10] <= 1847.0\nmse = 3231053788.89\nsamples = 41\nvalue = 208323.33" filled, rounded box black #f5cdb0
node 536 527.45 3.1528 2.1111 0.94444 "X[8] <= 4754.0\nmse = 1942333333.33\nsamples = 7\nvalue = 283733.33" filled, rounded box black #f1b991
node 537 525.42 1.7083 1.9028 0.94444 "X[11] <= 614.5\nmse = 685499375.0\nsamples = 6\nvalue = 270825.0" filled, rounded box black #f1bd97
node 538 523.34 0.36806 1.6806 0.73611 "mse = 0.0\nsamples = 1\nvalue = 331300.0" filled, rounded box black #eead7e
node 539 525.44 0.36806 2.0139 0.73611 "mse = 186329795.92\nsamples = 5\nvalue = 262185.71" filled, rounded box black #f2bf9a
node 540 527.47 1.7083 1.6806 0.73611 "mse = 0.0\nsamples = 1\nvalue = 387000.0" filled, rounded box black #eb9e67
node 541 529.77 3.1528 2.0139 0.94444 "X[9] <= 1958.0\nmse = 2277851910.8\nsamples = 34\nvalue = 195015.69" filled, rounded box black #f5d0b6
node 542 529.74 1.7083 2.0139 0.94444 "X[5] <= -121.43\nmse = 898631547.62\nsamples = 28\nvalue = 183750.0" filled, rounded box black #f6d3ba
node 543 527.65 0.36806 1.9028 0.73611 "mse = 421860000.0\nsamples = 6\nvalue = 207100.0" filled, rounded box black #f5cdb1
node 544 529.85 0.36806 2.0139 0.73611 "mse = 805693257.02\nsamples = 22\nvalue = 175464.52" filled, rounded box black #f6d5bd
node 545 532.06 1.7083 2.1111 0.94444 "X[10] <= 5036.5\nmse = 5357998765.43\nsamples = 6\nvalue = 247588.89" filled, rounded box black #f3c3a0
node 546 532.06 0.36806 1.9028 0.73611 "mse = 21342222.22\nsamples = 2\nvalue = 346366.67" filled, rounded box black #eda978
node 547 534.22 0.36806 1.9028 0.73611 "mse = 708540000.0\nsamples = 4\nvalue = 198200.0" filled, rounded box black #f5cfb4
node 548 534.37 6.0417 2.1111 0.94444 "X[12] <= 5.73\nmse = 3862580935.72\nsamples = 94\nvalue = 231704.08" filled, rounded box black #f3c7a7
node 549 534.37 4.5972 1.6806 0.73611 "mse = 0.0\nsamples = 1\nvalue = 430600.0" filled, rounded box black #e99355
node 550 539.8 4.5972 2.0139 0.94444 "X[5] <= -121.23\nmse = 3362682247.8\nsamples = 93\nvalue = 228960.69" filled, rounded box black #f4c7a8
node 551 539.8 3.1528 2.0139 0.94444 "X[6] <= 37.95\nmse = 2770921575.3\nsamples = 43\nvalue = 248604.35" filled, rounded box black #f2c2a0
node 552 538.63 1.7083 2.1111 0.94444 "X[7] <= 5.5\nmse = 1678616408.32\nsamples = 14\nvalue = 287547.83" filled, rounded box black #f0b890
node 553 536.42 0.36806 2.0139 0.73611 "mse = 1342857600.0\nsamples = 3\nvalue = 238380.0" filled, rounded box black #f3c5a4
node 554 538.69 0.36806 2.0139 0.73611 "mse = 913828302.47\nsamples = 11\nvalue = 301205.56" filled, rounded box black #f0b58a
node 555 540.95 1.7083 2.0139 0.94444 "X[6] <= 38.54\nmse = 2179628284.5\nsamples = 29\nvalue = 229132.61" filled, rounded box black #f4c7a8
node 556 540.9 0.36806 1.9028 0.73611 "mse = 977547200.0\nsamples = 19\nvalue = 202020.0" filled, rounded box black #f5ceb3
node 557 543.16 0.36806 2.1111 0.73611 "mse = 1693766575.96\nsamples = 10\nvalue = 261409.52" filled, rounded box black #f2bf9a
node 558 546.65 3.1528 2.1111 0.94444 "X[8] <= 3001.0\nmse = 3231541412.74\nsamples = 50\nvalue = 211126.32" filled, rounded box black #f4ccaf
node 559 546.65 1.7083 2.1111 0.94444 "X[12] <= 6.04\nmse = 1715426888.89\nsamples = 22\nvalue = 177733.33" filled, rounded box black #f6d5bd
node 560 545.48 0.36806 2.0139 0.73611 "mse = 888912892.56\nsamples = 7\nvalue = 204027.27" filled, rounded box black #f5ceb2
node 561 547.8 0.36806 2.1111 0.73611 "mse = 1561933573.41\nsamples = 15\nvalue = 162510.53" filled, rounded box black #f7d9c3
node 562 550.16 1.7083 2.1111 0.94444 "X[12] <= 6.07\nmse = 3018795633.27\nsamples = 28\nvalue = 232904.35" filled, rounded box black #f3c6a6
node 563 550.16 0.36806 2.1111 0.73611 "mse = 1431047222.22\nsamples = 7\nvalue = 192333.33" filled, rounded box black #f5d1b7
node 564 552.52 0.36806 2.1111 0.73611 "mse = 2793194740.48\nsamples = 21\nvalue = 247223.53" filled, rounded box black #f3c3a0
node 565 563.51 7.4861 2.2222 0.94444 "X[6] <= 34.19\nmse = 10951534909.57\nsamples = 43\nvalue = 276825.01" filled, rounded box black #f1bb94
node 566 563.51 6.0417 2.1111 0.94444 "X[5] <= -117.97\nmse = 6675280507.22\nsamples = 25\nvalue = 337163.44" filled, rounded box black #eeab7b
node 567 561.6 4.5972 2.0139 0.94444 "X[6] <= 34.15\nmse = 2516601904.7\nsamples = 19\nvalue = 376263.37" filled, rounded box black #eca16c
node 568 559.02 3.1528 2.0139 0.94444 "X[12] <= 6.38\nmse = 971868817.82\nsamples = 8\nvalue = 424223.15" filled, rounded box black #e99558
node 569 556.9 1.7083 2.0139 0.94444 "X[9] <= 360.5\nmse = 534457430.56\nsamples = 7\nvalue = 417908.33" filled, rounded box black #e9965b
node 570 554.78 0.36806 1.9028 0.73611 "mse = 171056875.0\nsamples = 3\nvalue = 388625.0" filled, rounded box black #eb9e66
node 571 556.9 0.36806 1.8056 0.73611 "mse = 73022500.0\nsamples = 4\nvalue = 432550.0" filled, rounded box black #e99355
node 572 559.02 1.7083 1.6806 0.73611 "mse = 0.0\nsamples = 1\nvalue = 500001.0" filled, rounded box black #e58139
node 573 561.6 3.1528 1.9028 0.94444 "X[12] <= 6.45\nmse = 593871626.3\nsamples = 11\nvalue = 339588.24" filled, rounded box black #eeab7a
node 574 561.13 1.7083 2.0139 0.94444 "X[12] <= 5.87\nmse = 375562222.22\nsamples = 9\nvalue = 334033.33" filled, rounded box black #eeac7d
node 575 559.01 0.36806 1.9028 0.73611 "mse = 43733877.55\nsamples = 4\nvalue = 322042.86" filled, rounded box black #efaf82
node 576 561.16 0.36806 1.9028 0.73611 "mse = 430036875.0\nsamples = 5\nvalue = 344525.0" filled, rounded box black #eda978
node 577 563.34 1.7083 1.9028 0.94444 "X[11] <= 356.5\nmse = 264062500.0\nsamples = 2\nvalue = 381250.0" filled, rounded box black #eba069
node 578 563.2 0.36806 1.6806 0.73611 "mse = 0.0\nsamples = 1\nvalue = 397500.0" filled, rounded box black #ea9c63
node 579 565.13 0.36806 1.6806 0.73611 "mse = 0.0\nsamples = 1\nvalue = 365000.0" filled, rounded box black #eca470
node 580 564.66 4.5972 2.1111 0.94444 "X[12] <= 5.32\nmse = 2476392892.56\nsamples = 6\nvalue = 230527.27" filled, rounded box black #f3c7a7
node 581 564.66 3.1528 1.6806 0.73611 "mse = 0.0\nsamples = 1\nvalue = 161000.0" filled, rounded box black #f7d9c3
node 582 567.06 3.1528 1.9028 0.94444 "X[8] <= 2967.0\nmse = 912487500.0\nsamples = 5\nvalue = 256600.0" filled, rounded box black #f2c09c
node 583 567.06 1.7083 1.9028 0.94444 "X[12] <= 5.46\nmse = 729397600.0\nsamples = 3\nvalue = 273120.0" filled, rounded box black #f1bc96
node 584 567.06 0.36806 1.6806 0.73611 "mse = 0.0\nsamples = 1\nvalue = 219400.0" filled, rounded box black #f4caac
node 585 569.01 0.36806 1.6944 0.73611 "mse = 9922500.0\nsamples = 2\nvalue = 286550.0" filled, rounded box black #f0b890
node 586 569.17 1.7083 1.8056 0.94444 "X[11] <= 584.0\nmse = 4702222.22\nsamples = 2\nvalue = 229066.67" filled, rounded box black #f4c7a8
node 587 570.95 0.36806 1.6806 0.73611 "mse = 0.0\nsamples = 1\nvalue = 226000.0" filled, rounded box black #f4c8a9
node 588 572.88 0.36806 1.6806 0.73611 "mse = 0.0\nsamples = 1\nvalue = 230600.0" filled, rounded box black #f3c7a7
node 589 573.85 6.0417 2.1111 0.94444 "X[7] <= 44.0\nmse = 3521454074.07\nsamples = 18\nvalue = 185200.0" filled, rounded box black #f6d3ba
node 590 573.85 4.5972 2.1111 0.94444 "X[11] <= 42.5\nmse = 2415555069.25\nsamples = 11\nvalue = 162942.11" filled, rounded box black #f7d9c3
node 591 572.83 3.1528 1.9028 0.94444 "X[11] <= 22.5\nmse = 359102500.0\nsamples = 2\nvalue = 86450.0" filled, rounded box black #fbece2
node 592 571.12 1.7083 1.5694 0.73611 "mse = 0.0\nsamples = 1\nvalue = 67500.0" filled, rounded box black #fcf1ea
node 593 572.99 1.7083 1.6806 0.73611 "mse = 0.0\nsamples = 1\nvalue = 105400.0" filled, rounded box black #fae8da
node 594 575.09 3.1528 2.1111 0.94444 "X[6] <= 38.47\nmse = 1888149480.97\nsamples = 9\nvalue = 171941.18" filled, rounded box black #f7d6bf
node 595 575.09 1.7083 2.0139 0.94444 "X[10] <= 120.0\nmse = 266005955.56\nsamples = 8\nvalue = 157093.33" filled, rounded box black #f7dac5
node 596 574.94 0.36806 1.6806 0.73611 "mse = 0.0\nsamples = 1\nvalue = 212500.0" filled, rounded box black #f4ccae
node 597 576.98 0.36806 1.9028 0.73611 "mse = 50065153.06\nsamples = 7\nvalue = 153135.71" filled, rounded box black #f8dbc7
node 598 577.19 1.7083 1.6806 0.73611 "mse = 0.0\nsamples = 1\nvalue = 283300.0" filled, rounded box black #f1b991
node 599 577.24 4.5972 2.1111 0.94444 "X[10] <= 491.5\nmse = 2176912343.75\nsamples = 7\nvalue = 238062.5" filled, rounded box black #f3c5a4
node 600 577.24 3.1528 1.6806 0.73611 "mse = 0.0\nsamples = 1\nvalue = 153800.0" filled, rounded box black #f8dbc6
node 601 579.4 3.1528 2.1111 0.94444 "X[12] <= 5.19\nmse = 1328688571.43\nsamples = 6\nvalue = 250100.0" filled, rounded box black #f2c29f
node 602 579.12 1.7083 1.6806 0.73611 "mse = 0.0\nsamples = 1\nvalue = 315600.0" filled, rounded box black #efb184
node 603 581.22 1.7083 2.0139 0.94444 "X[12] <= 6.28\nmse = 715921388.89\nsamples = 5\nvalue = 239183.33" filled, rounded box black #f3c5a3
node 604 579.22 0.36806 1.8056 0.73611 "mse = 97929600.0\nsamples = 4\nvalue = 227920.0" filled, rounded box black #f4c8a8
node 605 581.22 0.36806 1.6806 0.73611 "mse = 0.0\nsamples = 1\nvalue = 295500.0" filled, rounded box black #f0b68c
node 606 615.88 10.375 2.1111 0.94444 "X[12] <= 7.83\nmse = 7795970695.48\nsamples = 662\nvalue = 423822.93" filled, rounded box black #e99558
node 607 615.88 8.9306 2.1111 0.94444 "X[7] <= 25.5\nmse = 7110725730.02\nsamples = 273\nvalue = 373734.09" filled, rounded box black #eca26d
node 608 611.48 7.4861 2.0139 0.94444 "X[1] <= 0.5\nmse = 5452387362.2\nsamples = 159\nvalue = 347086.31" filled, rounded box black #eda977
node 609 590.87 6.0417 2.1111 0.94444 "X[10] <= 353.0\nmse = 4537316682.49\nsamples = 134\nvalue = 361115.52" filled, rounded box black #eca572
node 610 587.44 4.5972 2.1111 0.94444 "X[5] <= -118.78\nmse = 3188826530.82\nsamples = 5\nvalue = 464286.43" filled, rounded box black #e78a48
node 611 585.51 3.1528 1.6806 0.73611 "mse = 0.0\nsamples = 1\nvalue = 375000.0" filled, rounded box black #eca16c
node 612 587.44 3.1528 1.6806 0.73611 "mse = 0.0\nsamples = 4\nvalue = 500001.0" filled, rounded box black #e58139
node 613 590.87 4.5972 2.1111 0.94444 "X[5] <= -117.83\nmse = 4210795577.67\nsamples = 129\nvalue = 357626.65" filled, rounded box black #eda673
node 614 589.59 3.1528 2.1111 0.94444 "X[12] <= 6.89\nmse = 4058773215.35\nsamples = 89\nvalue = 370523.35" filled, rounded box black #eca36e
node 615 585.08 1.7083 1.9028 0.94444 "X[7] <= 21.5\nmse = 414050000.0\nsamples = 2\nvalue = 458600.0" filled, rounded box black #e78c4a
node 616 583.15 0.36806 1.6806 0.73611 "mse = 0.0\nsamples = 1\nvalue = 467700.0" filled, rounded box black #e78946
node 617 585.08 0.36806 1.6806 0.73611 "mse = 0.0\nsamples = 1\nvalue = 413100.0" filled, rounded box black #ea985c
node 618 589.59 1.7083 2.1111 0.94444 "X[12] <= 7.43\nmse = 3862228429.15\nsamples = 87\nvalue = 366637.62" filled, rounded box black #eca46f
node 619 587.23 0.36806 2.1111 0.73611 "mse = 2868990937.47\nsamples = 55\nvalue = 351585.13" filled, rounded box black #eda876
node 620 589.59 0.36806 2.1111 0.73611 "mse = 4509169931.02\nsamples = 32\nvalue = 393363.47" filled, rounded box black #eb9d65
node 621 593.09 3.1528 2.1111 0.94444 "X[9] <= 533.0\nmse = 3385757280.77\nsamples = 40\nvalue = 329452.32" filled, rounded box black #eead7f
node 622 593.09 1.7083 2.1111 0.94444 "X[11] <= 223.5\nmse = 2462731985.44\nsamples = 28\nvalue = 315540.84" filled, rounded box black #efb184
node 623 591.95 0.36806 2.1111 0.73611 "mse = 7908906765.73\nsamples = 7\nvalue = 367312.62" filled, rounded box black #eca36f
node 624 594.27 0.36806 2.0139 0.73611 "mse = 775028233.19\nsamples = 21\nvalue = 305439.02" filled, rounded box black #efb488
node 625 596.59 1.7083 2.1111 0.94444 "X[10] <= 1917.0\nmse = 3804743710.94\nsamples = 12\nvalue = 372056.25" filled, rounded box black #eca26d
node 626 596.59 0.36806 2.1111 0.73611 "mse = 2233971020.41\nsamples = 4\nvalue = 424857.14" filled, rounded box black #e99558
node 627 598.95 0.36806 2.1111 0.73611 "mse = 1171534320.99\nsamples = 8\nvalue = 330988.89" filled, rounded box black #eead7e
node 628 611.48 6.0417 2.0139 0.94444 "X[9] <= 776.5\nmse = 3661585100.0\nsamples = 25\nvalue = 272030.0" filled, rounded box black #f1bc96
node 629 608.97 4.5972 2.1111 0.94444 "X[5] <= -121.62\nmse = 3507078609.69\nsamples = 17\nvalue = 252417.86" filled, rounded box black #f2c19e
node 630 605.98 3.1528 2.0139 0.94444 "X[6] <= 37.94\nmse = 1962016875.0\nsamples = 4\nvalue = 297925.0" filled, rounded box black #f0b58b
node 631 603.03 1.7083 2.0139 0.94444 "X[10] <= 1096.5\nmse = 476375555.56\nsamples = 2\nvalue = 351266.67" filled, rounded box black #eda876
node 632 601.1 0.36806 1.6806 0.73611 "mse = 0.0\nsamples = 1\nvalue = 366700.0" filled, rounded box black #eca46f
node 633 603.03 0.36806 1.6806 0.73611 "mse = 0.0\nsamples = 1\nvalue = 320400.0" filled, rounded box black #efb082
node 634 605.98 1.7083 1.9028 0.94444 "X[5] <= -121.97\nmse = 121881600.0\nsamples = 2\nvalue = 265920.0" filled, rounded box black #f2be99
node 635 604.97 0.36806 1.6806 0.73611 "mse = 0.0\nsamples = 1\nvalue = 260400.0" filled, rounded box black #f2bf9b
node 636 606.9 0.36806 1.6806 0.73611 "mse = 0.0\nsamples = 1\nvalue = 288000.0" filled, rounded box black #f0b890
node 637 608.97 3.1528 2.0139 0.94444 "X[7] <= 21.5\nmse = 2965399275.0\nsamples = 13\nvalue = 234215.0" filled, rounded box black #f3c6a6
node 638 608.97 1.7083 2.1111 0.94444 "X[5] <= -118.31\nmse = 1478832376.54\nsamples = 12\nvalue = 220738.89" filled, rounded box black #f4caab
node 639 609.05 0.36806 2.1111 0.73611 "mse = 1148681093.75\nsamples = 6\nvalue = 194212.5" filled, rounded box black #f5d0b6
node 640 611.31 0.36806 1.9028 0.73611 "mse = 729698400.0\nsamples = 6\nvalue = 241960.0" filled, rounded box black #f3c4a2
node 641 611.12 1.7083 1.6806 0.73611 "mse = 0.0\nsamples = 1\nvalue = 355500.0" filled, rounded box black #eda774
node 642 613.99 4.5972 2.1111 0.94444 "X[6] <= 38.1\nmse = 1030485763.89\nsamples = 8\nvalue = 317791.67" filled, rounded box black #efb083
node 643 613.99 3.1528 2.0139 0.94444 "X[11] <= 785.0\nmse = 142536734.69\nsamples = 5\nvalue = 341942.86" filled, rounded box black #edaa7a
node 644 613.05 1.7083 1.6806 0.73611 "mse = 0.0\nsamples = 1\nvalue = 318100.0" filled, rounded box black #efb083
node 645 615.09 1.7083 1.9028 0.94444 "X[8] <= 12075.5\nmse = 55754722.22\nsamples = 4\nvalue = 345916.67" filled, rounded box black #eda978
node 646 613.35 0.36806 1.6806 0.73611 "mse = 0.0\nsamples = 1\nvalue = 361400.0" filled, rounded box black #eca572
node 647 615.3 0.36806 1.6944 0.73611 "mse = 9369600.0\nsamples = 3\nvalue = 342820.0" filled, rounded box black #edaa79
node 648 617.13 3.1528 1.9028 0.94444 "X[6] <= 38.4\nmse = 313793600.0\nsamples = 3\nvalue = 283980.0" filled, rounded box black #f1b991
node 649 617.13 1.7083 1.6806 0.73611 "mse = 0.0\nsamples = 1\nvalue = 305200.0" filled, rounded box black #efb489
node 650 619.17 1.7083 1.9028 0.94444 "X[5] <= -121.15\nmse = 22668888.89\nsamples = 2\nvalue = 269833.33" filled, rounded box black #f1bd97
node 651 617.24 0.36806 1.6806 0.73611 "mse = 0.0\nsamples = 1\nvalue = 273200.0" filled, rounded box black #f1bc96
node 652 619.17 0.36806 1.6806 0.73611 "mse = 0.0\nsamples = 1\nvalue = 263100.0" filled, rounded box black #f2bf9a
node 653 620.28 7.4861 2.1111 0.94444 "X[9] <= 7.5\nmse = 7115921926.22\nsamples = 114\nvalue = 409171.45" filled, rounded box black #ea995e
node 654 620.28 6.0417 1.5694 0.73611 "mse = 0.0\nsamples = 1\nvalue = 67500.0" filled, rounded box black #fcf1ea
node 655 627.8 6.0417 2.1111 0.94444 "X[6] <= 37.62\nmse = 5336884955.87\nsamples = 113\nvalue = 414623.65" filled, rounded box black #ea975c
node 656 627.8 4.5972 2.1111 0.94444 "X[0] <= 0.5\nmse = 4419144693.13\nsamples = 84\nvalue = 435073.85" filled, rounded box black #e89254
node 657 626.72 3.1528 2.1111 0.94444 "X[5] <= -117.23\nmse = 1591690150.25\nsamples = 30\nvalue = 471374.5" filled, rounded box black #e78845
node 658 623.59 1.7083 2.0139 0.94444 "X[5] <= -118.07\nmse = 908744082.28\nsamples = 28\nvalue = 476844.27" filled, rounded box black #e68742
node 659 621.27 0.36806 2.0139 0.73611 "mse = 487894394.68\nsamples = 21\nvalue = 486228.39" filled, rounded box black #e6853f
node 660 623.59 0.36806 2.1111 0.73611 "mse = 1114553084.91\nsamples = 7\nvalue = 448691.92" filled, rounded box black #e88e4e
node 661 626.72 1.7083 1.8056 0.94444 "X[11] <= 191.5\nmse = 31360000.0\nsamples = 2\nvalue = 340100.0" filled, rounded box black #eeab7a
node 662 625.74 0.36806 1.6806 0.73611 "mse = 0.0\nsamples = 1\nvalue = 345700.0" filled, rounded box black #eda978
node 663 627.67 0.36806 1.6806 0.73611 "mse = 0.0\nsamples = 1\nvalue = 334500.0" filled, rounded box black #eeac7d
node 664 630.91 3.1528 2.1111 0.94444 "X[8] <= 1313.5\nmse = 4851465284.19\nsamples = 54\nvalue = 413968.83" filled, rounded box black #ea975c
node 665 630.91 1.7083 2.1111 0.94444 "X[5] <= -118.32\nmse = 3058883667.82\nsamples = 9\nvalue = 345152.94" filled, rounded box black #eda978
node 666 629.77 0.36806 2.0139 0.73611 "mse = 634506938.78\nsamples = 3\nvalue = 398514.29" filled, rounded box black #ea9b62
node 667 632.03 0.36806 2.0139 0.73611 "mse = 1367502000.0\nsamples = 6\nvalue = 307800.0" filled, rounded box black #efb387
node 668 634.35 1.7083 2.1111 0.94444 "X[12] <= 7.01\nmse = 3838907649.73\nsamples = 45\nvalue = 430923.46" filled, rounded box black #e99355
node 669 634.35 0.36806 2.1111 0.73611 "mse = 1378426913.58\nsamples = 6\nvalue = 379544.44" filled, rounded box black #eba06a
node 670 636.72 0.36806 2.1111 0.73611 "mse = 3752613634.55\nsamples = 39\nvalue = 438630.32" filled, rounded box black #e89152
node 671 641.8 4.5972 2.1111 0.94444 "X[1] <= 0.5\nmse = 3782685356.25\nsamples = 29\nvalue = 361138.5" filled, rounded box black #eca572
node 672 641.8 3.1528 2.1111 0.94444 "X[10] <= 707.0\nmse = 3109723859.24\nsamples = 27\nvalue = 366760.04" filled, rounded box black #eca46f
node 673 640.87 1.7083 2.1111 0.94444 "X[7] <= 27.0\nmse = 2968396093.75\nsamples = 9\nvalue = 330187.5" filled, rounded box black #eead7e
node 674 638.87 0.36806 1.6806 0.73611 "mse = 0.0\nsamples = 1\nvalue = 400000.0" filled, rounded box black #ea9b62
node 675 641.02 0.36806 2.1111 0.73611 "mse = 2596732653.06\nsamples = 8\nvalue = 320214.29" filled, rounded box black #efb082
node 676 643.23 1.7083 2.1111 0.94444 "X[11] <= 345.5\nmse = 2250590432.58\nsamples = 18\nvalue = 383970.65" filled, rounded box black #eb9f68
node 677 643.34 0.36806 2.0139 0.73611 "mse = 701900533.56\nsamples = 3\nvalue = 462533.67" filled, rounded box black #e78b48
node 678 645.6 0.36806 2.0139 0.73611 "mse = 976434438.78\nsamples = 15\nvalue = 367135.71" filled, rounded box black #eca46f
node 679 644.94 3.1528 1.8056 0.94444 "X[8] <= 1451.5\nmse = 65610000.0\nsamples = 2\nvalue = 220600.0" filled, rounded box black #f4caab
node 680 645.38 1.7083 1.6806 0.73611 "mse = 0.0\nsamples = 1\nvalue = 212500.0" filled, rounded box black #f4ccae
node 681 647.31 1.7083 1.6806 0.73611 "mse = 0.0\nsamples = 1\nvalue = 228700.0" filled, rounded box black #f4c7a8
node 682 652.08 8.9306 2.1111 0.94444 "X[8] <= 187.0\nmse = 5149964720.01\nsamples = 389\nvalue = 460184.32" filled, rounded box black #e78b49
node 683 652.08 7.4861 2.2222 0.94444 "X[12] <= 13.77\nmse = 16286208471.16\nsamples = 7\nvalue = 217045.55" filled, rounded box black #f4cbad
node 684 650.9 6.0417 2.1111 0.94444 "X[9] <= 22.5\nmse = 4610339506.17\nsamples = 5\nvalue = 165277.78" filled, rounded box black #f7d8c2
node 685 648.67 4.5972 2.0139 0.94444 "X[8] <= 33.5\nmse = 138888888.89\nsamples = 3\nvalue = 120833.33" filled, rounded box black #f9e4d4
node 686 646.94 3.1528 1.6806 0.73611 "mse = 0.0\nsamples = 1\nvalue = 137500.0" filled, rounded box black #f8dfcd
node 687 648.87 3.1528 1.6806 0.73611 "mse = 0.0\nsamples = 2\nvalue = 112500.0" filled, rounded box black #fae6d7
node 688 650.99 4.5972 2.1111 0.94444 "X[9] <= 23.5\nmse = 1701388888.89\nsamples = 2\nvalue = 254166.67" filled, rounded box black #f2c19d
node 689 650.8 3.1528 1.6806 0.73611 "mse = 0.0\nsamples = 1\nvalue = 312500.0" filled, rounded box black #efb286
node 690 652.73 3.1528 1.6806 0.73611 "mse = 0.0\nsamples = 1\nvalue = 225000.0" filled, rounded box black #f4c8a9
node 691 653.26 6.0417 2.1111 0.94444 "X[11] <= 10.0\nmse = 2500050000.25\nsamples = 2\nvalue = 450000.5" filled, rounded box black #e88e4d
node 692 653.2 4.5972 1.6806 0.73611 "mse = 0.0\nsamples = 1\nvalue = 400000.0" filled, rounded box black #ea9b62
node 693 655.13 4.5972 1.6806 0.73611 "mse = 0.0\nsamples = 1\nvalue = 500001.0" filled, rounded box black #e58139
node 694 664.35 7.4861 2.1111 0.94444 "X[12] <= 8.79\nmse = 3846539437.85\nsamples = 382\nvalue = 464627.06" filled, rounded box black #e78a47
node 695 664.35 6.0417 2.1111 0.94444 "X[7] <= 27.5\nmse = 5077205334.89\nsamples = 163\nvalue = 432693.56" filled, rounded box black #e99254
node 696 659.83 4.5972 2.1111 0.94444 "X[5] <= -117.76\nmse = 4587432257.24\nsamples = 93\nvalue = 392514.39" filled, rounded box black #eb9d65
node 697 654.88 3.1528 2.1111 0.94444 "X[6] <= 37.9\nmse = 4353721889.13\nsamples = 75\nvalue = 405464.68" filled, rounded box black #ea9a60
node 698 650.51 1.7083 2.1111 0.94444 "X[11] <= 628.0\nmse = 4037731443.59\nsamples = 69\nvalue = 414009.34" filled, rounded box black #ea975c
node 699 648.15 0.36806 2.1111 0.73611 "mse = 4133841416.27\nsamples = 52\nvalue = 401761.96" filled, rounded box black #ea9b61
node 700 650.51 0.36806 2.1111 0.73611 "mse = 1397478041.52\nsamples = 17\nvalue = 456318.45" filled, rounded box black #e78c4b
node 701 654.76 1.7083 2.1111 0.94444 "X[8] <= 1190.5\nmse = 1468616388.89\nsamples = 6\nvalue = 335683.33" filled, rounded box black #eeac7c
node 702 652.66 0.36806 1.6806 0.73611 "mse = 0.0\nsamples = 1\nvalue = 276600.0" filled, rounded box black #f1bb94
node 703 654.76 0.36806 2.0139 0.73611 "mse = 406670617.28\nsamples = 5\nvalue = 355377.78" filled, rounded box black #eda774
node 704 659.83 3.1528 2.0139 0.94444 "X[9] <= 241.5\nmse = 2574666100.0\nsamples = 18\nvalue = 345030.0" filled, rounded box black #eda978
node 705 658.7 1.7083 1.9028 0.94444 "X[1] <= 0.5\nmse = 596430000.0\nsamples = 2\nvalue = 266200.0" filled, rounded box black #f2be98
node 706 656.85 0.36806 1.6806 0.73611 "mse = 0.0\nsamples = 1\nvalue = 280300.0" filled, rounded box black #f1ba93
node 707 658.78 0.36806 1.6806 0.73611 "mse = 0.0\nsamples = 1\nvalue = 223900.0" filled, rounded box black #f4c9aa
node 708 660.97 1.7083 2.1111 0.94444 "X[5] <= -117.44\nmse = 1775903210.06\nsamples = 16\nvalue = 357157.69" filled, rounded box black #eda673
node 709 660.88 0.36806 2.0139 0.73611 "mse = 721689695.29\nsamples = 11\nvalue = 341836.84" filled, rounded box black #edaa7a
node 710 663.2 0.36806 2.1111 0.73611 "mse = 2270893877.55\nsamples = 5\nvalue = 398742.86" filled, rounded box black #ea9b62
node 711 668.73 4.5972 2.1111 0.94444 "X[6] <= 37.81\nmse = 1030900695.67\nsamples = 70\nvalue = 483830.68" filled, rounded box black #e68540
node 712 668.73 3.1528 2.0139 0.94444 "X[12] <= 8.6\nmse = 312132866.64\nsamples = 59\nvalue = 492137.31" filled, rounded box black #e5833c
node 713 667.59 1.7083 2.0139 0.94444 "X[5] <= -118.35\nmse = 209567369.74\nsamples = 55\nvalue = 494497.26" filled, rounded box black #e5823b
node 714 665.47 0.36806 1.9028 0.73611 "mse = 70091873.97\nsamples = 42\nvalue = 496888.33" filled, rounded box black #e5823a
node 715 667.67 0.36806 2.0139 0.73611 "mse = 564110296.82\nsamples = 13\nvalue = 487210.19" filled, rounded box black #e6843e
node 716 669.85 1.7083 2.0139 0.94444 "X[5] <= -118.43\nmse = 713989547.11\nsamples = 4\nvalue = 467062.88" filled, rounded box black #e78a46
node 717 669.77 0.36806 1.6806 0.73611 "mse = 0.0\nsamples = 2\nvalue = 500001.0" filled, rounded box black #e58139
node 718 671.81 0.36806 1.9028 0.73611 "mse = 100860000.0\nsamples = 2\nvalue = 447300.0" filled, rounded box black #e88f4f
node 719 675.02 3.1528 2.1111 0.94444 "X[5] <= -122.23\nmse = 2520523162.84\nsamples = 11\nvalue = 438388.53" filled, rounded box black #e89152
node 720 675.02 1.7083 2.0139 0.94444 "X[8] <= 2486.5\nmse = 411910753.33\nsamples = 6\nvalue = 482545.0" filled, rounded box black #e68640
node 721 673.97 0.36806 1.9028 0.73611 "mse = 80222222.22\nsamples = 2\nvalue = 458933.33" filled, rounded box black #e78c4a
node 722 676.17 0.36806 2.0139 0.73611 "mse = 159621916.81\nsamples = 4\nvalue = 494350.83" filled, rounded box black #e5823b
node 723 678.34 1.7083 2.0139 0.94444 "X[7] <= 34.0\nmse = 231486093.75\nsamples = 5\nvalue = 388712.5" filled, rounded box black #eb9e66
node 724 678.34 0.36806 1.8056 0.73611 "mse = 67280000.0\nsamples = 2\nvalue = 371700.0" filled, rounded box black #eca26d
node 725 680.4 0.36806 1.8056 0.73611 "mse = 52161600.0\nsamples = 3\nvalue = 398920.0" filled, rounded box black #ea9b62
node 726 690.49 6.0417 2.1111 0.94444 "X[1] <= 0.5\nmse = 1733849495.86\nsamples = 219\nvalue = 487307.1" filled, rounded box black #e6843e
node 727 690.49 4.5972 1.9028 0.94444 "X[5] <= -117.92\nmse = 803411840.0\nsamples = 205\nvalue = 491657.16" filled, rounded box black #e5833c
node 728 688.17 3.1528 2.0139 0.94444 "X[6] <= 37.8\nmse = 243208949.07\nsamples = 165\nvalue = 496928.92" filled, rounded box black #e5823a
node 729 684.77 1.7083 1.9028 0.94444 "X[7] <= 19.5\nmse = 89572600.12\nsamples = 145\nvalue = 498782.28" filled, rounded box black #e58139
node 730 682.56 0.36806 2.0139 0.73611 "mse = 311433158.82\nsamples = 24\nvalue = 495310.43" filled, rounded box black #e5823b
node 731 684.77 0.36806 1.9028 0.73611 "mse = 36713546.41\nsamples = 121\nvalue = 499557.91" filled, rounded box black #e58139
node 732 688.17 1.7083 2.1111 0.94444 "X[7] <= 20.0\nmse = 1168523925.25\nsamples = 20\nvalue = 483178.19" filled, rounded box black #e68540
node 733 687.03 0.36806 2.1111 0.73611 "mse = 1859211644.69\nsamples = 6\nvalue = 456900.44" filled, rounded box black #e78c4b
node 734 689.35 0.36806 2.0139 0.73611 "mse = 487922115.79\nsamples = 14\nvalue = 493928.18" filled, rounded box black #e5833b
node 735 691.67 3.1528 2.1111 0.94444 "X[6] <= 33.9\nmse = 2351704569.58\nsamples = 40\nvalue = 472808.81" filled, rounded box black #e68844
node 736 691.67 1.7083 2.1111 0.94444 "X[12] <= 9.2\nmse = 1486757403.93\nsamples = 39\nvalue = 477859.76" filled, rounded box black #e68742
node 737 691.67 0.36806 2.1111 0.73611 "mse = 1567600791.96\nsamples = 4\nvalue = 411514.43" filled, rounded box black #ea985d
node 738 693.99 0.36806 2.0139 0.73611 "mse = 943821791.83\nsamples = 35\nvalue = 485116.28" filled, rounded box black #e6853f
node 739 693.83 1.7083 1.6806 0.73611 "mse = 0.0\nsamples = 1\nvalue = 293500.0" filled, rounded box black #f0b78d
node 740 696.88 4.5972 2.2222 0.94444 "X[5] <= -121.57\nmse = 12132151797.78\nsamples = 14\nvalue = 406589.33" filled, rounded box black #ea995f
node 741 696.88 3.1528 2.0139 0.94444 "X[12] <= 9.87\nmse = 708170250.23\nsamples = 7\nvalue = 483800.62" filled, rounded box black #e68540
node 742 695.87 1.7083 1.6806 0.73611 "mse = 0.0\nsamples = 1\nvalue = 418800.0" filled, rounded box black #e9965a
node 743 697.91 1.7083 1.9028 0.94444 "X[7] <= 15.5\nmse = 119528245.1\nsamples = 6\nvalue = 493086.43" filled, rounded box black #e5833c
node 744 696.09 0.36806 1.6806 0.73611 "mse = 0.0\nsamples = 5\nvalue = 500001.0" filled, rounded box black #e58139
node 745 698.02 0.36806 1.6806 0.73611 "mse = 0.0\nsamples = 1\nvalue = 475800.0" filled, rounded box black #e68743
node 746 700.88 3.1528 2.2222 0.94444 "X[7] <= 21.0\nmse = 12686656708.21\nsamples = 7\nvalue = 344820.3" filled, rounded box black #eda978
node 747 700.88 1.7083 2.1111 0.94444 "X[7] <= 11.5\nmse = 1496471388.89\nsamples = 4\nvalue = 259616.67" filled, rounded box black #f2bf9b
node 748 699.95 0.36806 1.6806 0.73611 "mse = 0.0\nsamples = 1\nvalue = 345900.0" filled, rounded box black #eda978
node 749 701.9 0.36806 1.6944 0.73611 "mse = 9010400.0\nsamples = 3\nvalue = 242360.0" filled, rounded box black #f3c4a2
node 750 703.84 1.7083 2.1111 0.94444 "X[12] <= 9.14\nmse = 2248212937.69\nsamples = 3\nvalue = 472625.75" filled, rounded box black #e68844
node 751 703.84 0.36806 1.6806 0.73611 "mse = 0.0\nsamples = 1\nvalue = 390500.0" filled, rounded box black #eb9d66
node 752 705.77 0.36806 1.6806 0.73611 "mse = 0.0\nsamples = 2\nvalue = 500001.0" filled, rounded box black #e58139
edge 0 1 4 405.01 13.235 394.54 13.093 313.55 11.996 302.71 11.85 solid black
edge 0 404 4 407.23 13.235 417.68 13.093 498.43 12 509.49 11.85 solid black
edge 1 2 4 300.45 11.794 288.58 11.669 180.74 10.534 168.16 10.401 solid black
edge 1 229 4 301.51 11.346 301.51 11.233 301.51 11.111 301.51 10.993 solid black
edge 2 3 4 165.91 10.347 155.59 10.209 73.046 9.1067 62.095 8.9605 solid black
edge 2 104 4 166.97 9.9012 166.97 9.7886 166.97 9.6664 166.97 9.5482 solid black
edge 3 4 4 59.837 8.8703 54.981 8.6579 34.859 7.7774 29.72 7.5525 solid black
