graph 1 37.389 6.5139
node 0 18.611 6.0417 2.2222 0.94444 "X[12] <= 5.03\nmse = 13099941951.14\nsamples = 10450\nvalue = 205416.58" filled, rounded box black #f7d7c0
node 1 13.958 4.5972 2.1111 0.94444 "X[1] <= 0.5\nmse = 8048633530.38\nsamples = 8252\nvalue = 171787.26" filled, rounded box black #f9e2d1
node 2 6.9583 3.1528 2.1111 0.94444 "X[12] <= 2.91\nmse = 7806653524.07\nsamples = 5242\nvalue = 206993.85" filled, rounded box black #f7d7c0
node 3 3.4167 1.7083 2.1111 0.94444 "X[6] <= 34.03\nmse = 5500468941.35\nsamples = 1943\nvalue = 166529.14" filled, rounded box black #f9e3d4
node 4 1.0556 0.36806 2.1111 0.73611 "mse = 3611830350.14\nsamples = 924\nvalue = 149522.83" filled, rounded box black #fae9dc
node 5 3.4167 0.36806 2.1111 0.73611 "mse = 6736612160.23\nsamples = 1019\nvalue = 182326.1" filled, rounded box black #f8decc
node 6 6.9583 1.7083 2.0139 0.94444 "X[5] <= -118.31\nmse = 7633545612.2\nsamples = 3299\nvalue = 230794.78" filled, rounded box black #f5cfb4
node 7 5.7778 0.36806 2.1111 0.73611 "mse = 8940522713.98\nsamples = 1803\nvalue = 253804.38" filled, rounded box black #f4c8a9
node 8 8.1389 0.36806 2.1111 0.73611 "mse = 4615291855.37\nsamples = 1496\nvalue = 202798.12" filled, rounded box black #f7d8c2
node 9 13.958 3.1528 2.1111 0.94444 "X[12] <= 3.03\nmse = 2744318733.91\nsamples = 3010\nvalue = 111758.22" filled, rounded box black #fdf5ef
node 10 12.778 1.7083 2.1111 0.94444 "X[12] <= 2.3\nmse = 1548989582.28\nsamples = 1741\nvalue = 90801.55" filled, rounded box black #fefbf9
node 11 10.458 0.36806 2.0139 0.73611 "mse = 1215561026.2\nsamples = 964\nvalue = 79162.4" filled, rounded box black #ffffff
node 12 12.778 0.36806 2.1111 0.73611 "mse = 1588320450.72\nsamples = 777\nvalue = 105049.0" filled, rounded box black #fdf7f2
node 13 15.139 1.7083 2.1111 0.94444 "X[12] <= 4.07\nmse = 2962104500.02\nsamples = 1269\nvalue = 140175.96" filled, rounded box black #fbece1
node 14 15.139 0.36806 2.1111 0.73611 "mse = 2049649303.57\nsamples = 861\nvalue = 128241.78" filled, rounded box black #fcf0e7
node 15 17.5 0.36806 2.1111 0.73611 "mse = 3953253081.41\nsamples = 408\nvalue = 165390.55" filled, rounded box black #f9e4d4
node 16 23.292 4.5972 2.2222 0.94444 "X[12] <= 7.42\nmse = 12031615341.57\nsamples = 2198\nvalue = 330531.5" filled, rounded box black #efb083
node 17 23.292 3.1528 2.1111 0.94444 "X[1] <= 0.5\nmse = 9022817213.77\nsamples = 1715\nvalue = 297967.74" filled, rounded box black #f1ba93
node 18 22.111 1.7083 2.1111 0.94444 "X[12] <= 5.88\nmse = 8173013958.96\nsamples = 1415\nvalue = 314349.23" filled, rounded box black #f0b58b
node 19 19.819 0.36806 2.0139 0.73611 "mse = 7697048939.7\nsamples = 790\nvalue = 289735.97" filled, rounded box black #f1bd97
node 20 22.139 0.36806 2.1111 0.73611 "mse = 7001151039.88\nsamples = 625\nvalue = 346045.43" filled, rounded box black #eeab7b
node 21 24.472 1.7083 2.1111 0.94444 "X[7] <= 35.5\nmse = 6177233647.76\nsamples = 300\nvalue = 224001.84" filled, rounded box black #f6d1b7
node 22 24.458 0.36806 2.0139 0.73611 "mse = 4440916361.6\nsamples = 262\nvalue = 211673.44" filled, rounded box black #f6d5bd
node 23 26.778 0.36806 2.1111 0.73611 "mse = 9695154868.69\nsamples = 38\nvalue = 312971.75" filled, rounded box black #f0b58b
node 24 30.319 3.1528 2.1111 0.94444 "X[12] <= 8.42\nmse = 5913739660.79\nsamples = 483\nvalue = 444191.15" filled, rounded box black #e78c4a
node 25 30.319 1.7083 2.1111 0.94444 "X[7] <= 27.5\nmse = 6381285143.79\nsamples = 217\nvalue = 403112.15" filled, rounded box black #ea995f
node 26 29.139 0.36806 2.1111 0.73611 "mse = 5518730834.91\nsamples = 130\nvalue = 373450.33" filled, rounded box black #eca26d
node 27 31.5 0.36806 2.1111 0.73611 "mse = 3970105704.94\nsamples = 87\nvalue = 451925.68" filled, rounded box black #e78a46
node 30 36.333 0.36806 2.1111 0.73611 "mse = 2240759893.19\nsamples = 260\nvalue = 478966.11" filled, rounded box black #e58139
edge 0 1 4 17.497 5.6885 16.789 5.4731 15.875 5.1947 15.153 4.9748 solid black
edge 0 16 4 19.726 5.6903 20.422 5.4796 21.32 5.208 22.04 4.99 solid black
edge 1 2 4 12.899 4.3689 11.624 4.1108 9.4873 3.6785 8.154 3.4086 solid black
edge 1 9 4 13.958 4.1234 13.958 4.0108 13.958 3.8886 13.958 3.7704 solid black
edge 2 3 4 5.9005 2.7158 5.494 2.5532 5.0274 2.3665 4.6091 2.1992 solid black
edge 2 6 4 6.9583 2.6789 6.9583 2.5664 6.9583 2.4442 6.9583 2.326 solid black
edge 3 4 4 2.5909 1.2354 2.3406 1.0963 2.0669 0.94412 1.8208 0.80731 solid black
edge 3 5 4 3.4167 1.2354 3.4167 1.121 3.4167 0.99789 3.4167 0.88169 solid black
edge 6 7 4 6.5454 1.2354 6.4311 1.1083 6.3071 0.97041 6.1927 0.84323 solid black
edge 6 8 4 7.3712 1.2354 7.4855 1.1083 7.6096 0.97041 7.724 0.84323 solid black
edge 9 10 4 13.575 2.6789 13.473 2.5565 13.361 2.4226 13.255 2.2949 solid black
edge 9 13 4 14.342 2.6789 14.444 2.5565 14.555 2.4226 14.662 2.2949 solid black
edge 10 11 4 11.967 1.2354 11.721 1.0963 11.452 0.94412 11.21 0.80731 solid black
edge 10 12 4 12.778 1.2354 12.778 1.121 12.778 0.99789 12.778 0.88169 solid black
edge 13 14 4 15.139 1.2354 15.139 1.121 15.139 0.99789 15.139 0.88169 solid black
edge 13 15 4 15.965 1.2354 16.215 1.0963 16.489 0.94412 16.735 0.80731 solid black
edge 16 17 4 23.292 4.1234 23.292 4.0108 23.292 3.8886 23.292 3.7704 solid black
edge 16 24 4 24.405 4.3589 25.693 4.0993 27.805 3.6736 29.126 3.4073 solid black
edge 17 18 4 22.908 2.6789 22.806 2.5565 22.695 2.4226 22.588 2.2949 solid black
edge 17 21 4 23.675 2.6789 23.777 2.5565 23.889 2.4226 23.995 2.2949 solid black
edge 18 19 4 21.31 1.2354 21.067 1.0963 20.801 0.94412 20.562 0.80731 solid black
edge 18 20 4 22.121 1.2354 22.123 1.121 22.126 0.99789 22.128 0.88169 solid black
edge 21 22 4 24.467 1.2354 24.466 1.121 24.465 0.99789 24.464 0.88169 solid black
edge 21 23 4 25.279 1.2354 25.523 1.0963 25.79 0.94412 26.031 0.80731 solid black
edge 24 25 4 30.319 2.6789 30.319 2.5664 30.319 2.4442 30.319 2.326 solid black
edge 24 28 4 31.379 2.7215 31.802 2.5551 32.29 2.3627 32.725 2.1915 solid black
edge 25 26 4 29.907 1.2354 29.792 1.1083 29.668 0.97041 29.554 0.84323 solid black
edge 25 27 4 30.732 1.2354 30.847 1.1083 30.971 0.97041 31.085 0.84323 solid black
edge 28 29 4 33.917 1.2354 33.917 1.121 33.917 0.99789 33.917 0.88169 solid black
edge 28 30 4 34.762 1.2354 35.018 1.0963 35.298 0.94412 35.55 0.80731 solid black
stop
